A3PF2ITJ9Q90NY	0.015592397 -0.009650064 -0.00020317861 0.012798165 0.0059848595 0.006714076 0.007666126 0.0043615676 0.00035574505 0.00092935254 0.012099919 -0.00097342796 -0.0016206363 -0.008009411 -0.015672699 0.0057839737 0.004011336 -0.008033401 0.020498786 0.0020848007 0.00058123056 -0.012433947 0.0008316944 0.0017529037 0.014724171 -0.0030362115 0.004974525 0.0049245213 0.019161588 -0.012291232 0.010551653 -0.009331907 0.0053917575 0.00916664 0.01407586 -0.016794017 0.0021591312 -0.01435353 0.00036295678 0.0030617919 -0.0018917174 -0.0037054205 -0.004246168 0.0069994507 0.0068886746 0.018714717 -0.0063513224 0.006671735 0.0048773843 0.0018698281 0.009231566 0.0074809305 0.005627211 0.012497163 0.0027850035 -0.008157471 0.012835578 0.0031677377 -0.0074353954 0.0015353025 -0.0048861755 -0.010345765 -0.012683369 0.007055166 -0.008847993 -0.009640947 -0.007927958 -0.006778973 -0.0111530535 0.015457747 0.008542444 0.0020496463 -0.0079183 0.0045647654 -0.0068757567 1.2923834e-05 0.012461705 -0.0023187876 -0.010286894 -0.005214184 0.016099181 0.0018162826 0.0021859515 0.0050159628 0.007155766 -0.0055355243 -0.006790873 -0.0067116763 -0.0055182474 -0.007254338 0.016661547 -0.013229425 -0.0049629644 0.014382078 0.0038722884 -0.0032571387 0.005947278 0.007308646 -0.0076228874 0.001195865 0.0041574733 -0.002007688 0.0095677 0.0021492962 -0.007297375 -0.0027943703 0.003033788 0.014743524 0.011768068 -0.0062943264 -0.01429636 -0.01860477 0.006382931 -0.022664234 -0.012518268 0.009924129 0.0015460405 0.00065126905 -0.012998894 0.0024032905 0.0020339706 -0.0026379905 -0.01966265 0.003807098 0.008842488 -0.0065206476 0.0018128405 -0.0010502758 
A9LNRRYLOSIUT	0.011142808 -0.007413648 0.009224873 0.014196272 0.00022229973 -0.0017859908 0.0016728657 0.0031314997 0.0072564753 0.020745011 -0.0116318595 0.0069398223 0.00059203134 0.0073544965 0.015433231 0.0030794074 -0.0006270913 0.011924524 -0.0036350107 0.007230385 0.0053515886 -0.001130206 0.014620669 0.0056037656 -0.0011193956 -0.009512686 0.0047073383 0.008184789 -0.0020953943 -0.009975051 -0.0057744426 0.022831002 0.013133998 0.0003132344 0.006754624 0.018171763 -0.004571033 0.005176511 0.001541604 0.0045716255 -0.005958616 -0.0063805096 0.008792041 0.020370893 0.0091079585 -0.0060524675 -0.013661824 -0.0028236483 -0.0047783633 -0.004047769 -0.008653591 -0.011429011 0.0031762912 0.0111567145 -0.015673013 -0.010740361 -0.0048926827 0.0040470455 0.010089343 -0.020804906 0.016052285 -0.008118027 0.018131444 0.00808837 -0.0032880348 -0.0036045809 -0.022675328 -0.01133153 0.011630722 -0.011617462 0.012037863 0.004575551 0.0015061866 -0.009571722 0.00630821 -0.0071305735 -0.0069160396 -0.012871939 -0.014380733 -0.014693177 0.009011769 -0.0072855684 -0.011787286 -0.03063093 0.0051788655 0.0042993883 0.011505578 0.013140914 0.0008478017 0.010679515 -0.0005765213 -0.0046439213 -0.007099009 -0.009600107 0.003985283 0.015069725 -0.009767723 0.0038301304 -0.007878023 0.009549623 -0.014653223 -0.0140137905 0.0035972542 -0.009556393 -0.007647123 -0.0069454806 0.01408313 -0.005730206 -0.012388771 0.0063055274 -0.008696149 -0.00055094156 0.0047074915 0.0053492705 0.0039870446 -0.0065437295 0.00046432298 0.001497385 -0.0076641757 0.008338501 0.001654469 -0.0066068387 -0.013770558 0.0037834223 -0.0015958598 0.009589525 -0.006961686 -0.011666194 
A1X5K5AFPF2LNJ	0.0022536009 -0.042116992 -0.036927268 0.04008075 -0.010597741 -0.0106371725 0.035614215 0.037338324 0.018703265 0.037560083 -0.017282182 -0.029114256 0.022501187 -0.032070827 -0.026081309 0.03347315 0.016718049 0.022786478 0.029350003 -0.012903869 -0.056866717 -0.039145894 0.029774874 -0.0019649062 0.03950438 0.023098905 0.011332366 0.017523766 0.016171793 -0.07570819 -0.015976368 -0.037175525 -0.0143402 0.0462827 -0.005653851 0.006197802 0.020870239 -0.04329688 0.0398925 0.006444613 0.00013504743 0.019720724 -0.00946719 0.01613136 -0.0012011903 0.04675622 -0.049826197 -0.024001358 -0.016216956 -0.0069824727 0.0053828955 0.019157168 0.05071976 0.0065474203 0.052249476 -0.0039614555 0.037179925 0.0043665543 0.018364698 0.047361005 -0.03558298 0.028900402 -0.02734215 0.020649528 0.0054979837 -0.014415828 0.034975167 -0.015649395 -0.06423001 -0.0064071673 -0.017362164 -0.0105279265 -0.01530597 0.01575674 0.045610216 -0.006098922 -0.021110402 -0.022840789 0.015723692 0.031724375 -0.0027643668 -0.02920997 0.012441444 0.070032835 -0.004825924 0.011041322 0.0025454615 -0.012631538 0.02191508 0.01582293 -0.02404628 0.032940898 0.00021373709 0.012331791 0.008958952 -0.03615801 0.017881582 0.038586445 -0.011067921 -0.03557095 0.017069647 -0.020642383 0.03034586 0.039154757 0.014106006 0.017180806 -0.024583463 0.0073874756 0.046806782 -0.00016272231 -0.0069923247 -0.03772105 -0.0029980752 -0.083493724 0.008682737 0.03491683 -0.02085309 0.0015612202 0.0028519544 0.023465088 -0.033166103 -0.001397654 0.0042477758 0.030433875 0.0052398993 -0.01559988 0.010588637 0.03796057 
A2LYT2QET2KC4N	0.016050514 0.02413659 -0.0024164324 -0.015488875 -0.0013166191 0.0033638724 0.011215417 0.011628934 0.014194154 -0.009522325 -0.028142087 0.0014431075 0.023643835 0.009709447 -0.011454219 -0.029609501 0.028086249 -0.026043277 -0.021920163 0.0093879085 -0.002795979 -0.016166592 0.011281844 -0.037841115 0.042153038 0.019068617 -0.011733835 0.051363353 -0.008266599 -0.03272982 -0.0010431219 -0.005839042 -0.0043028886 0.018449714 -0.021032142 0.003884801 0.01571617 -0.020407505 5.0425857e-05 -0.034791164 -0.011261526 0.016866649 -0.01058175 0.0009432797 0.004260277 0.0039976323 0.013411431 0.024610542 0.0045484076 -0.010147048 0.012004329 0.012503071 0.005426168 -0.021648958 0.04372737 -0.016218835 -0.012965143 -0.008069662 0.008068331 0.030956797 -0.017586563 -0.002662257 0.01364534 -0.02568456 0.03008214 0.011709885 0.010912761 0.010814262 -0.012267078 -0.00072570954 0.012340303 -0.005811605 -0.011208662 0.019599006 -0.047107518 0.053022962 0.006516096 0.033421647 -0.010567754 0.031974778 0.04242278 -0.008880427 -0.003907803 0.011352068 0.0118762525 0.017187564 0.003394085 0.021677094 -0.049662177 0.0052194744 -0.0046919133 -0.023368062 -0.03409413 -0.02059444 -0.0034004387 0.008073557 -0.0068806293 0.017986713 0.00707166 0.03599943 0.024056662 0.0068650786 0.019871188 0.015054854 -0.0013844597 0.013682036 -0.018519212 0.011502718 0.050058812 0.011556877 -0.04200623 -0.004369225 0.0121354805 -0.0103729395 -0.0016600464 -0.009522094 -0.051449012 0.014349885 -0.010701989 0.01125206 0.021188492 0.0354658 0.011073644 -0.014065073 -0.0029079488 0.011079925 0.021761492 0.017377926 
AHD3NZHDUZ5I6	-0.017306434 0.0054935114 -0.013872937 0.015922878 0.006629731 -0.0033443035 0.008860589 0.01062563 0.009102426 -0.0037487808 0.010322687 -0.0016269275 -0.0025066866 -0.021124449 -0.010309528 0.019063288 0.0071130446 0.0038219797 0.0038247043 0.009899639 0.0075178645 -0.015429484 0.02986378 0.011342074 -0.0048379186 -0.0026398369 0.006666304 0.030921089 -0.009832952 0.001658118 0.019624759 -0.01587855 -0.012429441 0.028642071 0.006466697 0.0025686624 0.015844138 -0.009239798 -0.019437946 -0.002598215 -0.001384093 0.0038165217 -0.007415149 -0.0016324882 0.008120996 0.021753399 -0.0014623879 -0.012847938 0.0026242384 -0.029471984 0.00473917 -0.022480836 -0.0042690295 -0.012791705 -0.00040724853 0.008562053 -0.009677789 0.009070165 0.008714773 0.01272177 0.017993705 -0.030955669 -0.019729825 -0.011664961 -0.0013166595 -0.018816888 -0.010300319 0.0077496246 0.0032437611 -0.0005865573 0.0036031355 -0.008431122 0.0062651443 -0.027486349 0.013148841 0.00056515407 0.0014964555 -0.003844905 0.0023779715 -0.025515247 0.016414937 -0.024026796 0.0071964306 0.016601766 -0.018390052 0.015192686 0.007017788 0.007000597 0.0142916 0.018595934 -0.029182438 0.0041692387 0.008881937 -0.025066704 -0.012057856 -0.01672003 -0.007424922 0.009773288 -0.007046323 0.007704976 0.012564217 -0.0035753408 -0.0008947546 -0.012336768 -0.011676295 0.012030878 0.017978176 -0.0028641722 0.009668153 -0.020954948 -0.020004706 -0.005943461 0.001758536 -0.014702783 0.009232977 0.028107014 -0.006446754 -0.0076779635 0.00231957 -0.0143712545 -0.011856694 0.009778955 0.010476972 -0.010853461 0.009955163 0.030715775 -0.034148656 0.023968799 
A1B24Z70GEJYAG	0.0053362777 0.006221008 -0.007300634 -0.0008605362 -0.011939172 -0.0017320205 -0.019032303 0.0007512785 0.0021147588 0.0018159706 0.00079857605 -0.0005229338 0.0031605042 -0.0045125377 -0.007553268 0.0047683404 -0.010442755 -0.021422703 -0.0050167586 -0.006742053 0.0014861088 0.00067892944 0.0013543757 0.00836851 -0.0063204784 0.0041528987 0.0022540991 0.00133112 0.02066202 -0.0020266885 -0.009324801 -0.004231765 -0.009380092 0.00093449996 -0.0025331308 -0.015692107 0.0060023945 0.004450851 -0.004232041 -0.012821385 0.016878262 0.0012491378 -0.0057192077 -0.0021685818 0.005027545 -0.003649345 0.011925382 -0.00041639953 -0.008360569 0.0004015472 -0.0019496327 -0.0039881924 -0.011644947 -0.0185608 0.0031378237 0.011219022 -0.0072274194 -0.002717419 -0.012826263 0.003752294 -0.0024262974 0.008753842 0.00047301958 -0.0019422588 0.009231981 -0.0068307095 0.008735018 -0.0015963949 -0.0052936557 -0.0006765271 0.0053564114 0.0143437795 0.0032348074 -0.0005030378 0.0045752013 0.01060223 0.006267331 0.014555786 0.011205161 -0.012885735 -0.0048170555 0.011863093 0.008215539 -0.000604019 -0.00841548 -0.0140548535 -0.00042622746 -0.004418752 0.0011762053 0.0049079093 0.0070384457 -0.011815487 -0.00163478 -0.012480678 0.0076875966 0.005113856 0.007154274 -0.009384648 -0.011280322 -0.002604125 0.013247326 -0.007164376 -0.005528419 0.012606705 -0.0046354905 0.005601741 0.0005643885 0.0027617353 0.002790444 0.0009202821 -0.0047967657 0.004974073 0.0029282372 0.017502733 -0.017327638 0.0021969671 0.001305486 0.0049666716 0.0068042018 0.00065352494 -0.0012389864 0.007009788 0.0057486915 0.0072882194 -0.0054074535 -0.0026177599 -0.011456758 0.004420957 
A2V9F0I5UE9LN5	-0.004987439 0.032265007 -0.012115789 -0.0009361916 -0.013778384 -0.0077490117 -0.014203614 -0.009700529 -0.002413911 -0.014219304 0.0369912 0.017713 -0.008809997 0.012631774 -0.02187182 0.007755646 -0.02375656 -0.024467314 0.0032050053 -0.008308284 -0.014022653 -0.015117499 -0.0036289012 -0.008153343 -0.017999932 0.008988304 -0.00308107 -0.0065459907 0.03337912 0.015625093 -0.03207166 -0.0018973803 -0.022413805 -0.006668661 0.012021234 -0.013941968 0.004433357 0.006694807 0.0047906996 -0.026594823 0.013902792 0.019122878 -0.03480689 -0.026647566 -0.005033072 0.01603615 0.021556532 0.010689694 -0.005497517 0.019201783 0.0020987242 0.0021459684 -0.008272689 -0.03168045 -0.0038477844 0.023153171 -0.01658504 0.017172387 -0.0119213825 0.008727116 -0.016881041 0.007911015 -0.0024875868 -0.0056100897 0.018202936 0.011882397 0.033261634 -0.005534376 -0.016979355 0.011104156 -0.01528669 0.009550974 0.0041458677 0.013518499 0.0017555853 0.018046487 0.0020264597 0.033597633 0.015569059 -0.020691015 -0.015255515 0.00054250733 0.018627139 0.0075692693 -0.011204989 -0.033943452 -0.038762964 0.0008310405 -0.010878632 0.005316534 0.011926115 0.0018810466 -0.017575983 -0.004539426 -0.0001681223 -0.0009692872 0.021533627 -0.017619275 0.0028563414 -0.0021000572 0.008012512 0.0022697018 -0.038939197 0.0281763 -0.01838048 0.008513571 -0.011399234 0.006914099 0.0057684323 0.005783879 0.016677788 -0.0021499584 -0.030978754 0.019625306 -0.01011189 0.0035165348 0.016180342 0.012841182 0.011895356 -0.004440178 0.0034652587 0.024688408 0.027884275 0.0018826475 -0.0015779486 0.0030457485 -0.020648636 0.01274666 
A1GP7SFKQ719HI	0.01870308 0.025042024 -0.027973525 -0.012692546 0.00867612 -0.012219138 -0.023924297 -0.0061449627 0.0056021353 -0.026882695 -0.005945704 0.034156196 -0.006094302 0.018915659 -0.042631213 0.02120532 -0.009458183 -0.02242705 -0.025414342 -0.034073867 -0.012120699 -0.032707613 -0.016580239 -0.024437187 0.02185628 0.013611659 0.004378667 0.0049653975 0.05390422 0.030035181 -0.053995363 0.009772634 -0.0073173502 0.019723268 0.007894814 -0.017413558 0.01812353 -0.02474721 -0.031124165 -0.029086722 0.010679224 0.0015134452 -0.036548156 -0.00014012241 0.0028774962 0.02688275 0.017708097 0.021426896 -0.023322638 -0.0005094695 0.009560938 0.014846449 -0.023076637 -0.012697278 0.010592228 0.013094976 -0.032456163 0.0056676646 -0.028835438 0.020748615 -0.0006344037 -0.00016051653 -0.010144642 -0.0013738954 0.01938516 0.0019984508 0.03338258 -0.0277923 -0.015399513 0.028541384 -0.0066392818 9.347712e-05 0.0024656225 0.014445488 -0.005884646 0.025272 -0.034297597 0.06339371 -0.011865183 -0.029100463 -0.010855308 -0.00240166 0.017639086 0.00043944232 -0.023530716 -0.047259632 -0.035538934 -0.0015059182 0.00995799 0.01746336 0.019747166 0.0064266236 -0.0071442146 -0.01714236 0.010423655 -0.011941342 -0.0031584352 -0.007369146 -0.035421226 0.016501272 -0.0064687137 0.013830187 -0.02628027 0.035688166 -0.03456156 -0.010756925 -0.01850349 0.013853571 0.010246098 -0.006825124 -0.011785114 -0.030693872 -0.012043295 0.022338906 -0.069459446 0.014236626 0.017545285 -0.02392692 0.00057822285 -0.018108586 0.023667851 0.0038771075 0.04508502 -0.013489886 0.010145552 -0.007128614 -0.03240842 0.0011037529 
A1G7YSG5MOEOXE	-0.0043900283 0.0037507406 -0.010507824 0.016804107 -0.025118338 0.008526896 0.040154744 0.04879257 -0.0005146087 -0.00051632617 0.01804161 0.0040619774 0.009695465 0.009494926 -0.0065750224 0.008918801 0.019554913 0.00085998885 0.0173817 0.019931667 -0.043551974 -0.0071488335 0.00045347883 0.025943149 0.035227243 -0.005586626 -0.021116331 0.008403098 -0.045624085 0.0024176103 -0.04077028 -0.007731001 0.0108540645 0.0021462718 0.00749356 -0.00027161377 -0.029006634 0.03611375 0.0014942833 -0.021340588 -0.0058985446 0.01056743 -0.017686846 0.03424547 0.020499723 -0.015372552 0.013039906 -0.015092746 -0.010846126 0.006622709 0.021664627 -0.0014490216 0.024942266 -0.008893782 -0.0050525023 -0.015107782 -0.037045307 0.02359636 0.037945554 -0.036083557 0.033906583 0.0101770265 0.022120595 -0.011966233 0.030168148 0.006477132 0.043009717 0.024798531 0.0019853169 -0.0031747178 -0.042347156 -0.00036626164 -0.008245628 0.004459369 -0.007873085 -0.015740003 0.024847992 -0.009159057 0.03976842 0.00038135037 -0.014775973 -0.022740122 0.005582275 -0.025979945 0.04132918 0.015265535 0.0040518115 0.008811964 -0.017610593 -0.021601522 -0.015549518 0.0142221255 -0.04623567 0.0006933624 -0.024012363 0.0024893873 0.0014387872 0.017624144 0.022295691 -0.001508797 -0.0053657917 -0.019692684 -0.007325079 -0.0072561125 -0.017519062 0.005067548 6.49243e-05 -0.01304217 0.01854091 0.017443234 0.024134343 0.018500427 0.011961085 -0.0088488115 0.044817284 -0.0056502405 0.025839569 -0.012923278 0.014007864 0.01526926 -0.008417212 0.0010973861 -0.042672444 0.011839299 -0.006661208 0.03324069 0.022689471 0.017755475 
A1UETH6JZJARIW	0.007991261 -0.026983805 -0.013561109 0.0031255796 -0.013888237 0.0009913407 0.010309749 0.012975616 0.0031257041 0.015428464 -1.8906732e-05 -0.031040514 -0.0030575374 0.0037785945 0.007947672 -0.011127027 0.027908243 0.0011832878 0.02907162 0.008621361 -0.0063593076 -0.009325869 -0.0059199054 0.0051998277 0.046045948 -0.01109378 -0.0066927415 0.012711175 -0.015536589 -0.032360956 0.004823004 -0.012397472 0.012538785 0.007975022 -0.0018590441 -0.014763552 -0.01670548 -0.014741377 0.00618832 0.020361945 -0.0029227252 -0.023879942 -0.0076622884 -0.004383224 0.01636632 0.0055359653 -0.024856167 0.013961295 -0.017564943 -0.0016342914 -0.020486873 0.0127285905 0.010229238 0.023915922 0.008625212 -0.02734751 0.015898623 0.015255269 -0.002977895 0.009112342 -0.003831615 -0.007848413 -0.003878596 -0.0009366702 0.0078487005 -0.004680565 0.0024060884 0.011534074 -0.0048107104 -0.0025653865 -0.003891145 -0.0074134665 0.0068124584 0.006247403 0.004282815 -0.011394965 -0.0014983721 0.002947034 0.012854982 0.016913306 0.0036637885 -0.0058389655 -0.0012818474 0.04680315 0.0023516358 -0.01305732 0.005152265 -0.010319627 0.0176252 -0.012796964 0.011454076 0.016054567 0.009554348 0.013214978 0.0042902683 -0.0010204765 -0.0014652605 -0.0010769089 0.023390256 -0.016954903 0.0005704101 0.018076234 0.02526582 -0.012656869 0.014733965 0.030415736 0.01330535 0.0004392482 0.02042515 -0.009843166 0.001100074 0.007194887 0.01519864 -0.035433132 0.010704997 -0.0026115936 -0.024337025 -0.0017932486 0.021423604 0.008585022 -0.02381803 -0.01702214 -0.031137403 -0.004981975 0.00020816713 0.011229231 0.028541213 0.009810105 
A2YSEFNW5TBLZZ	0.0011466196 -0.12161434 -0.009708461 -0.019157952 0.060306218 -0.046390504 -0.0052140853 0.009171655 -0.09030965 0.12992588 -0.03562646 -0.082407475 -0.021626225 -0.044918403 -0.022508208 -0.019721875 0.080835864 0.09420008 -0.03646283 0.038258016 0.03636896 0.07483781 -0.024462601 -0.01454451 0.071526974 -0.014548684 0.0004540675 0.060424183 -0.07165166 -0.037353836 0.037238274 -0.02064462 0.076422736 0.021463344 0.037297904 0.04597337 -0.03705281 -0.038472597 -0.0014697126 0.07576628 -0.06474348 -0.16616079 0.074587926 0.03142929 -0.07001675 -0.037808843 -0.005186506 -0.07006366 0.01309244 -0.04756888 -0.023772046 -0.058620647 0.07669019 0.13262047 -0.08370499 0.014423348 0.076780096 -0.00063417124 0.0045628673 0.035087373 0.06672566 -0.037268855 0.0012048223 0.06740198 -0.09707022 -0.018036585 -0.0930934 0.030943302 -0.0048487284 0.012386756 0.0067726276 -0.0013104148 0.066987075 -0.10417786 0.011376384 -0.01463174 0.04192942 -0.075483285 -0.0047115004 0.08668048 0.10190808 0.003735769 -0.0065289577 0.023499105 -0.011085848 0.09559412 0.06307783 -0.049513817 0.02052156 -0.019781234 -0.053313326 -0.031634826 0.0794412 0.06883359 0.006807648 -0.071586005 -0.06349196 -0.03499877 -0.09585023 -0.02247344 -0.008781566 -0.06668814 0.10914716 -0.12023739 0.082332134 -0.08355034 0.08019538 -0.020818837 -0.057493206 -0.13598503 -0.0975545 0.00061511796 0.1361261 -0.08798834 0.096132085 0.024409536 -0.051003 -0.031055128 -9.188823e-05 -0.00900518 -0.056046724 -0.09795209 -0.14780782 0.059381016 0.027326358 0.0121897375 0.049758453 0.0062750946 
A1BT9S77Z7I4VL	0.0011870268 0.03623691 0.0075398847 -0.014439852 0.0048978464 -0.021811016 0.0243902 -0.022390887 -0.012934977 0.001061803 0.0025907494 0.018104116 0.021065174 0.017475309 -0.0051236725 0.0015362444 -0.022256125 0.011424565 -0.00985634 0.013505343 0.003363158 -0.020445738 0.0034054685 -0.031441808 -0.010131283 -0.020343157 0.013605005 -0.0071550133 0.015749304 0.028445477 -0.01612087 0.016187627 -0.027725074 -0.027412163 0.025561873 0.025023896 -0.0032041539 -0.01157301 0.009680002 0.009154466 -0.002583683 0.0039965017 -0.028845502 -0.0023127655 0.012753735 0.022722851 0.032086045 0.008206379 0.008306251 0.02521359 0.029691394 -0.0031161169 0.016287183 0.0034763855 -0.017544232 -0.0021711513 -0.00026620206 -0.01524336 -0.022014808 0.0121627 -0.00017565567 -0.025302457 0.007698768 -0.013503889 -0.003552697 0.0069792564 -0.0157477 0.009849071 -0.02006715 -0.025217813 -0.0040308335 -0.009626544 0.009548308 0.0023487161 0.0036342188 0.02346588 -0.014882109 0.0099058915 -0.004784381 -0.00814525 -0.02038023 -0.009451845 0.006890568 -0.030075066 -0.028935667 -0.029097548 0.011461888 -0.0103420885 0.0018782569 -0.026755925 -0.025509886 -0.0018449175 0.011830001 -0.0047272965 -0.007607641 -0.0071494365 0.008275215 0.015791578 0.014963886 -0.014689479 0.006970487 0.015103211 -0.019696524 0.008474731 -0.017041037 0.0103514865 -0.005365482 0.004863936 0.008176629 -0.016890608 0.019176042 0.016071262 -0.027085457 0.0072268187 -0.036283974 0.00133307 0.04551514 -0.0046493863 -0.0033867578 -0.018225387 0.013297233 0.019709554 0.008779694 -0.012137762 0.017406851 -0.012668077 -0.025420798 -0.0029359295 
AYEB80G59M5U	-0.0016693465 -0.0022940878 -0.0028299012 -0.0038965885 -0.0077350778 0.00089526287 -0.013708441 -0.011859171 0.006351562 -0.0052756146 -0.0015968003 -0.0016379153 0.0012594244 -0.0018130697 -0.0074210525 0.0075008613 -0.012632905 -0.01114132 0.010868068 -0.004929924 0.0014868281 0.0028048835 0.0015232622 0.008620147 -0.005348007 0.0067488314 -0.0020970732 -0.000698858 0.009209546 0.0028495481 -0.0005147801 -0.024215782 0.00038723156 -0.009793062 -0.018903028 -0.011196564 0.0029617937 0.0060977777 0.0059429756 -0.00416511 0.00033075624 0.0013121172 -0.013802132 0.004767012 -0.0012973417 0.005066328 0.00071331224 -0.010427505 -0.001230751 0.0010740829 0.010882439 -0.0071291947 -7.574881e-05 -0.01905981 0.010621287 0.005010161 -0.0063767135 -0.0019227829 0.0085763745 0.003038263 -0.00034730491 -0.006370081 -0.015620959 0.0129788155 0.001923872 0.009697629 0.019452477 0.003175975 -0.007951884 0.011361879 0.00021683282 0.013388297 -0.003205671 -0.004135961 0.009760936 -0.0001511651 0.002532741 -0.008021626 0.010958686 -0.007577328 0.0029196134 -0.0014311884 0.0142233325 0.003798969 -0.016304962 0.0009271253 -0.00436474 0.0004603248 0.001408687 0.007083459 -0.0051984293 -0.0056175156 -0.002866687 0.0068235477 0.00033393587 -0.0034496237 0.009560358 -0.0031349708 -0.004740711 0.004925843 0.007939733 -0.008245809 -0.0054878807 0.007821933 -0.004941972 0.0060013672 0.0030289525 0.011418649 -0.009797648 -0.0039658113 0.0021053974 -0.0032921825 0.012145899 0.014418593 0.016470645 0.00050212897 0.0011875172 0.00078154786 -0.0009794228 -0.008692277 -0.0006324933 -0.0048867823 -0.014219681 -0.0010150902 0.0027347635 0.007406475 -0.00015480668 0.0011030817 
A5YFO9CMLTB	-0.0029761554 0.00018681427 0.009819845 -0.012758666 -0.0002975821 -0.0007345026 -0.014269866 0.0074429964 0.0011915389 0.008459126 0.0035285477 -0.0030759608 -0.005947178 0.00086025125 -0.010888021 -0.0038836598 0.005379698 0.0057041356 0.011644945 -0.007084206 0.008186662 -0.012950057 -0.0009722666 0.005622461 0.01023437 0.0065515977 -0.0061281663 0.0039719255 0.0035601822 -0.0054857666 0.004117707 -0.0031363575 -0.006321636 -0.0035699783 0.012220381 -0.010027806 0.0012784638 -0.0014704965 -0.0033011346 0.0031076665 -0.0029103209 8.426411e-05 0.012975742 -0.00510983 0.0009515735 0.0011877749 -0.004583828 -0.0036521207 0.0011042828 -0.005002145 -0.007599069 0.005142292 -0.0038787443 0.017071389 0.0025140892 -0.0022525596 -0.007473524 0.016217345 -0.0027886827 -0.00020232837 -0.016563054 -0.010835216 0.0029435807 -0.006403854 -0.019008018 0.0046845735 -0.013284569 0.004383396 -0.0044186604 0.0046175527 -0.0003203504 -0.010598727 -0.0052016005 0.0057387617 0.005613136 -0.005624619 0.0053485134 0.018504955 -0.0147015285 0.0032527056 -0.0074583357 0.009379794 0.0023844216 0.0056336303 0.01402056 0.0030874612 -0.010967182 -0.00818261 -0.0052936743 -0.005309755 0.005502877 -0.0065374873 -0.019054804 0.00067771634 -0.016302982 -0.00030248257 -0.009239718 0.0075982 -0.0055691595 0.014021782 -0.0007779131 0.0005957115 0.0119937295 -0.0066617536 -0.011860584 0.00065090565 -0.0028410414 0.006009313 0.012942172 -0.0005957538 -0.0045867255 0.0016289402 -0.0043077264 0.010901381 0.010156586 0.0053144377 0.0066380077 -0.001659716 0.007427072 -0.0001986884 0.0059077335 -0.017889645 -0.0051035793 -0.0056079007 -0.005695671 -0.0007839595 0.015778283 -0.0013727269 
AAN32NHW21N7K	-0.00781346 -0.0033549506 0.008905125 0.0031651647 -0.0028470298 -0.008242546 -0.005543545 0.0049875705 0.0070159333 0.0010215684 -0.019810477 0.0069967206 0.0019871069 -0.00042305415 0.0067842407 -0.026656684 -0.014697562 0.006653407 -0.009074059 0.009223838 0.004373991 0.011604123 0.0049555134 0.008167072 -0.006377435 0.009947843 0.014009504 0.008558804 0.0046844413 0.005615527 0.008744877 0.0031676937 0.011107317 -0.005115028 -0.000498827 0.0063774437 -0.0032641734 0.004954121 -0.008136662 0.005325591 0.00019444613 0.006856775 0.0015054047 0.007821864 0.0045817383 0.004844351 0.0026291453 -0.0052666115 0.008979832 -0.009102168 0.0006623204 -0.008522585 0.00010541581 0.0073173563 0.0035408854 0.005003554 0.015737548 -0.0127358865 0.0010453181 0.006186016 -0.019933375 0.0041201566 -0.0033252744 -0.0018801006 -0.012312799 0.006840241 -0.011092655 0.0030659824 0.013666192 -0.0017981842 0.012671929 -0.00595203 0.0062012034 -0.0041431566 0.023200244 0.0035037766 -0.00033417027 -0.007904136 -0.018475197 -0.007542159 0.0154694505 0.005371467 0.0086288545 -0.030599583 0.008210774 0.0019407118 0.0046214233 0.019526802 -0.0021751132 0.0093418835 0.011222614 -0.008887975 0.016000072 -0.018454652 0.0044525 -0.015037933 -0.004954356 0.009306421 -0.011036414 0.02106791 -0.0050282534 0.0036079872 0.004804797 -0.005856034 0.006904111 -0.0039662006 0.007155343 -0.007215192 -0.0008514391 0.008763675 -0.002093272 -0.00066536514 0.010155615 0.004289087 0.018586524 -0.0074062306 -0.0084200995 -0.00090029096 -0.020290272 0.0076595475 0.006816595 -0.013651747 0.0006505288 -0.000107712236 0.00612526 -0.0062121716 -0.014090926 0.0022017634 
A333MP7XAMPEQR	0.014294906 -0.04051879 0.025385214 -0.007945937 0.021013439 -0.0006288984 7.1836555e-05 0.008076452 -0.0027102537 -0.0017293511 -0.011880631 -0.002520775 0.021049703 0.0083538005 -0.014319994 -0.049418267 -0.004528175 0.028295767 -0.04151431 0.00866565 0.00020537879 0.0059205005 0.015142171 -0.014409996 -0.019296905 -0.027869746 0.038740247 0.0193991 0.0006874013 0.01238211 0.033931848 -0.01108981 -0.0013787298 -0.012464817 -0.017480811 0.02104464 0.000502376 0.00086198444 -0.01698956 0.03005012 -0.039211415 -0.015963852 0.024391832 -0.015668536 0.0054746214 0.027483147 0.010626707 0.0026800644 0.025825368 0.0117676845 -0.012903865 -0.033335384 0.0076089446 0.049684066 0.0008724613 -0.0036270323 0.026091246 -0.03237827 -0.0062281694 0.011191678 -0.01371412 -0.026024561 -0.017513134 -0.007444441 -0.05455766 -0.008924594 -0.083191514 -0.006854287 0.0059498786 0.0045249234 0.03367075 -0.014836479 -0.018135287 -0.008127058 0.026360549 -0.04533907 0.018506244 -0.01089074 -0.044203732 -0.02465273 0.002854239 -0.033949357 -0.025241653 -0.015085542 -0.0025639378 -0.021779217 0.0045010955 0.022461059 -0.0044134897 -0.00216739 0.02192238 -0.006892535 0.0104809655 -0.007085476 0.040921617 -0.0072219404 -0.004403954 0.026490822 -0.049376585 0.0037156208 0.021672558 0.04381673 0.0021022577 -0.04515035 0.023155771 -0.045743383 0.003549547 0.010205374 -0.021661524 -0.010173291 -0.044394948 -0.0047826166 -0.029924994 0.0209329 -0.024384495 0.044972654 0.023686688 -0.0015596466 -0.038027767 0.011609205 0.020397391 -0.00578194 0.023843344 -0.020669762 -0.005829332 0.036630455 -0.0012453374 -0.04536168 
A2Y3C8OF23ZUE8	-0.018319577 0.001547859 0.002268451 0.012459484 -0.010927916 0.0036113863 -0.0013225033 0.013581046 0.009905903 0.0026248593 0.006450707 -0.0066603776 0.0085881 -0.00070493994 0.006395006 -0.008362762 0.00897698 0.0044892165 -0.011545801 0.012741212 0.0053647393 0.007592716 -0.005708104 0.0043268157 0.025034301 -0.011638974 0.005365674 0.017412016 -0.017334847 -0.014046975 -0.0007509421 -0.009922132 0.00087376556 -0.0018179406 -0.009652423 0.008705338 -0.00016356535 -0.0060150847 0.0068993927 0.0022110792 0.003367756 0.0020116437 0.0036099579 0.00981598 -0.00033636205 0.0018455455 -0.017850058 0.012015833 0.015842987 -0.014036265 -0.0010028782 0.013839487 -0.008794375 -0.0032081166 0.0028578036 0.005947352 0.013230825 -0.011258035 0.009050708 -0.0068577365 0.022004014 -0.012068701 -0.0039817346 0.001340508 -0.005846445 -0.011869291 0.00918589 0.0018722387 -0.00039667616 -0.0029841394 -0.006222328 0.0070971716 0.0036911452 0.015076431 0.00381183 -0.00048114624 -0.0044152644 -0.0035684085 -0.007922649 0.029071666 0.0029952847 -0.0033847012 0.01711972 0.028609155 0.0069141877 0.0026404697 -0.0018505234 -0.008775958 0.01332647 0.006816686 0.0028976297 0.0069613205 0.011801314 0.01829697 -0.0070947856 -0.0007132436 0.0030028117 0.011894859 -0.011438262 0.0010421044 0.0053251907 0.0025714207 0.029143116 -0.0066445256 0.013907238 0.001823693 0.008176019 -0.016106464 0.017064229 -0.00017531216 0.0038184924 -0.019469254 -0.0064552343 -0.023227213 0.0033881855 0.0043441462 -0.013442498 0.0090294555 -0.009655406 0.020679047 -0.010121259 -0.021000808 -0.013638126 -0.0015532717 -0.008118447 9.488977e-05 0.005039406 0.013305427 
ABW431SWE7GQP	0.011971402 -0.0028057417 0.009266989 0.00667878 -0.006914543 -0.0019739952 0.029897656 0.006940939 -0.006486331 -0.020813795 -0.015752412 0.015126608 0.004794387 0.0068951966 0.0042033223 -0.002605012 -0.0007955235 -0.0037172271 0.0023318855 0.013609038 -0.008798176 -0.0060483105 0.018665524 -0.012903661 -0.01602451 -0.037942547 0.010462696 0.0071347007 -0.00603241 0.014718534 0.0081288 0.016922608 -0.0017694258 0.0048689283 -0.001753341 -0.003043549 -0.00068261416 -0.0007331997 0.0074970326 0.0063141673 -0.022109922 -0.007479528 0.005397255 0.0057060453 0.0013781453 -0.00950947 0.006800741 0.0015334742 0.0023123713 0.008321819 -0.0005941294 -0.016379805 0.0011893022 0.017874379 -0.00855903 -0.012412175 0.0032290013 -0.017422859 0.0074842777 -0.006081256 0.009410357 0.001669581 -0.0008959794 -0.023217969 0.016687803 0.0026738907 -0.021035891 0.016814688 0.01343495 -0.012840024 0.025189076 -0.016939785 0.013126677 0.011912944 -0.008404935 0.0012880914 0.02825298 -0.019408591 -0.019248435 -0.018175587 0.00068768224 -0.010759354 -0.025325319 -0.013950858 0.0035754626 0.01778233 0.046395775 0.0043641566 -0.010188873 -0.011542742 0.016204119 -0.0046241377 0.022998033 -0.0023638136 -0.002964906 0.0035342171 -0.01843799 -0.016059153 0.002966704 -0.02539839 -0.002063411 -0.0034620385 0.009969868 -0.010120295 0.02410772 -0.010754029 0.025345974 -0.0053706677 -0.0325689 0.008231474 -0.025165197 0.017849216 -0.023196166 0.012641237 -0.011988712 -0.013554768 -0.0068125823 -0.0043285904 -0.0267774 -0.01224588 0.014855374 0.007568832 0.01868207 0.0074779927 -0.0019177343 -0.0034074865 -0.011017702 -0.0150577575 
A35HUT8MQMT21L	0.015257679 0.058508668 -0.04288359 0.026793024 0.010769214 0.008564933 -0.032898527 0.0022156553 0.021874065 -0.022371948 0.008723438 -0.018611087 -0.007273393 -0.0023312685 -0.07729135 0.00765557 -0.06029385 -0.025171196 0.013004686 -0.0034173604 -0.00027133728 0.035144463 -0.025670834 -0.031971626 -0.013275587 0.04412865 -0.014203178 0.010364481 0.01682417 -0.011561623 -0.019081656 -0.0148509 -0.023271834 -0.017610526 -0.016080525 -0.028916104 -0.024046686 0.02024318 -0.014632556 -0.07033413 -0.02156046 0.030483318 -0.052455366 0.020440048 -0.038554233 -0.022045089 0.009452637 -0.016594771 -0.049342733 0.028961407 -0.04287488 -0.025952129 0.03863621 -0.05975845 -0.043304548 0.094710484 -0.030905994 0.009334826 0.03551212 0.015650796 0.040533718 0.0176745 0.05151974 0.014355749 0.020329872 0.021342633 0.025719672 -0.008545192 0.0012586418 0.041021235 -0.04113072 0.044500265 0.018089747 -0.032023814 0.0058423844 -0.0127226915 -0.021160653 0.013256537 0.07542156 -0.046403732 0.0027042879 -0.01769693 0.025901565 0.0086563835 -0.017368712 0.009613387 -0.018953241 0.025483122 -0.007429752 0.01958233 -0.04084328 0.06675958 -0.04036842 -0.04135502 -0.00814159 0.020156337 0.005396757 -0.014843988 -0.08084985 0.0023018904 0.0046868576 -0.06918836 -0.009557477 0.0062055807 -0.011943261 -0.018252825 0.0015932502 0.003960821 -0.024077898 -0.0068272958 0.04824186 0.0075196573 0.010570526 0.07880305 0.047351982 0.030182188 -0.0202657 -0.03241796 0.028482107 -0.010389722 -0.02963601 0.030930921 -0.031667702 0.0022820246 0.019550158 0.064828195 -0.0045850957 -0.012426643 
AS5LZVCV8S7J9	-0.004384718 0.0013920508 0.0018348277 -0.0042572757 0.01030416 -0.016942315 0.00946556 0.0020881845 -0.0064276895 -0.0107640885 0.00071123074 0.005240035 0.0039251638 -0.006065144 0.0075259726 0.012965014 0.0163876 -0.011875933 -0.00871723 0.011779873 -0.009199601 -0.00278905 -0.00038493605 -0.005606484 -0.0009189396 -0.0026961172 0.0049273944 0.0021665462 0.005248655 -0.00041138928 0.0010105437 -0.0013236692 0.0044269534 0.0009912598 0.006772136 -0.004252677 -0.00080104696 -0.005201542 -0.0023229166 0.0035565046 0.0024061908 0.0038449971 0.0003701551 6.096802e-05 -1.0503836e-05 0.002531741 -0.008096675 0.0065061804 0.01196721 -0.006068874 0.0014751425 -0.0017626 0.00639882 -0.0014772399 -0.009370573 0.003531265 0.013532745 0.0012918041 0.0036940947 -0.0045501674 0.00025826352 -0.0025725197 -0.005631799 -0.013752234 2.8603701e-05 0.008682613 -0.007080185 -0.0032913354 -0.0047372617 -0.0069897436 0.003925959 -0.0046367547 -0.0010528332 -0.0072154896 -0.009282494 -0.0016419482 0.008917988 0.0073115723 -0.0023028 -0.005962855 0.012714526 0.0046781413 -0.00096859556 0.0037674548 -0.008100521 -0.003936621 0.0022640747 0.010192317 0.0059393165 -0.004341175 0.002883521 -0.0057183206 0.0022072562 0.0025548725 0.01584776 -0.00051100977 0.007316736 -0.0030545853 0.003984023 0.008645509 -0.00041628076 0.0191481 0.0018440732 0.0008727123 -0.00070293417 -0.006167304 -0.0015244345 -0.0056080865 0.012381056 0.01054532 -0.007290874 -0.0073664426 0.011048178 0.0015060003 -0.0042390223 -0.009714273 0.0073400037 -0.0027205767 0.0031286709 0.011073726 0.009111082 0.01048945 0.007865607 0.006648033 0.013467976 -0.001864382 -0.00197004 -0.0019674606 
A2JWZYN4EIZ0HC	-0.0013323765 0.0063322443 0.00023133268 -0.01878596 0.007362764 -0.005290026 -0.008471559 0.00022552114 -0.011530685 0.007059805 0.01459307 -0.00422456 0.00426856 -0.00021173463 0.0033160956 -0.010152849 0.011257564 0.003187281 0.00036810414 0.004542085 0.002218332 0.004684642 -5.4825407e-05 0.0019018551 -0.004477782 0.00017252096 -0.0022675085 0.015177635 0.0008504461 -0.0036818932 0.00015885968 0.007305176 0.006286614 -0.004023165 0.0038689969 0.032230537 0.0023163322 -0.0058624404 -0.022328582 0.0028305158 -0.0138530815 0.0072435546 -0.00087898335 0.01830236 -0.0047757984 -0.02693316 0.009308381 -0.0032659438 0.028470315 0.006752398 -0.008018933 -0.012605996 0.00593968 0.0031619286 -0.003944915 0.0017360247 0.0034308133 0.0049156486 0.008664931 0.0011329753 -0.008090568 -0.03773233 0.013780935 0.01584825 0.0022069549 0.0032937732 -0.011321138 -0.0059972876 -0.011757286 -0.01014538 0.0014575453 0.002907565 -0.0034796798 -0.004133485 -0.0068502715 -0.005393119 0.0038088243 -0.011157595 -0.006405591 0.033299953 0.009128612 0.01001555 0.01212243 -0.018822318 0.0034216119 0.017746754 0.0071284445 -0.0035415643 -0.012954996 -0.005947635 -0.0055001383 0.0070694694 0.0001735243 0.022652289 -0.0064374153 -0.02129625 -0.0017531079 0.0016176109 -0.003411556 0.009023915 0.013874012 -0.014241238 0.010482169 -0.0047416673 -0.0031552045 0.008726331 -0.0012908697 0.0032282225 0.002725134 0.0059573012 -0.01535751 -0.0025911457 0.0043209502 0.010042766 0.012665007 0.00765092 0.002671947 0.0028690111 -0.017064579 0.0033848167 -0.0031640232 -0.021474428 -0.016367372 0.012028041 -0.00601808 0.009199246 0.005467684 0.0004627069 
A225XFWN8J4LHN	-0.0022788132 -0.011796355 0.011608391 0.0027480866 -0.002179197 0.010478352 0.0061987774 0.007038763 -0.0057097143 0.006263913 0.0047493572 -0.0024061548 0.0032572101 0.0062865457 0.009904061 -0.00052762113 0.003455771 0.00014686023 0.0020520212 0.0065635284 -0.0017279392 0.00035521016 0.0039910404 0.0076246327 0.010687285 -0.00023172406 -9.5428404e-05 -0.004583416 -0.004785461 -0.008878062 0.00095626555 0.0007041926 0.011998373 -0.0050589247 -0.00020170014 0.007235011 -0.00838413 0.0024803013 0.015380633 0.0070206006 0.00853087 0.0045891185 0.005329183 0.0013076777 0.012912206 0.0070932033 -0.012954865 0.0015002076 0.0015497517 0.0012384235 0.0008088035 0.0022823107 -0.00037325575 0.013472863 0.004021827 -0.009344795 0.0027866852 0.0057779797 0.008099815 -0.004327439 0.0150390025 0.011883857 0.0011149145 0.0008457691 0.007886406 -0.009169014 0.001499234 -0.0008150115 0.008913531 -0.006381011 0.0148413675 0.0052529797 0.0063296766 0.0128652 0.0028548467 0.002543139 -0.002533953 -0.009084277 0.004857942 -0.0048227943 -0.0064743105 -0.003766192 -0.0036419674 -0.0065127444 0.016398266 0.007675291 0.0030178775 0.004841583 0.0031065408 -0.00014290666 0.008121315 -0.0039373543 0.00097549596 -0.0026924335 -0.0028650593 -0.005097969 -0.01856533 0.006027751 -0.00010607558 -0.008677026 -0.006680839 -0.0031975743 -0.0068202647 -0.0031709045 -0.00062451226 -0.00034302397 0.009208347 -0.001319587 -0.01013535 0.006802781 0.0056532957 -0.0020366919 0.0054724924 -0.007981496 0.008469971 -0.010106784 -0.005446688 -0.00014985564 -0.00793395 0.010146374 0.006459448 -0.0014053063 -0.0051690196 0.0035090104 -0.012470826 0.0029610484 0.008296442 0.008392273 
AODBT2BR9O842	0.023816638 -0.027117372 0.0035167425 0.010754587 0.024880942 0.0103925895 -0.005892347 -0.014517852 -0.033587858 -0.032936864 -0.009611504 -0.0022707593 0.018775266 -0.0030069342 0.028024368 -0.018469196 0.013643712 -0.003053989 -0.0039429837 0.012379754 0.026962804 -0.04098965 -0.0078012682 0.0010244484 -0.0076445285 -0.008315489 0.022888478 -0.011106847 0.034742665 0.01302094 0.012567815 -0.002456305 0.01186811 -0.012156266 -0.0035863896 -0.0011294011 0.020169007 -0.041126035 -0.027299907 0.04375075 -0.0045035076 0.023092605 0.03630951 -0.021861833 0.01614207 0.018089976 -0.024687374 0.016307116 0.025259731 0.008565972 -0.00724164 0.004724474 -0.033441175 0.019921202 0.026251048 0.012256926 0.032859214 -0.02115988 -0.021672608 0.0019082682 -0.007328677 0.01173892 -0.028839009 -0.008243452 -0.012653229 0.012002531 -0.014371973 -0.004313228 -0.016771486 -0.00062189414 0.013523447 -0.02612353 -0.027351907 0.006029977 -0.008778443 -0.028762536 0.020505216 0.013001388 -0.014652029 0.0024816538 0.015488091 0.031661633 -0.008215355 0.015033366 -0.002606387 -0.0063760392 -0.03204635 -8.5568674e-05 0.004784879 -0.01625468 0.031474825 -0.006628805 0.0033827228 0.024937378 0.021432774 -0.005539783 0.0027507497 0.0076246345 -0.0064293137 0.03469824 -0.0026004836 0.035763662 -0.012712984 0.02887132 0.012187467 -0.017695142 0.010816483 0.013526538 -0.0070993006 0.004850167 -0.04255667 -0.043996684 0.013645754 -0.011714129 -0.020896913 0.008869425 0.0070622712 -0.013625747 0.010653394 -0.0028940002 0.012286887 -0.011786678 0.014070683 0.0050082416 0.018422687 -0.01388673 -6.866879e-05 -0.027418507 
A18IV9R1NQ7QH0	-0.0012344382 -0.011691313 -0.0013989912 0.0034933537 -0.023679499 0.0015245767 -0.033991735 -0.022811057 0.0168906 0.024926547 0.035182327 0.0117547875 0.023007996 0.017766532 -0.013256846 -0.027124228 0.0042170887 0.0065491474 -0.01315774 -0.0003719776 0.03008125 -0.0293261 0.012455044 0.016709376 0.009166574 -0.0021192185 0.0025891736 -0.004919737 0.007867937 -0.014243478 0.025434049 -0.023764335 -0.007730277 -0.00062211615 -0.021309523 0.005340421 -0.0021810946 0.005547371 -0.003468643 0.010231677 -0.017372498 0.019599548 0.004165732 0.018194336 0.0039409557 -0.015412047 -0.01203089 0.002052148 0.007613996 -0.008542445 -0.014266218 -0.029259967 -0.029090809 0.014992305 0.01841133 -0.00019540213 -0.008446941 -0.01873474 0.0041644503 0.0017006433 0.0069823856 -0.027206372 0.034644037 0.004764887 0.0011986907 0.016844066 0.001987011 0.016059885 0.018889751 0.02511986 0.020018294 0.018014036 -0.01811987 0.015600436 0.00090276723 -0.02121889 0.042607732 -0.0075776186 -0.0015782013 0.010699518 0.020143706 0.0059410995 -0.0068203947 -0.011684435 -0.002798144 0.02629171 -0.00685846 0.015011495 -0.016835477 0.013219368 0.00782766 0.03034769 0.013432196 0.016054545 -0.018162467 -0.018488161 -0.0026018708 0.0065003214 -0.026648048 0.013746758 0.038418196 -0.012472029 0.009079834 -0.017642414 -0.009879831 0.0055384426 -0.007997624 0.00037604783 0.010882588 -0.012630797 -0.04354144 0.013346596 -0.004336001 0.0274719 0.022714315 0.030077646 -0.010118709 0.0064600124 -0.002897022 -0.018683769 -0.020489473 -0.036782257 -0.0024552918 0.008645742 -0.04764383 0.004789387 -0.012593455 -0.0022877576 
A2Q3JAF2FM9O4S	-0.015004853 -0.014462825 0.005342236 -0.012820786 -0.019944413 -0.014621244 -0.014808583 0.010275654 -0.007140252 0.03593157 0.0047796736 0.0005859172 0.0064596473 0.022317298 -0.00878009 -0.013915553 0.0077969464 -0.00057816965 -0.008947993 0.004802625 0.005826771 0.020545581 -0.0062540057 -0.0073644323 0.0008257467 -0.013544845 -0.012353384 -0.0028169276 -0.0008778281 0.0032278025 -0.018380178 -0.0065383664 0.024411818 -0.0066176 0.0036199763 0.0060313963 -0.015044313 0.023019245 0.0015421928 0.01091972 -0.013355812 -0.02922175 -0.0061010513 0.009034763 -0.02059906 -0.017680373 0.017301796 0.0064387526 -0.0031732083 -0.016561918 0.0030941837 -0.01057556 0.018368816 0.017616851 -0.021236192 -0.010296941 0.010311575 0.00373113 -0.009065229 -0.009125184 -0.016856078 -0.0026772309 -0.0026602596 0.019231413 -0.030962262 -0.0081213685 0.0025147647 0.009422578 -0.0005448614 -0.014536597 0.0025023492 0.025490435 0.01266137 -0.026305411 0.0337958 -0.006910012 0.013995755 -0.012541217 0.017605348 0.012308104 0.03546909 0.038006358 0.016827805 -0.02251219 0.00434156 -0.0007268089 -0.0023320888 -0.024570143 0.013546872 0.01142698 0.023000788 -0.014588026 0.039318785 0.017987087 -0.0020134884 0.0047033946 0.0017454984 -0.009485694 -0.0053678085 0.00326473 0.018593749 -0.021804301 0.026363103 -0.028182866 -0.003925579 -0.008384199 0.0072475076 0.005198716 -0.015710704 -0.025506597 -0.019893454 0.025407067 0.0072081443 0.010800386 0.027623512 -0.0008691386 0.008978438 0.005553861 0.02781083 0.0039647976 0.008011141 -0.013133908 -0.022788506 0.0106889345 -0.0015309597 0.008686967 0.013719485 0.010880026 
A3006WHOAYJRLI	-0.0034328268 -0.021029072 -0.04556217 -0.015237433 -0.009670393 0.0070330957 0.021325942 -0.016591782 0.017337006 0.05051762 -0.081504054 -0.0023062504 -0.0033825967 0.034462217 -0.06526278 -0.039902728 0.07332452 0.026356393 -0.052382126 0.0066350107 -0.008049331 0.08627487 0.013055797 0.02756862 0.04950286 -0.010780113 -0.03200247 0.008724692 -0.06819117 -0.05147834 -0.013955174 -0.040196616 0.04791373 0.009900825 -0.002328958 0.049366243 -0.03296415 0.04277665 -0.002526456 -0.00667932 0.013639578 0.03573205 0.043110866 0.038293812 0.0048550493 0.0039538452 0.005600979 0.011018767 0.015558895 -0.042505085 -0.03855822 0.050934557 0.041541204 0.063955694 -0.008513531 -0.023996972 0.055251155 0.038395345 0.028122758 -0.032266513 -0.033422302 -0.0167362 -0.012602082 0.016505336 -0.013928597 0.013772597 -0.014530894 0.03602927 0.063290924 0.012222996 -0.039163403 -0.051873956 0.0066898926 -0.023123402 0.012077948 -0.02034654 0.022585891 0.01222678 -0.019300723 0.11844762 0.009287917 0.04000176 0.02299564 0.012696523 0.046975423 0.05853363 -0.00024694644 -0.008996045 0.012918982 -0.009520527 0.0135478 0.060121533 0.042302232 0.09023539 0.00015281959 -0.020574126 -0.029353451 0.015926005 0.02916265 -0.0066071455 0.05099371 -0.019631632 0.12504669 -0.053908788 0.06298306 0.04111263 -0.02727052 -0.041604124 0.048964385 -0.01484633 -0.037664473 0.06471868 0.032343265 -0.08449123 0.01193399 -0.021981698 -0.03442987 0.011666362 0.08332847 -0.021395458 -0.030272093 -0.02569954 -0.07542857 -0.0028536296 -0.023563256 0.052746747 0.09185435 0.03930025 
A238UHATX4CC20	-0.0018651579 0.005282169 -0.009093438 0.009393094 0.0017681641 0.013343947 -0.00019982498 0.00021020266 -0.0077323415 -0.01358526 0.004121965 0.0072000097 -0.0044064336 0.0007526827 0.017984448 0.0046062684 -0.013259014 0.0011111738 0.015235107 -0.0016419046 -0.00726892 0.004630955 -0.0115194805 -0.002640539 -0.0052836374 0.005757917 -0.0054187886 -0.0076505095 -0.0045163743 0.012875493 -0.004306138 -0.003603524 0.013444123 0.0051788497 0.0063125044 -0.0050132284 0.0026271709 -0.0077869454 0.0007277509 0.010604417 0.011794912 0.006182922 -0.01808772 -0.00044342305 0.007512284 0.008616628 0.007891371 0.010018837 0.0022497461 0.007720257 0.006270344 0.0013961925 -0.024779333 -0.0130006345 0.004941072 -0.0019653344 0.0066282707 0.0060342182 0.005403694 -0.0035161446 -0.01171913 0.0056873597 -0.001826659 -0.0034215054 0.012787797 0.0013365588 -0.0018890589 -0.004388405 -0.01120317 0.003203451 -0.0048459703 0.0013369033 0.006543796 0.017934073 -0.004463391 0.008962726 -0.014022085 0.012315893 0.009038712 -0.006678534 -0.009508248 -6.060794e-05 0.0071781534 0.018224452 -0.014804757 -0.003916203 -0.008584443 0.011105769 0.005917761 0.00172239 0.0038148023 -0.010757393 0.0065759807 -0.0056699514 0.01124894 0.0031383876 0.0085755475 0.0019092271 0.010410144 0.002167683 -0.013402406 -0.0012659061 -0.012126534 0.018541995 -0.013442432 0.0072465506 0.005507973 0.0068286927 0.0018138562 0.011117296 -0.0042908005 -0.0117557505 -0.0063103065 -0.01597658 -0.009366363 0.0023887642 -0.00039697246 0.007825163 0.004539062 0.0062781884 0.0111711705 0.01267174 0.008016767 -0.00049405126 0.00040401967 0.006374786 0.0028887463 0.010439698 
AWQKQ6U320J0A	0.01987292 -0.00601209 -0.020662539 0.016876006 0.00045080914 0.002834015 -0.008792131 -0.0018028143 0.018921537 0.0007759925 -0.0066180835 -0.010922916 0.007334308 -0.0020115206 -0.0006360324 0.00032419714 -0.007401251 -0.008469599 0.013395443 -0.0147209875 0.009657594 -0.017438464 0.014079489 0.009172372 0.014968643 -0.0035439273 0.00627881 -0.0023638224 0.026208375 -0.021061556 -0.0022800455 -0.01706878 -0.0028178215 0.014355675 0.004961651 -0.023019103 0.016644213 -0.019516652 -0.0117201125 0.016151799 -0.000504857 0.019266035 -0.009350514 0.005463155 0.004597788 0.024381792 -0.005695557 0.0062905103 -0.0055820355 0.0035495753 0.0047327513 0.0034388965 -0.0004602404 0.0019336916 0.012067645 0.008841585 0.012941334 0.0033657362 0.018329723 0.01919593 -0.029980823 0.001897346 -0.01852254 0.012068787 0.019472543 -0.0048737023 0.017977944 -0.0057919645 -0.0044805105 0.020412607 0.013299816 0.005018745 0.009881411 0.0058412943 -0.0040809875 -0.0058350554 0.002238065 0.0060661742 0.010829441 -0.019107426 0.019626753 0.01346737 0.009669847 0.023198511 -0.016079025 -0.008345109 -0.016184831 0.002785827 0.020660305 -0.00810901 0.0031359952 -0.004137151 0.021466695 0.011432278 0.0132635785 -0.02178673 0.0026905765 0.0011476575 -0.008674645 0.0068739858 0.012214928 0.0058633573 0.01029712 0.014213323 0.005150943 0.0049060937 0.010641977 0.008246542 0.013630947 -0.014041284 -0.013615687 -0.0058004973 0.017385723 -0.017761283 -0.0005777547 0.011875225 -0.005592444 0.009576588 -0.00059967703 -0.021597499 0.0038048641 0.0031588548 -0.014972197 0.009801343 0.017478304 -0.011070611 0.005090167 0.005541073 
A13PCCEY84UW1K	-0.0034477985 -0.007297659 0.0037807673 -0.017148687 -0.00016368135 -0.00056401046 -0.009543866 0.0023395692 -0.016150637 0.010667709 0.0022417798 0.0041578477 0.0018954242 -0.0015010075 -0.000885321 -0.01772137 -0.0026795429 -0.008471692 0.0022649032 0.0017343655 0.014130301 0.0018879278 0.007897209 0.007571156 0.007264206 0.001199055 0.006353743 0.007800627 -0.020581905 0.0012742288 0.013640883 0.008741157 0.004497318 0.007193146 -0.0066454555 0.017277258 -0.0040395064 0.012482801 -0.002301275 0.004196126 -0.021490451 -0.00096531055 0.012257873 -0.008209708 0.010009483 -0.017027853 0.00258225 -0.0013918363 0.016951429 -0.01120792 0.008422375 0.0014913979 -0.0083615165 0.0161412 0.00873323 -0.006116946 -0.016098209 -0.0029126736 -0.002154657 -0.016801786 -0.0061585247 0.0005316803 -0.018126048 -0.005711698 -0.013797146 -0.0030105438 -0.0148821045 0.0069240094 -0.0063124327 -0.020764042 -0.004088006 -0.012266408 -0.015708093 0.0094737 0.014921448 -0.009228887 0.0043213433 0.006388233 -0.006789236 0.02238047 -0.008352878 -0.0017283921 -0.01742854 -0.014448568 0.024802443 0.006548648 0.014330398 0.0057695284 -0.0112542575 0.003448062 0.011212239 0.0080576865 -0.008656014 0.0013860302 -0.0057529244 0.005538804 -0.016337864 -0.0040801717 0.014590319 -0.00064370706 0.0060672374 -0.0012556608 0.0060602115 -0.021456914 -0.005900002 0.0050580096 -0.021446213 -0.007192524 0.008274138 -0.00030914074 -0.020179365 -0.0022348666 -0.0014838983 -0.022301614 -0.0011406712 -0.0070648557 -0.0005285783 -0.007913022 0.0072479793 0.0019023754 0.006179743 0.0050130035 -0.0010176072 -0.017174559 -0.006946811 -0.0158397 0.006690187 0.011434589 
A1L29B0KTUVTFG	-0.0037665616 0.0020811926 0.01229307 -0.0033725046 0.0024802047 0.0027689727 -4.287199e-05 0.009771257 0.010912603 0.024645953 0.0003477548 -0.003702751 0.004362777 -0.002202364 -0.014418275 -0.01151404 0.0048540276 0.021722734 0.011257538 0.0059639313 0.002966001 -0.011810541 0.004722502 0.0026708113 0.01886949 -0.011362254 -0.008068457 0.023632571 0.00078759703 0.0065337787 0.004014295 0.0021842523 0.01000348 0.012089003 -0.00028239295 0.0073465477 -0.0028645995 0.00339378 -0.0020294806 -0.00804355 -0.0014768288 -0.0006019739 0.012067787 -0.005457328 -0.015337778 -0.0129910065 0.0016141103 0.0054264106 0.017964875 0.0062421556 0.011248594 0.0008093084 -0.0030225832 0.0156533 0.0026999752 -0.0063494015 -0.008762603 0.002934375 -0.0064819003 -0.014018445 -0.0077971434 -0.005344993 -0.0057775374 0.013677121 -0.0060055284 0.008113676 -0.0050561777 0.010063678 0.012915097 -0.0019928596 0.0054276213 -0.00036263902 -0.0113999685 -0.0043956735 0.0039420915 -0.0102901105 0.0053315037 -0.002709676 -0.009100444 0.019845262 0.006753619 -0.007314123 -0.013458555 -0.0053584524 0.020197216 0.014503074 -0.008754483 -0.010624258 -0.01658538 -0.0055249333 0.015043863 0.014527492 -0.001027803 0.008853599 -0.013694491 -0.004498606 -0.012947689 -0.0012060725 -0.014954311 0.013570066 0.007826916 -0.0058184587 0.011314508 -0.0052424045 0.00045863204 0.0032549219 0.0056304713 0.0072126337 0.0019300586 -0.003778023 -0.015633158 0.008973589 -0.012443408 -0.007900177 -0.008800888 0.003725982 -0.015534119 -0.0095882 0.00079448574 0.002752205 0.009672368 -0.019446926 -0.021654606 0.017870111 -0.01306528 -0.016197708 0.01101219 -0.0063636554 
A2091NHV2R5588	-0.0041126655 0.00520111 0.013961784 -0.0023506065 0.017795995 0.0021033443 0.0061201025 -0.013536799 0.0021067706 0.0051959287 -0.0021021105 0.008770752 0.008904366 0.004854977 0.01522111 -0.022062453 -0.016054148 0.004100815 -0.016403638 0.008665759 0.01184591 0.0053581106 0.013142853 0.0014181914 -0.02322311 0.0020215677 0.0074474984 -0.0039778994 0.01762197 0.0055163214 0.015082402 0.015761796 0.0062080463 -0.0073528043 -0.0030772819 0.007012094 0.007193736 0.0007976387 0.00078648113 0.0023150784 0.00505774 0.009635924 0.011364823 -0.0026968073 0.004591196 -0.0017044314 0.0035494608 -0.011557531 0.016669616 -0.0067556133 0.0023524426 -0.010838271 0.0001091666 0.0075488975 0.0021205544 0.0031380304 0.0046411376 -0.013300121 -0.014161278 0.005682591 -0.010233451 -0.002816406 -0.0038681936 -0.00068163045 -0.011687927 -0.00041956396 -0.025721027 0.006286259 0.0010350873 0.019475726 0.0057097 0.00068666815 -0.0067431224 0.0042689396 0.011668029 0.011496723 0.016110627 -0.00810051 -0.041301083 -0.011158742 0.012564506 -0.0030596775 0.00049003307 -0.031278457 -0.021003887 -0.0063603087 -0.0034937407 0.011455949 -0.0051378314 0.006407333 0.011330507 -0.020956283 -0.0030851327 -0.005578367 0.0066804625 -0.0059270933 0.007944694 0.014752672 -0.01193811 0.012224265 -0.010775059 0.01790748 -0.007112908 0.012651147 -0.004755367 -0.0105099175 0.0046302155 -0.003336423 -0.012565903 0.009071042 -0.009996614 -0.006580858 -0.002839455 0.020448085 -0.008866327 -0.017575936 0.0129775535 0.0008037536 -0.015876453 -0.008238867 0.013063694 0.0013867298 0.026583264 0.008632705 0.005180637 -0.0022575995 -0.018224182 -0.021204252 
A160EB893OMU66	-0.0011067272 -0.0013568669 -0.007080507 0.0020762926 0.004734836 -0.0010478154 -0.0053700344 -0.00088972825 0.0032070447 -0.009274179 -0.005830637 0.0030797715 0.00012753937 0.0037341008 -0.0040409476 0.0037811908 0.00033097586 0.0042416686 -0.005537514 -0.0047825244 0.006901029 0.0009163916 0.0065422207 -0.009084403 -0.0032807381 -0.0023088627 0.005106 0.0020467886 0.011116014 0.0049775233 0.0032413027 0.01059679 -0.009205161 -0.0007202654 0.0061488263 -0.0008019467 -0.010965932 -0.01656627 -0.0072319848 0.0024695296 -0.022528093 0.005206662 0.010329491 0.0071739024 0.005823515 -0.0033529906 0.014321508 0.003411904 -0.0033169023 -0.0027499024 0.0011630002 -0.0047544786 0.013284388 0.004812132 -0.0055532563 -0.00816362 0.0012493184 -0.0058776867 -0.012716598 0.0035866692 0.0038435322 -0.004569339 -0.008692367 0.0008188162 -0.0012711228 0.0011457857 -0.01882984 -0.0072804196 0.005952694 0.0039625717 0.012437925 -0.010030965 -0.004424394 0.0085490905 -0.012226973 2.0548134e-05 0.020380555 -0.014992632 -0.010342355 0.002246281 0.00052263855 -0.005307237 -0.018580196 -0.010042509 0.01175909 -0.0068601137 0.005500054 0.0013225377 0.0031116027 -0.008979101 0.009675878 -0.00021555553 0.0054612244 -0.005566302 0.008260355 -0.0020231113 -0.0021289478 0.014126619 0.0020868215 -0.0024016676 -0.0065396703 0.0002537175 0.004326193 -0.010106175 -0.005845496 -0.008264193 -0.0029324878 -0.013393387 -0.008951184 -0.007815228 -0.012215495 0.012014823 0.0034829474 0.0041631106 -0.013621084 -0.00074016524 0.0056455764 -0.0015071849 -0.0029424333 -0.0012075504 0.009954818 -0.0018810598 -0.0042973766 0.011387166 -0.007762057 0.001044269 -0.0007563531 -0.019924238 
A1VSUV63RI0S3I	-0.0060565537 -0.0021319436 0.0101225 4.54295e-05 0.0059893127 0.002401956 -0.0037079453 -0.006286833 -0.017472107 0.0073345667 0.018273553 0.020378249 -0.009702178 0.017498553 0.011085513 0.0048460946 0.0037681244 -0.00013731608 0.014489221 -0.013285815 0.0090733655 -0.005338636 -0.011443384 -0.00872401 0.0069326865 0.014890128 0.0001256669 -0.009901429 -0.0055370303 0.0022085782 -0.016996782 -0.011002297 0.0034638925 0.0026950391 0.018959029 -0.0032133402 0.01573948 -0.0005588722 0.031676266 -0.002645131 0.0082545495 -0.010085944 -0.0009571636 -0.01980444 0.0013551652 0.009005502 -0.010615302 0.0032784082 -0.003363 -0.0032372172 -0.006306672 -0.0036444592 -0.014849871 -0.008495018 -0.0004257507 -0.0031570082 -0.00235124 0.027357887 -0.012198992 0.004941886 0.0040133474 0.00808398 0.0036075036 -0.015987514 0.012881626 0.014419691 0.008850145 -0.010759702 -0.0069608185 0.00087400543 -0.010441617 0.011144701 -0.003007326 0.0033716476 -0.02647416 0.015863819 -0.012711416 0.012459275 0.017394306 -0.0061920006 0.003166641 0.0046903035 -0.0066611203 -0.008132022 -0.01262977 0.0032198865 -0.023118261 -0.0019291181 -0.0027179073 0.015487699 -0.0060326867 0.00046987194 -0.013086776 0.0138531085 -0.019268326 -0.001706866 -0.0006511847 -0.011796369 0.013036755 0.006281554 0.005205378 0.0033343192 -0.028151868 0.024631409 -0.02794036 -0.0025206965 -0.008923982 0.0014122212 0.0077977967 -0.014089197 0.005593884 0.004862358 0.0055224663 -0.015533465 -0.006978018 0.002280498 0.013622263 0.0001424927 0.024785131 -0.005409473 -0.008314964 0.003346146 0.02345749 0.0018341878 0.009889056 0.003898753 -0.0063816127 0.0033949735 
A3XF3VEOT0YME	-0.0017847839 -0.0015437534 0.001476982 -0.005928368 0.0036630228 -0.0027423764 -0.0030269125 0.0026637465 0.0002077628 0.0064157057 -0.0034871637 -0.008275001 0.0024362798 -0.0022392955 0.0034731717 -0.0029238646 0.0042154216 -0.0054156855 0.0004897765 0.0026895583 -0.00019112206 -0.0068694972 0.0007819759 0.003046917 0.0043796 -0.0039978777 -0.008862222 -0.004622858 0.00872385 -0.00636706 0.00042530638 0.0010805964 0.004428267 0.00147637 -0.0016134882 -0.008048137 -0.0047315517 -0.0020751029 0.003004763 0.009499296 0.0037073162 0.0028045601 -0.0023638187 0.003428282 0.0015191254 0.0016135097 -0.007456245 0.0017825525 0.00017156308 -0.0041146916 0.00182488 -0.0021045434 -0.0029065178 -0.0012783657 -0.0013537776 -0.0024316122 0.0034283355 0.000219464 0.0037480036 0.0011941603 0.0031494938 0.008418424 -0.000464466 0.0065093567 0.0059294687 -0.009477178 -0.0017422851 -0.0036141507 -0.0017988703 0.000815848 0.0015315837 0.00030281133 0.002674309 -0.00488141 0.0034716204 -0.0058586826 -0.005512503 0.002758465 0.003805533 0.004118879 0.0038911076 0.00020426205 -0.0015851697 -0.0016580189 0.0020101278 -0.004452171 -0.0032622253 -0.0016423883 -0.0015680501 0.0018595876 0.012182116 -0.007832226 0.005030412 -0.0014727705 0.008406673 -0.0020617314 0.002957663 -0.0065446366 -0.0008831053 0.0056848275 -0.0028260231 0.010041196 -0.0057849884 0.0016064217 0.0014941775 -0.0009560783 0.0070791733 -0.0012834249 -0.0057116863 -0.0017542208 0.007725303 -0.0006944631 0.0062423837 0.0009547371 0.007356063 -0.006963814 -0.0046316166 0.0009445182 -0.005697661 -0.0054459944 0.004285028 -0.0033060058 -0.004372157 -0.00019126364 0.0018157322 -0.0085613 0.0016713097 0.0037621113 
A1I3BO40ZOA69R	-0.006083941 1.08301e-05 0.01014409 0.0070976606 0.0042425967 0.026758123 0.01236643 0.006414748 0.010223617 -0.021178039 -0.0019649493 0.0036632235 -0.0032608523 -0.0057105166 0.01325689 0.015724843 0.010012851 0.0048822947 0.005093284 -0.0011112584 -0.011760998 0.008446362 0.00920309 -0.0009199207 0.013944711 -0.013435308 -0.0047608945 0.0058811614 -0.01737644 -0.017405258 0.015556993 0.0044649635 0.0060020653 0.003171983 0.005794706 0.010104755 0.012901019 -0.0015624799 0.0032402992 0.0234881 -0.012273953 -0.010443324 0.01082473 0.021564353 0.008251702 -9.093132e-05 -0.028323302 -0.015906727 -0.0011628338 -0.0073003247 3.7002592e-05 0.0039538452 -0.0036417276 0.005765596 -0.003752504 -0.012274865 0.0041610305 0.0065345457 0.031107407 -0.02632174 0.018448027 0.0040033124 0.008891528 -0.00084870635 0.033030394 -0.003877835 -0.01001009 -0.010829172 0.010039993 -0.0155710485 0.008256684 -0.0072411736 0.00075850147 -0.012916864 -0.0062274993 0.0055801217 0.0007576296 0.0012468112 -0.017756144 -0.0054253633 0.0007169428 -0.014402902 0.0076969205 0.018262146 0.021177838 0.0024591435 0.015637288 0.009320791 0.002708028 -0.00021359995 0.008715213 -0.0050177835 0.0003830158 -0.010667368 0.01836896 0.0051138876 -0.010774042 0.007795945 -0.00071893027 0.008055346 -0.005140821 -0.003427703 0.0009320199 -0.024863096 0.0033785466 -0.010270471 -0.006754685 -0.018314065 -0.0075633065 -0.006366515 -0.014187195 -0.007517882 0.004580855 -0.030133627 -0.0030029668 -0.006905706 -0.015646204 0.013070044 0.0050129844 0.011238883 0.009524124 -0.0029732687 -0.0007616988 -0.0063386587 0.011033305 0.005970176 0.0067813504 -0.009523708 
A2NHTHW2BRZT66	-0.0024010115 0.01527885 -3.8109207e-05 -0.026306879 0.012670521 -0.01172875 0.010597845 0.0025546134 -0.0008042855 -0.009602041 -0.025797153 -0.0021956905 0.015933735 -0.0067308536 0.002340047 -0.017979562 0.0052285334 0.0057704067 -0.022004444 0.010044661 -0.009272184 0.00032059892 -0.0153369615 0.0055000223 -0.0037535361 0.0064628865 0.0029451025 -0.0020367326 -0.00048520457 0.018153528 0.015863035 -0.0037933253 -0.019998275 -0.007975852 -0.0026835108 -0.0004581071 -0.00903284 0.006777593 0.002097879 0.0004897274 -0.002516092 -0.021179464 -0.0019576328 -0.00095555116 -0.0070980047 -0.026380854 0.014620527 -0.00560011 -0.00705956 -0.014517188 -0.0008142482 -0.0057724304 -0.00503619 0.012331017 0.014175177 -0.0039202077 -0.001377041 -0.018500987 0.007161502 -0.00034470364 -0.0030540603 0.0027240512 -0.0027939728 -0.0006282135 -0.006229648 0.0034673447 -0.0016683621 0.010564595 -0.0059132595 -0.0139238145 -0.0062997346 -0.017446473 -0.0016179231 -0.0013836054 -0.0049253055 -0.01834498 -0.015250358 -0.0064979233 -0.020948106 0.011458541 0.0024124105 0.02162269 -0.0001451755 -0.0034503066 -0.005522359 0.012097021 0.02353353 -0.013788401 0.0032436135 -0.013246519 -0.0037149366 0.009714197 0.0036056999 -0.014945239 0.013383089 0.0054891524 0.0046247896 -0.01975212 -0.0072214953 -0.008227703 -0.012514636 0.021263395 -0.010282959 -0.0052695456 -0.009950402 -0.010440886 -0.021186743 -0.010366255 0.0040830616 0.0025951213 -0.005874227 -0.00096293364 -0.0031312157 0.015852 -0.012127727 -0.015798412 0.0016341626 0.0019431616 -1.6047697e-05 0.0019023437 -0.00040671707 -0.024126634 0.013098094 0.01018358 0.015098519 0.0033076901 -0.0077841408 -0.0141452905 
A1WMDGXKYWP0CR	-0.025302099 -0.023236716 0.0046381876 -0.007747951 0.015791072 -0.004168601 -0.0040277573 0.003784524 -0.0012598387 0.010403115 0.018622888 0.014178946 0.008045774 -0.013295871 0.01202422 -0.001142511 0.00096746034 0.0032045771 0.0021883862 0.00507603 -0.00053943595 -0.008496337 0.030900607 -0.0017840605 0.0011315756 -0.008718695 -0.0049410327 -0.012090736 -0.0113415215 -0.00049442454 0.008562372 0.02347057 0.012236379 -0.0024197854 0.00066047476 -0.005132518 -0.014478635 -0.007438948 0.009930547 0.007113915 0.0028339766 -0.0013133277 0.019936837 -0.0052168034 0.0061791334 0.0077558965 -0.014493757 0.0024110803 0.004258379 -0.01799347 -0.011199313 -0.0049807667 -0.015623915 0.014721576 -0.004628068 -0.013137592 0.0027019447 -0.00053922413 -0.0017178466 0.004898179 -0.008999425 -0.005447444 0.021600533 0.009241205 -0.023413496 -0.0035929654 -0.023346532 0.009215876 0.008243276 -0.005321593 0.017244497 -0.008840055 0.00036882065 -0.0033064345 0.014275135 -0.0051862197 0.01744479 -0.013744012 -0.019495675 -0.0004551109 0.0031563665 -0.0049728034 -0.0018014794 -0.013878016 0.01924871 -0.0016327412 -0.0068720947 0.009436127 -0.013681904 0.009890344 0.021409594 -0.014589026 -0.0038020413 -0.007092493 0.016573424 -0.0018847797 -0.0038642683 0.011300329 0.0048563113 0.0046232953 -0.013178662 0.006519263 -0.010541424 -0.029344482 -0.004551462 -0.0012527094 0.009908932 -0.02612985 -0.0078896815 0.006681976 -0.013784714 -0.0016494826 0.018935317 -0.010065461 0.001537793 -0.0027890434 0.007921393 -0.0048856037 0.006161476 -0.0014194212 0.0122914575 -0.015387632 -0.01665718 -0.012127814 0.00026612612 -0.008065054 0.001120195 -0.021839842 
A20HU6Z3LKEXNO	-0.012082183 -0.0016432685 0.0018462486 0.025850786 0.005346278 0.02307277 0.009663318 0.008952996 0.007449478 -0.0043996642 -0.010555829 0.0042973096 0.008706863 -0.012566466 0.03102237 -0.013629751 -0.015899748 0.001134719 0.02245077 -0.000115736286 -0.0018775042 -0.0012351688 0.0024820128 0.011699964 0.038484603 -0.0071492027 0.011906257 -0.014005251 -0.024095949 -0.02982795 0.014603088 0.006980853 0.008629494 0.011972824 0.0067174486 -0.012073411 0.0025746513 -0.025268517 0.009333225 -0.0060165613 -0.0022645425 -0.0038313312 0.011706286 0.00076598814 0.011728285 0.022019222 -0.016158575 -0.015302167 0.00016549091 -0.011226044 0.0020147543 0.012091701 -0.006423403 0.0029826958 0.012717841 -0.0021795323 0.020504331 0.014096431 0.0019093906 -0.0007222737 0.012730859 0.01480548 -0.00028345766 0.0020724665 0.037739746 0.0020612567 -0.022403328 0.0035671752 -0.0065786666 0.010208103 0.00044745562 -0.0010939833 -0.01590435 0.008160534 0.0025202627 0.006544541 0.0037375467 -0.009611059 -0.009035485 0.0045578256 -0.002207423 -0.015073802 -0.0022718816 0.033762537 0.012962467 -0.00081134826 0.0037107572 0.013455629 0.013154537 0.0011604228 -0.0045211646 -0.009114694 0.006489746 0.0026905893 0.013920592 0.014120075 -0.008429194 0.010784053 0.000121297984 0.009210516 0.035951883 0.0032355012 0.026765231 -0.009777391 -0.0023436118 -0.012244468 0.030930342 0.00070357847 -0.00034969472 0.01405343 -0.02799997 0.008187771 0.009515123 -0.047611173 -0.0006415243 0.009589654 -0.017678535 0.00068689586 0.010393245 -0.00857373 0.011393395 -0.00051462714 -0.03338513 -0.0039905673 0.011873328 0.012557027 0.01994126 0.018041408 
A2IP1RRL0L633I	0.017283339 -0.020813398 0.010511143 0.01607146 0.014480409 0.018364532 -0.005455365 0.015772697 -0.008867434 -0.029128406 -0.020312991 -0.022116948 0.018076435 -0.013101992 0.034755256 0.017175032 0.010301879 0.013915769 0.004661961 0.011342349 -0.02858316 0.022410989 0.041729417 0.0016736689 -0.004856402 0.0068072644 0.0037937986 -0.003522783 -0.03603444 -0.016837267 0.041928638 0.016554087 0.02126545 0.01418134 0.05473605 0.007583955 0.02038098 0.0071412493 -0.013348808 0.018120443 -0.02548273 -0.007399909 0.003312219 0.0025060484 -0.008723283 -0.029960034 -0.015339267 -0.01012629 -0.0026015898 -0.0011240304 -0.009066422 0.013345563 0.008077976 0.012099727 -0.0064985086 -0.03294726 0.006361401 0.0070291148 0.030443376 -0.020432783 0.0050855097 -0.001138644 0.006983324 -0.018264502 0.001820247 -0.025094582 -0.044015147 -0.008164089 0.0227921 -0.014492066 0.013060376 -7.4988755e-05 0.00986372 -0.002017094 -0.016478011 0.0074031493 -0.00080939004 -0.006051954 -0.024189824 -0.03132191 -0.027856268 -0.007824498 -0.022629354 -0.008309079 0.02140119 0.009453053 0.03647043 -0.0004017209 -0.005999535 -0.0032109786 0.010884407 0.007484014 -0.016693965 -0.04013744 0.021101346 0.019815164 -0.022912925 0.010713283 0.011446894 -0.021698562 -0.021624882 0.0033681039 0.007969695 -0.035353705 0.022330368 0.0053515946 -0.017581655 -0.03142507 -0.006522006 0.01250944 -0.03450564 -0.022743296 -0.018369872 -0.05529503 -0.015094793 -0.0021521584 -0.019930733 0.0133199645 0.011942052 0.008231229 0.00099002 -0.00886605 -0.011772411 -0.011184354 0.04509726 -0.00047019843 0.02855621 -0.0074084117 
A13Q73QFDEBO1N	-0.004846639 -0.005983867 0.011341006 0.0007754744 0.007963527 -0.0038168563 -0.009133565 -0.0065483334 -0.009626958 0.0029668054 0.0009245771 0.0076276627 0.000179673 0.002388288 0.0039844355 -0.007157204 0.0016387131 -0.0032201177 0.00030974578 0.0043896176 0.00017705897 -0.006521994 -0.0006197334 0.0044683455 -0.004071086 0.0020300094 -0.009946616 -0.004977514 -0.01481032 0.0012366342 -0.000480766 0.0029262332 0.009875989 0.00969275 0.0029454709 0.005939185 -0.0023147697 0.000132125 -0.00039484483 0.0073554893 -0.0035106991 0.0061719464 0.013461826 -0.0003291416 -0.0014441315 -0.00668824 -0.0010872058 0.005458525 0.0044172104 0.0028897289 0.0071335817 -0.0027911563 0.0030339325 0.007743022 -0.0056260214 -0.0007926946 0.0041320915 0.0006653006 -0.0028280218 -0.006400435 0.0032610614 -6.8609595e-05 0.0017008133 -0.0016701961 0.008835362 0.0015434386 0.0025272982 -0.0013175948 0.005078211 -0.012387138 0.00410472 0.001798404 -0.010900445 0.0065083457 0.010355878 0.00023236826 0.005473634 0.003016283 -0.004829292 -2.760531e-05 0.009550835 0.0029402222 0.00480392 0.011089237 0.0055108503 0.0015497615 0.0036225086 -0.0049646576 -0.002128572 -0.0017037769 0.008665457 0.0034581313 0.0031997182 0.0051981686 -0.007301984 0.01052641 -0.004291292 0.00082156353 0.0025007557 -0.0022343888 0.0061273444 0.0004663937 -0.0025513254 0.0014304535 -0.0014383245 -0.0031761904 0.008729664 0.002768174 -0.0027409096 0.0009121858 -0.002604852 0.0030357675 0.003598088 -0.0019479722 -0.003010404 -0.008311313 -0.0033048638 -0.0055057737 -0.009515661 0.00031564134 0.0002976653 -0.00707155 -0.004871482 -0.00097022235 -0.008242953 0.0055221138 -0.004246589 -0.008332158 
A3UH00MDT742P2	-0.0025168944 -0.00021938088 0.007925865 0.00080069265 -0.00013188257 -0.00010085658 0.0041798637 -0.00077650655 0.0060222703 0.003310793 -0.012246998 -0.0060080914 0.0022769982 -0.000847861 -0.0060063615 -0.004635369 -0.0009995011 0.004616185 -0.007378432 0.010304815 0.0008788914 -0.004457901 0.00069899316 -0.0007961425 0.00434995 0.0075515117 0.02098416 0.0015211456 0.008293324 0.0022793377 0.014411754 -0.004759709 0.01002946 0.007678943 0.006274244 0.002456182 0.0014171718 0.00023172876 -0.0072106407 0.0029764026 -0.008835875 -0.0044189184 -0.0036621476 -0.0029441535 -0.002960225 -0.001732601 0.0021779675 0.009207058 0.007225151 -0.0040901676 0.008105069 -0.00994509 -0.0073732957 0.0096041635 -0.0015482963 -0.0032704452 0.00300905 -0.0057255523 0.0038958283 0.0059323744 -0.0030678252 -0.0010710823 -0.010317553 0.010679508 -0.02219323 -0.002880668 -0.009735682 0.0021123544 0.004859564 0.0048973477 0.0115212705 -0.0014327604 -0.00037318905 -0.005311726 -0.0048750457 -0.0015259911 0.008209284 0.00070919987 -0.0021421108 0.0026198842 0.0073489854 0.004225903 -0.000984735 -0.012438271 -0.006058967 0.0017772027 0.0062367427 0.0026957823 0.0027103405 0.0042585745 0.0070084855 -0.0025028763 0.0055448674 -0.0025022044 0.0081337355 -0.0031108456 -0.003463528 -0.0007708747 -0.00751651 -0.0002707158 -0.005795246 0.0021268262 0.0099594155 -0.0027237267 0.00031830074 -0.0034446511 -0.0011918113 0.00033145386 -0.0023705547 0.0057036355 -0.009353686 -0.0035588604 0.0025454995 -0.002985857 -0.005369616 0.0063817566 -0.0013513732 -0.0042195455 -0.0050795246 -0.007314713 -0.0013779103 -0.008955491 0.0066804322 -0.0030898894 -0.0063519785 -0.00062295387 -0.00360133 -0.00075889955 
A155YE20XN7MS4	0.0032629613 -0.0066788327 -0.0031481811 0.0026305283 -0.00045696093 -0.0021804385 -0.00019712852 -0.001443447 -0.0067029176 -0.00066643115 -0.0037097323 0.0009892955 -0.0034040262 -0.0011451291 0.006163615 0.0001229722 -0.0014257348 -0.003421422 0.0043796995 0.00040660545 0.0010142635 -0.0036507663 -0.006450103 -0.004502348 -0.0011472362 0.0044186846 0.0011361579 -0.0055963853 0.0050049108 0.0058353334 0.0051634912 -0.0060183117 0.002786773 -0.002840125 8.5577936e-05 -0.0035218454 -0.0004909773 0.002464943 0.0018201879 0.0067658755 0.0044820267 0.002830902 0.0071042967 6.266243e-06 0.0009039582 0.0047824034 0.0011691736 0.0057954635 0.0027228692 0.002061182 0.0039399145 -0.0003234186 0.0025440408 0.00059985794 0.00936575 -0.0026411642 0.0038383116 -0.003875832 0.0022849885 0.002595512 -0.006703926 0.001155027 -0.0013638375 0.004520587 0.003314177 0.0033238956 -0.0009005877 0.00044561506 -0.00033110025 0.0058903634 0.0007229788 0.0013833856 -0.00046435543 -0.0023613544 -0.0033596752 -0.003524063 -0.0031127904 -0.00032874185 0.0020461378 0.0021852301 0.006153694 0.007954054 0.0067730756 0.002562736 -0.0014761516 -0.006705273 -0.008473462 -0.005977936 0.0027263619 0.0068046553 0.005312209 -0.0093632545 0.0044413325 0.0023394993 0.0059010005 -0.00019152756 0.0067334617 0.007560012 -4.005578e-06 0.0031353296 -0.0063209464 0.0052363235 0.0020714751 0.005592034 -0.0034141475 -0.0026922391 -0.0030100483 -3.4395674e-05 0.0004075762 0.0020947456 -0.0067432355 -0.0041073384 0.0022009574 0.00014439806 -0.0048324144 0.003199361 -0.0025191107 0.0037280407 0.0010707547 0.0012910026 0.006911149 -0.0036327094 0.0003246857 -0.0009871938 -0.0020072253 -0.004202514 0.004484431 0.0037841392 
A2SF88GW3AWEFK	0.0300395 -0.014662885 -0.016992796 0.0026275013 -0.010457141 -0.0013760929 0.019665716 0.026739096 -0.0007987711 -0.016181989 -0.015672551 -0.016930921 -0.0016255003 -0.028788552 0.011718346 0.012906897 0.016969796 -0.004040141 -0.016434392 -0.008780944 -0.01840555 -0.0073169493 -0.0017012231 -0.023682315 0.029698636 -0.008273964 0.025875032 0.011497805 -0.00256675 -0.010996445 0.026429307 -0.027264845 -0.0154598765 0.03339713 0.0020038243 0.0006894895 0.007855876 -0.027521672 -0.014295591 0.012172904 -0.035082143 0.0032238204 0.010098069 0.026783023 -0.014943471 0.02506161 -0.034871206 -0.0014910342 0.00031604688 -0.029736727 -0.0028021839 -0.005269096 0.019770334 0.004146518 0.023755573 0.016776208 0.010124102 0.011376984 0.017881019 0.017685795 0.003857208 -0.013940765 0.0052368976 0.01269305 0.0047133965 0.009273715 0.014013533 0.0043328227 -0.022374788 -0.0092648035 0.033710152 0.008963271 0.0030681267 -0.016695986 -0.012800867 -0.009221142 0.005284795 0.0043457123 0.03671241 -4.6489455e-05 0.030254727 -0.0053470973 0.002463339 0.02955921 -0.018263014 -0.008099652 0.030063227 -0.005415124 0.014127154 -0.0048360075 0.0032310786 0.005959322 0.008711845 0.022087434 0.0077659087 -0.005576408 -0.024785122 0.01577371 0.02441141 0.0062082545 0.0008979553 0.0068387873 0.021583915 0.0075841728 0.03319104 0.0066909585 0.00757051 0.0035719182 0.016851516 -0.012698172 -0.017539306 -0.018662779 0.0056026564 -0.021012086 -0.01118542 0.029108826 -0.01615622 0.0046269037 0.0021833612 -0.013751503 0.00581078 -0.007399244 0.005673836 -0.012673449 0.012954577 0.0020102684 0.034423385 0.014353117 
A2UTZ7HH4UKDZW	-0.025390767 0.005332527 -0.0100475 -0.012804504 0.0004451033 -0.0048081563 -0.015043604 0.007970213 0.019942535 0.009220364 -0.0011988196 0.004520899 0.021022594 0.015182594 -0.021492539 -0.020676646 0.00087383686 0.002002485 0.0014650445 -0.0013189182 0.0016157051 -0.02246953 0.0042344066 -0.006059653 0.0051992172 0.002305787 -0.0015765325 0.0072369017 0.004333741 -0.016466334 -0.008394611 -0.007319959 -0.011372316 -0.0021682214 -0.004290758 0.004514734 0.0002706145 -0.0013795778 0.0074282372 0.0058511803 -0.010437488 0.014943428 -0.0009406003 0.0102336155 -0.024822788 0.0018240034 -0.00096227747 -0.00538945 0.0049082707 0.0019174224 0.011215961 0.008352332 0.0039294804 0.025104504 0.00023575968 -0.01471064 -0.019338375 -0.0013279802 -0.0137873655 -0.020359946 -0.008909754 -0.005587166 0.009099515 -0.012399301 -0.015095888 0.0051978747 0.01451506 0.016569797 -0.001252363 0.007954978 0.0059046303 0.006294194 0.0063401475 -0.0013024932 0.0090831965 -0.011741083 0.0010295237 0.0048537995 0.0038814691 0.011786441 0.010797221 0.004068563 0.0032832278 -0.0055259126 -0.0013743228 0.016409071 0.014511952 -0.007090134 0.0042846277 0.0047504455 -0.021063875 0.023579855 0.016244857 0.03352313 -0.019543067 -0.003998895 -0.002859174 0.010322091 0.0071010194 0.0014404992 0.018474856 -0.004670524 0.02846545 -0.0065319245 0.022416238 0.0043518925 0.004949305 0.0075858105 0.030097641 -0.019097425 0.0035664847 -0.005256939 -0.0058950726 0.006179368 0.0025139651 0.0025795267 -0.0031738942 0.0076087858 -0.013197197 8.408238e-05 -0.0024587095 -0.009462279 -0.01929745 0.009506847 0.0019806393 -0.0036088992 0.021863632 0.0022537026 
A6DVF6PV8BNON	0.002503109 0.014027211 -0.012892653 0.0033083695 0.015633434 -0.010716105 0.01243621 0.0066210134 0.0008160788 0.011598474 -0.0151484655 -0.015165642 0.0071807993 -0.00029564888 -0.00012629852 -0.021141598 -0.0015670105 0.003492908 -0.0006582778 0.0004953013 -0.0010844939 0.015724717 -0.008121513 -0.008064232 0.012465543 0.0048743603 0.0046525034 0.015387839 -0.03256709 -0.0042204023 0.01710649 0.0041336124 -0.0027423648 -0.0068834205 -0.00089603395 0.008916684 -0.004200732 -0.0033742064 -0.008331861 -0.010226543 -0.026221054 0.00085310114 0.01017 9.350881e-05 5.2715193e-05 -0.011726772 0.018948045 -0.0056442744 0.0060942248 -0.009558241 -0.0018076007 0.0058115153 0.011069558 -0.017045084 -0.033059526 0.017396713 0.005860354 -0.010887325 -0.006078491 0.00036780312 -0.0071258377 -0.003412635 0.0005537945 -0.003266208 -0.016039837 -0.008057602 -0.018277626 -0.010715934 0.00050896796 -0.022410756 -0.034703642 -0.02417132 0.0013158108 0.005440246 0.008784631 0.009381092 -0.0053703664 0.003956181 -0.0021135767 0.007320994 0.00023031147 -0.012609378 -0.0045135133 -0.011625295 0.009946226 0.010563881 0.006246142 -0.0124186715 0.0078108767 -0.01047586 -0.0135300895 -0.006422944 0.005725778 -0.010222102 -0.012906435 -0.0049313926 -0.003192022 0.0043896623 0.013170095 -0.0006280636 0.01298765 -0.0031992751 0.0020636762 -0.009195188 0.014463844 -0.008476932 -0.0053666993 -0.017486045 0.0073583075 0.0059806067 0.0100339195 0.004889454 0.004429217 -0.012514083 -0.022824485 -0.0025340933 -0.002267225 0.013237479 -0.0071204104 -0.002531832 -0.00082869304 0.008842232 0.009676957 0.01857096 -0.011652409 0.0013813135 -0.0077517414 -0.0057939026 
A1SHME7L3P78X3	0.005229402 -0.00039241527 -0.0037647095 0.0060551977 0.014419946 -0.0022200486 0.00015198109 0.0052958434 -0.0147910025 -0.008246384 0.0010754396 0.009432979 0.0051103444 -0.0027378532 -0.0013173986 0.012750635 0.008193424 -0.00938531 0.010682536 0.011204487 -0.013322045 -0.002531492 0.0020498915 0.007481493 0.0030814006 0.009708255 0.018697027 -0.009343924 -0.0026615956 -0.013623176 0.00077821827 0.00536834 -0.0021337708 0.013470406 0.011543792 -0.0061689042 0.014820405 -0.013546973 0.00022871335 -0.00074144144 0.007835624 -0.0031465157 -0.00010964899 -0.013049438 0.0008880124 -0.007773516 -0.00052502926 -0.017720293 0.024856588 0.00833752 0.0065008258 -0.0049741985 -0.01855528 0.0070699044 -0.0070379577 -0.010261963 -0.0025812276 0.020536998 0.00022922961 0.018723238 0.009422794 0.00458107 0.0055125784 8.637844e-05 0.02431222 0.0043604025 -0.0016660906 0.0150747085 0.00029593747 -0.0005847318 0.015794117 0.0031649626 -0.0029760737 0.00037608214 -0.004700765 0.013374678 0.0036045813 0.0037949823 -0.009193928 -0.007186336 0.0013605831 0.015819509 0.017146962 0.007906919 -0.010256077 -0.014316807 -0.012019907 -0.00017645086 -0.0016593959 0.0049773077 -0.01633785 -0.016572613 0.0013046294 -0.011353539 0.0061785914 -0.012045982 -0.00197905 0.0028992859 -0.010878577 -0.0005149569 0.012039373 0.0024509768 -0.004625852 0.011927311 -0.006741829 0.000823854 0.012026734 -0.007548732 0.012636257 0.0003246042 0.00041058648 -0.01790966 0.020766435 -0.008093857 -0.012986968 0.011569359 0.0012321883 -0.008977812 0.011078011 -0.0099286605 0.000745014 -0.0064928974 -0.0032806408 0.009869299 0.014100252 -0.00038267163 -0.007416913 0.015936887 
A37V0FQ2944LM1	0.004155023 -0.019753825 -0.004524303 0.0031534678 0.010875252 0.0046728477 -0.0037644184 0.029871995 0.010928045 0.006117743 -0.0100093875 -0.0034565094 0.012058721 0.0027349938 -0.009479533 0.003704935 0.010916841 -0.0019255851 -0.0054498343 0.029592799 0.013259852 -0.015834332 0.0047091255 0.01088598 -0.003942338 -0.016754834 -0.00044891602 0.005294185 -0.003451969 0.0089132385 0.024927232 -0.0028019387 0.026174497 0.015132354 0.0084695555 -0.010264446 -0.0031367298 -0.010583998 -0.0109972395 0.0050311903 -0.0007892469 0.0036847452 0.008069046 0.020104393 -0.009930379 -0.005552417 -0.019249327 0.003763338 0.01777312 0.0018479875 0.00889075 -0.0065669087 -0.0052084383 0.015648184 -0.010088469 0.002463104 0.013139647 -0.00022905377 0.0063463943 -0.009492307 -0.0111638475 -0.006515955 -0.0029380089 0.024571642 -0.0030468435 0.003643232 -0.009017935 -0.00018524683 0.013040514 0.011686917 -0.004213152 -0.004528946 -0.003836148 0.0046371445 -0.0070290365 0.0009159667 0.021665836 -0.015766138 -0.028557189 0.012760425 0.03580428 0.020041376 0.01281558 -0.018866766 0.003471561 0.025624633 0.0016827048 0.005524955 -0.00287424 0.015952658 -0.0037223282 0.008132717 0.014369992 0.018582245 -0.0047767204 -0.010550247 -0.012021364 0.0017603039 -0.0073085013 0.0140346 0.010719766 -0.008942372 0.013855953 -0.0032590246 -0.0014889755 -0.0024921293 0.014067608 0.0030009905 0.011134711 -0.0033075544 -0.00822183 -0.003372988 0.014189642 -0.014386034 0.0093145305 0.01700146 -0.012819854 -0.00307309 -0.016577858 -0.0017193592 -0.0020587952 -0.029103942 -0.007403294 0.016221829 -0.009103955 -0.0014167384 -0.0024098828 -0.013586644 
A24ZIVAIEXKQ4C	-0.008995802 0.0009768263 -0.0092338715 0.0062442 -0.002354649 -0.0070621595 0.005583521 -0.014880177 -0.0030126327 0.0008514013 -0.0032908125 0.003308905 -0.004018334 -0.00086139754 0.0064844736 0.0004250682 -0.0060687917 -0.002322322 0.0007288415 -0.0062762233 -0.0002589432 -0.0105533665 -0.0031432193 -0.002176985 -0.0006493219 -0.006007956 0.0034206635 -0.0016488315 0.013496547 0.008304891 0.0123069165 0.0005661159 0.002315946 -0.009078071 0.0045428695 0.00023248629 0.0053944066 -0.0033278067 0.0062907697 0.0018844716 0.0010049087 -0.00089278945 -0.0074865716 -0.0056458656 0.005629822 0.0013258692 0.009237468 0.004736073 -0.0026182872 -0.0025130257 0.00083022285 0.005426637 -0.000613079 -0.01019045 -0.0063880524 0.002137271 0.007670971 -0.0042497194 -0.006024962 0.0033092073 -0.012822653 -0.0042724805 -0.009006787 -0.0017150611 -0.015310617 -0.004567395 -0.0024606998 0.0020179213 0.000666981 -0.009117108 0.00031249583 -0.006664061 -0.003706195 -0.0036342533 -0.0030701377 -0.008971245 -0.0047939243 0.0033240404 -0.016132856 -0.0062132217 -0.00041467292 -0.004872766 -0.0035882052 -0.004522571 -0.0072428714 0.0025424743 -0.01243403 -0.0004714671 -0.0035727976 0.011436972 -0.00014826603 0.002944599 0.005470275 -0.0029149111 0.006487797 0.0039421082 0.0059237634 -0.0043361085 -0.006919142 0.0051326784 -0.00694227 0.0031914308 -0.0045105265 0.0011869292 -0.003077856 0.00041699508 0.008483384 -0.0009962628 -0.013324293 0.004044924 -0.0012114077 -0.0012444388 -0.008572515 0.0023818854 6.916296e-05 -0.0018234866 0.006888013 0.005887694 -0.010111598 0.0023588992 0.0030007686 0.0042552887 0.0065660635 0.0021132329 -0.0056576766 -0.011740672 -0.004314688 -0.0050453385 
AGMAYY77C2LHW	0.0061175697 -0.00086748786 -0.0037636564 -0.005913543 0.001314511 -0.0049761147 -0.0012316381 -0.0066149244 0.0007514916 -0.0021535382 0.004446943 -0.0007330942 -0.00019948106 0.005366033 0.0011964543 -0.0057270858 0.0027920764 -0.0009994799 -0.0001749025 -0.005183354 0.0007868675 -0.0067777485 -0.00627089 -0.01439241 -0.0010387758 0.008374954 0.003895206 -0.00457347 0.0084457705 0.0066892556 -0.011060971 -0.005481876 -0.011033039 -0.002040803 0.007823937 0.0029249864 0.0058168895 0.0015858198 -0.0053611742 -0.016867852 0.005975583 -0.003817973 -0.013092975 -0.0030128334 0.0012214785 0.0032118906 0.0058577536 -0.001582793 -0.0072628357 0.0044929474 0.0012123272 0.0048145233 0.004277112 -0.004103175 -0.002275483 0.016091 -0.017288014 0.0019223783 -0.012924515 -0.00068237924 -0.0041577844 0.005080044 -0.0030949223 -0.011150326 0.0019087541 0.01556931 0.012114239 0.007815704 -0.0038410479 -0.0075652497 -0.009493537 -0.0067123696 0.003984304 0.0036744033 -0.0026491948 0.0049809758 0.0026975016 0.012123956 0.011886012 -0.00056671625 -0.007447612 -0.0027677757 0.0015699209 0.0026919062 -0.010767262 -5.6463843e-05 -0.0064093675 -0.00855043 0.00080833194 0.0022575343 -0.0028363604 -0.0037516085 0.0024385164 -0.0027587113 -0.00877394 0.0014825027 0.014692486 -0.010747187 -0.0028261752 -0.004357413 0.010673997 0.005843198 -0.00487749 0.008824679 -0.0048431116 0.009564322 -0.013526239 0.011769586 0.0025784739 0.0012284503 0.00072348374 -0.005643933 -0.0131156985 0.0133215645 -0.021122906 0.005338107 0.0047349697 0.0025462492 -0.0042033843 -0.01366236 -0.0014481479 0.0063410075 0.004002674 0.0021026265 0.0089001125 0.0031318066 -0.0057852296 0.0046067326 
A18EN07VMB6WRB	0.010803294 -0.022663979 0.0010081143 0.005117785 -0.003395146 -0.012566794 -0.0013091232 -0.008345759 0.011780001 0.0031209472 -0.0009878341 -0.00041696738 -0.014095647 -0.011261288 -0.0008928156 -0.010555046 0.002304875 0.009486372 -0.003140683 0.016149875 -0.00092050165 0.008843647 0.008846369 -0.010276322 0.020733718 -0.013376638 -0.004301822 0.009305413 -0.01687568 -0.0019778272 0.005143926 0.020949543 0.012620613 -0.0018470573 0.005815647 0.013229029 7.198467e-05 0.0043032877 -0.006925215 0.007262458 -0.0025403101 0.0056106416 0.007756503 0.0055178623 0.0001314554 -0.016901277 -0.00013327664 0.0024677853 0.024309985 0.002359188 -0.0014302651 -0.013459211 -0.0020123366 0.018480975 -0.008656843 -0.020514214 0.003941306 0.0027043063 0.002720306 -0.023435473 0.026203228 0.0032643839 -0.007701619 -0.006759879 -0.012384391 -0.0050928383 -0.013641567 -0.0118089 0.025264908 -0.0019874342 -0.0015614706 -0.017193498 -0.005528772 -0.0055584516 -0.0030121969 0.008837962 -0.0007991827 -0.016135005 -0.018232886 -0.005868278 0.008660579 -0.01826276 -0.004738789 -0.02882971 0.022910902 -0.004833525 0.0036391434 -0.009135091 -0.0012458387 -0.002568308 -0.006311536 0.019665305 -0.019812047 -0.00088115694 -0.0064093457 0.018874098 -0.016981333 -0.006270839 -0.011226761 0.00989823 -0.01678975 0.0035433478 0.0049647647 -0.037122253 -0.005092317 -0.02117857 0.008246749 -0.001357852 -0.011548731 0.008230706 -0.006150068 0.008056965 -0.013335676 -0.0074519636 -0.0055641183 -0.030183407 0.0048362347 -0.016886208 0.011766313 0.012689775 -0.009234869 -0.0011301336 -0.0024523006 -0.017522864 0.0057274476 -0.017377196 0.022212392 -0.016193321 
A389AB5MB0QKNP	0.03346202 0.012905548 -0.03794716 0.011340666 -0.022775443 -0.0031470386 -0.03310909 -0.018180955 0.00432649 -0.020448431 -0.014197854 -0.00985166 0.020708527 0.019473003 -0.019417033 0.027651621 -0.006079093 0.012719523 0.012700507 -0.032569394 -0.024397371 -0.004764789 -0.019331219 0.0060803825 0.028111203 0.016581468 0.0034504046 0.009472149 0.027725538 -0.041385945 0.0052655777 -0.04221639 -0.042667467 -0.0046901368 0.026077261 -0.041495834 0.026629418 -0.0034424218 0.008786892 -0.0036191472 -0.0037168115 -0.005894986 -0.028080026 0.018678056 0.0126993405 0.017895406 -0.01755868 0.005147473 -0.04972259 0.014004083 -0.0026680194 -0.008004387 -0.011109455 -0.019359967 0.014442298 -0.006327503 0.01007062 0.0086194 0.01601111 0.016130015 -0.012496397 0.00050592015 -0.011346433 0.00042745683 0.028135912 0.00088341493 0.02243965 -0.004298772 -0.02784628 0.0052798674 -0.0041485536 0.010881943 -0.011990664 0.016591506 0.0012527992 0.01747797 -0.03099425 0.040526923 0.05364021 -0.0224756 0.025468225 -0.008132558 -0.03337977 0.04060403 -0.030109756 -0.06314954 -0.03170269 0.005701464 -0.0041636503 0.010960359 0.0056729326 0.023471901 0.0044182073 0.006946255 0.016565865 -0.014474575 -0.019446757 -0.0074586524 0.011785508 0.0058889375 0.031676196 0.022302708 0.0007145787 0.000612379 0.00670891 0.023751017 -0.01923979 0.025695663 0.02173819 -0.013218275 0.002192269 -0.010722109 0.008673797 0.00027034947 -0.034199934 0.005671713 -0.0013469673 -0.0011873246 0.04122784 -0.023551071 0.0069652256 0.015196071 0.0040162113 -0.0057029915 0.0287944 0.013971726 0.0036378372 0.045843057 
AN28FUG6NBF0I	0.008849542 0.014936622 -0.011098115 -0.013208861 -0.017238699 0.00018998391 -0.008813043 -0.005586362 -0.001247515 -0.004578689 0.013747413 0.012169994 -0.00040354975 -0.00591292 0.0014507252 0.0012884171 -0.0053100325 -0.014287723 0.009732378 0.0018271838 -0.007012044 -0.0030786134 0.0111029595 -0.0067992844 -0.0068560527 -0.0007225218 -0.011313666 -0.003364311 -0.004452604 0.012733895 -0.01757847 0.0035566976 -0.00081941567 0.001247414 -0.0037781836 0.002092199 0.0037595425 0.0043969485 0.0056608273 -0.0038920073 0.015000283 0.0011653891 -0.0018306874 -0.0028327515 0.0019623244 0.0040925285 0.0040217545 0.0042490587 0.005291041 0.007969852 -0.005402611 0.00945319 0.0017207705 -0.015894514 0.0064035268 -0.0046814755 0.0057743127 0.0014806457 -0.005022879 0.011131726 -0.0045485026 -0.005075558 -0.00035763718 -0.0046885526 0.0006207229 0.017166223 0.0067739156 0.004285554 -0.014768903 0.0054181926 -0.010941378 0.008559087 -0.00044240896 0.0131009715 0.012632461 0.0020729993 0.0013218919 -0.00023681787 0.0087602325 -0.0017261308 -0.0027554883 0.006329014 0.0056545017 0.010001717 -0.008334468 -0.005024393 -0.00469586 0.0043133106 -0.0064731655 0.00091840484 7.955793e-05 -0.0040599164 -0.01111193 0.0006207137 -0.0066636647 0.01152577 0.009172958 0.004750781 -0.002384902 -0.0092256535 0.009300744 0.005067681 -0.022284001 0.009732795 -0.005087043 0.012820023 0.0026522581 0.008373068 0.008662936 0.0074137826 0.0076654023 0.012137905 -0.01074136 -0.0016568638 -0.0050044535 0.0032990403 -0.0018486889 0.005731113 -0.0037251369 0.003528078 -0.009959994 0.0143840825 0.005354709 -0.009336072 -0.006931843 0.0076539926 -0.009212743 0.010856668 
A3V71B7C94KEJ8	0.0038473133 0.01832621 -0.012880771 0.006950218 -0.0019245503 0.011728839 0.00050721056 -0.0007472793 -0.0033381335 -0.009895297 0.0029582274 -0.0009878619 -0.007992651 -0.021784544 0.004015506 0.018039273 0.007863763 0.0013946175 0.019927409 -0.012777379 -0.010744297 -0.0049384236 0.012741801 0.007553882 0.0071166586 0.0128221465 -0.009540963 0.007893514 -0.0103194155 -0.008263623 -0.007161975 0.0012139673 -0.002690593 0.008125883 0.024066761 0.0078794975 0.0026323374 -0.023899252 -0.008768129 -0.0003700418 0.00056042284 -0.0067758644 0.0015895357 -0.0105382865 -0.004684466 0.0040413057 -0.0031202736 -0.0027421182 -0.009450791 0.020725625 -0.0037781133 0.0036318707 -0.009095051 0.026559481 -0.0025141046 0.012170775 0.019510819 0.01435583 0.009159506 -0.00037746376 -0.006365736 0.010873091 -0.011282431 0.0050164023 0.038987845 -0.0029261797 -0.00936365 0.0066695395 -0.00799211 -0.0023133757 0.011136193 -0.0018909367 -0.008986921 0.00022182586 0.016183008 -0.004788553 -0.0112759685 0.0063642976 -0.0062068813 0.008413535 0.0039628292 -0.008168933 0.004465849 0.029369973 -0.005802496 0.014249409 -0.0010024926 -0.001250756 0.017749054 -0.014441409 -0.014364419 -0.0038661032 0.0035241735 0.015161482 -0.021711556 -0.0024678637 -0.010090117 0.004468965 0.011478284 0.006733889 0.000768993 -0.0056982115 0.010828965 -0.011150132 -0.0030468963 0.01197897 0.005146462 -0.025135336 0.011479364 -0.0018922173 -0.023264127 0.012282424 -0.0005928282 -0.03457174 -0.0038358597 -0.0011522619 0.006514189 -0.004608863 -0.013354084 0.007608212 0.0007335939 -0.0039876085 -0.014155881 -0.012241135 0.00045505373 -0.013791492 0.029517304 -0.0069295787 
A1TADEUAY3FR8S	0.005315052 0.026023068 0.009771113 0.01126043 -0.015316733 -0.009957962 -0.033226795 0.00072444434 -0.012850924 -0.013046118 0.035914782 0.024209904 0.040580016 -0.0077390107 0.0045018694 0.023602314 -0.00012872578 -0.08131502 0.012883995 -0.031488966 -0.00761328 -0.016116643 -0.01572561 0.004180641 -0.018854277 -0.03518655 -0.0016626152 -0.018327095 0.081920624 0.010135651 -0.039769366 -0.030058142 -0.037400536 0.0052250414 0.040123478 -0.07286481 0.01797436 0.02155293 0.03106153 -0.027154816 0.05438043 0.0061376225 -0.029981522 -0.015754769 0.012818907 0.04078923 -0.016126791 0.03898001 -0.03202128 -0.041035965 -0.009948406 0.027416244 -0.061137922 -0.04248308 0.036939707 0.023967933 -0.033575203 0.00831986 -0.041648366 0.03657422 -0.02122855 -0.0010734278 -0.028366024 -0.020741494 0.036248665 0.003396643 0.036929525 -0.013134449 -0.021775363 0.058377277 -0.013204041 0.033542473 0.0078123487 0.016991658 -0.020062506 0.04016396 -0.002901248 0.044205405 0.030659081 -0.034139924 -0.031672545 0.049975537 0.022997517 0.01208332 -0.058551434 -0.068277396 -0.045019552 -0.008339721 0.0022074268 0.0015530153 0.031841736 -0.06659105 -0.0017427426 -0.027856506 0.034882296 0.012490385 0.007973726 -0.0303133 -0.007935923 0.016785858 -0.00039188168 0.0149535835 -0.081371084 0.083814144 -0.03128585 0.060958575 0.0039574197 0.0067742523 0.0035218578 -0.011857419 -0.017718587 -0.041133825 0.0009984341 0.004751133 -0.06622919 0.021859026 0.006039791 0.009459618 0.015005259 -0.028175592 0.010486877 0.020981034 0.056974936 0.004098517 0.024747692 -0.007108868 -0.03381737 0.029396774 
A2ANP45L4UER8X	-0.009079103 -0.0033549473 0.016249586 0.003947074 -0.00084944325 -0.001874238 0.016951418 0.002585539 0.0036187945 0.0012884336 -0.0059099765 0.0013465967 0.007914383 0.00273824 0.015190243 -0.015756465 0.01746522 0.009947678 -0.009852262 0.011943936 -0.0025512748 0.0027983615 0.015982449 -0.0069635045 0.026278688 -0.004692355 0.010609921 0.0048381197 0.009804015 0.0040245582 -0.00080046855 -0.0033961898 0.003482184 -0.007276541 0.011264696 0.0017541996 -0.0008957392 -0.0013522716 0.01152928 -0.00024913283 -0.0075355438 0.007624419 0.011943751 -0.0005597032 -0.005802279 0.013664034 -0.0065367073 -0.0023487525 0.0025913946 0.00012518624 0.001970378 0.0018410938 0.01050419 0.0006275924 -0.00079914666 -0.007119492 0.0007840351 -0.009228539 0.004808978 -0.0056316704 -0.0027951598 -0.00538862 0.0077235512 0.0021788944 -0.018886251 0.0021215128 -0.0077761044 -0.013513367 0.013474199 -0.016990077 0.0018497002 -0.009703833 0.011379191 -0.0057995464 0.0023783615 -0.0032095173 -0.004497883 0.0023983086 -0.020438435 -0.0007632186 -0.002658374 -0.0013053686 -3.8543807e-05 -0.013072577 0.014668331 -7.383066e-05 0.009056564 0.0069625117 -0.007488715 -0.009005396 0.013183194 0.00062514393 -0.0042041307 -0.0056367205 -0.0015884968 0.006723478 1.06395e-05 0.0018380913 -0.0071194577 0.010663883 -0.002167529 -0.0007962369 0.0028375608 -0.00154819 0.008998957 -0.0017370346 0.013138358 -0.0014688723 0.005339932 -0.0031029806 0.0054040337 -0.005500388 -0.009095909 -0.015326846 -0.009183534 -0.013849498 -0.019282304 0.0036697201 0.0140406275 0.020620337 0.011074547 -0.010045437 0.004847736 0.0117459 0.0018398828 -0.005723314 0.0055427104 -0.00064122083 
A24B18E6JJB1DE	0.0029681071 -0.012197193 -0.009406037 0.014804223 0.0017484886 0.005373637 -0.0040831133 -0.014478166 0.003930118 -0.010960123 0.0015955862 0.0031174386 0.0025402992 0.008785036 0.008204827 0.002007816 0.012124274 -0.013562684 -0.00020954199 0.0006664525 0.011411694 -0.011658956 0.0052708187 0.006726688 -0.008009947 -0.0081151575 -0.0024147779 -0.00883791 0.015783252 -0.0057286317 0.004616136 -0.0016620677 0.0243165 0.0030976308 0.004406206 -0.011427492 0.0048273467 -0.011445243 -0.016561273 -0.0034837923 0.0008163839 0.012368037 -0.01095705 0.007870766 0.011857387 -0.005239875 -0.011454783 0.0065171532 0.0073139323 -0.0019927367 -0.0069986074 -0.009933881 0.004286193 0.0030053754 0.008125358 0.004426513 0.01977352 -0.0034982269 0.00491432 0.0032239675 -0.0076409564 0.016607335 -0.0087318355 0.0025093073 0.009687187 -0.006344035 -0.021051832 0.00047172708 -0.013812346 -0.0035617517 0.008011491 0.0057794475 -0.0040162816 0.019891238 0.0024592336 0.0041132234 0.001723752 0.0038739538 -0.024453314 -0.012768303 -0.009971459 -0.010572025 -0.012396984 0.007397113 -0.0054112854 -0.010058021 -0.009018206 0.0051102815 -0.009004815 0.0038967328 0.02476244 -0.0011770241 0.0011827054 -0.016293602 0.019253869 -0.0072860415 -0.0013385613 0.013818376 0.0008856902 0.0147074945 -0.013466136 0.0047772327 0.002106861 0.0015040663 0.0012518462 0.007327182 0.00038191417 -0.00843567 -0.010776106 -0.0012355964 -0.022513736 -0.009242975 0.0040716277 0.005130534 -0.006628151 -0.0061919144 0.013904991 0.011852794 -0.010419622 -0.005352911 0.010015895 -0.0068716747 0.00833158 0.0019682026 -0.0050779665 -0.006112599 -0.006365128 0.007051272 
AJD41FBJD9010	0.01722754 0.002244251 0.009825306 -0.009556202 -0.024481941 -0.003332416 -0.007789666 -0.022626517 0.007876802 0.0017946451 -0.0057853176 -0.00077646575 0.015396482 0.0058418903 0.005674815 -0.020235969 -0.006483507 0.028924473 -0.016919365 0.031333517 0.0125243915 0.010453006 0.0068479194 -0.010233071 -0.015157838 -0.013930822 0.024893615 -0.0074895443 0.009740279 0.022120168 0.022917215 -0.010003154 0.012974926 -0.024253877 -0.006440776 0.004338118 -0.008719898 0.0425929 -0.013850979 -0.016678693 -0.017190523 0.027984234 -0.010332677 -0.017269213 0.00042658162 -0.00764586 0.018034657 0.008938351 0.013439584 0.01934949 0.015316291 -0.013921719 0.0154493265 0.009424675 -0.009373928 -0.010093557 0.016916594 0.0047749085 0.018687667 -0.016432974 -0.014971636 -0.002687135 -0.012698678 0.014658179 -0.021188777 -0.0058425665 -0.036646206 -0.019976875 0.012473148 0.01797 0.008837827 -0.015706556 -0.0071147033 0.011639366 0.018900497 0.0021452794 -0.0037780493 -0.011357001 -0.053173427 -0.016768644 0.0021340656 0.0029462778 -0.0052162027 -0.039012864 -0.014330532 -0.0018882429 -0.01462524 0.019351585 -0.02695454 -0.00048113687 0.01295171 -0.010361886 -0.004135577 -0.0041143033 0.017339587 -0.0068019656 0.013270395 0.025839765 -0.02483611 0.0055360002 -0.017503949 0.006871882 -0.008045488 -0.022167755 -0.0033540155 -0.0027913407 0.008590552 0.018420804 -0.0014110153 0.011087997 0.008498699 -0.0067289933 -0.0030255087 0.031540047 -0.038890325 -0.025291353 0.010173281 0.0060204044 -0.050423473 0.021594385 0.009671614 -0.010400129 0.021213869 0.0019998404 0.005323289 -0.010628432 -0.006590568 -0.010625962 
A28CDT522Q2GKM	-0.00021018737 0.0015646701 0.0028587868 -0.004193971 0.0040691406 0.0015541968 0.006744455 0.0032433663 0.002091471 -0.0013184815 -0.005261679 0.008511398 0.0024439502 -0.00030075386 0.006696828 -0.0052372175 -0.005816737 0.004746538 -0.00060732296 0.005488313 -0.0014335654 0.006504911 0.0015382312 -0.009108455 -0.00096204993 -0.0010503182 0.00027006547 -0.00010047074 0.0072036986 0.0050460375 0.0034592005 0.005345746 0.002780656 -0.006271206 -0.00042249015 0.00786502 0.0032990105 -0.013822558 -0.011284176 0.00039441208 -0.0009813847 -0.0020621358 0.011654406 0.0006320222 0.0033023248 -0.0013430124 -0.0031888448 0.002138125 -0.003376141 0.009708772 -0.0057995664 -0.008800529 -0.0117096715 0.0010944945 -0.0025771533 0.003029896 -0.0015138701 -0.010837053 0.0041583125 0.0060887234 0.001323328 -0.00064482354 -0.0035064688 -0.0043498925 -0.0044280007 0.0009080267 -0.010045528 -0.010129027 0.0038802125 0.0045178374 0.0030590303 -0.010498947 0.0016524845 0.0010776565 -0.007184501 0.0035928793 0.0029553769 0.006522096 -0.010713094 -0.0031555167 0.00574164 0.0045876913 -0.005922416 -0.0015574817 -0.00014304619 0.004349109 -0.00068985054 0.009032378 -0.001658618 -0.0068165543 0.0058914735 -0.006204929 -0.0018325279 -0.007201872 0.0075649885 -0.0018918372 0.00022056671 0.007913639 -0.0028977303 0.0036299825 -0.015362059 0.009727961 0.003703496 0.0027978937 0.002572273 -0.008993483 0.009160703 -0.0053943684 -0.00345773 0.0057919906 -0.005374582 -0.002758037 0.002739694 -0.00053678773 -0.00272665 -0.0038808838 0.0066475323 -0.0008003821 -0.0010400935 -0.0032311948 0.003398124 -0.0008828007 0.012870914 -0.002302673 -0.008904406 -0.0009480825 -0.0045555104 -0.009938877 
A28X0LT2100RL1	0.014877822 0.035118792 0.010824649 -0.028561888 -0.020645125 0.033275403 -0.017018415 0.0033439912 0.025667878 -0.0049638427 -0.027852276 0.0018905642 0.019401338 0.009369342 -0.025653772 -0.012883197 0.022053698 0.02552183 -0.007653384 0.0035874404 -0.0018130189 -0.016121702 -0.02221893 -0.0048725246 0.018336786 0.016379375 -0.01888857 0.05616096 -0.021607317 -0.0021434224 -0.0032080512 -0.022293545 -0.0003888019 -0.0065743816 0.001214446 -0.011802742 -0.001998996 0.04096918 0.012512921 -0.0029094773 -0.01173991 -0.02871256 -0.0020234669 -0.007851623 -0.010689226 -0.016020222 0.0243693 -0.015425269 0.006355733 0.003985816 0.016372066 0.029994147 0.020762246 0.018065358 -0.023542328 -0.029339816 -0.027696518 0.033147536 -0.03598479 -0.026023207 -0.021847345 -0.022882488 0.003800305 -0.025982417 -0.03831736 0.006725064 -0.023761416 0.028228592 0.003394726 -0.03368678 0.006352555 0.0074530696 0.023810608 0.015423449 -0.018959593 -0.009872129 -0.0055804267 0.0058577945 0.0014031566 0.024956143 -0.0012807123 0.020366363 -0.005406153 -0.04410478 0.015958838 0.021961195 0.025750427 -0.012834715 -0.027584959 -0.020857971 -0.0010314605 0.0013619316 -0.031507984 0.011137511 -0.05166675 0.014707901 -0.02746396 0.017120015 0.031032534 -0.042909753 -0.020370264 -0.0029515147 0.018066134 0.021031363 0.004272259 0.0337638 -0.055417284 -0.0021914663 0.039250877 0.026356367 0.0009408703 0.035885632 -0.009050956 -0.0013669423 -0.017108997 -0.03839437 0.0013612593 0.030145457 0.018129358 -0.0017921961 -0.015705623 0.017569132 -0.027266646 0.02046907 -0.027870212 0.008365979 0.032505415 0.024233896 
A3SPS3P1ASJ0X0	0.0016510487 8.346559e-05 0.0016883707 -0.010927666 -0.0035071503 -0.0122982515 -0.0035696116 0.006195197 -0.018713893 -0.0018264073 0.0005240595 -0.016468626 0.004726797 0.007160255 -0.0059537 0.010423651 0.01624088 -0.005561567 0.008271525 -0.0050324113 -0.013266306 -0.00850871 -0.003948533 0.0072269337 -0.0010134322 -0.016612474 0.006851098 -0.011210914 -0.018485678 0.0026609201 -0.002876775 -0.0025328402 0.00408709 -0.0029936566 0.00058317516 -0.0025583874 0.0040940414 0.0069411974 0.0017672584 -0.009528499 -0.0057257134 0.00255426 0.0035147474 0.006245416 -0.010265846 -0.0085891755 -0.002499984 0.00062475586 0.0050537447 0.0076997676 -0.0042126453 0.0013355273 -0.008746541 0.0056451806 0.00234722 0.0035057545 0.00024516767 -0.0035704076 -0.009651431 0.00851906 0.0028615047 0.0020985873 -0.013469771 0.0020327764 0.0077351364 0.010407224 0.015818391 0.0033438024 0.008049135 0.0045567728 -0.018750397 0.0021712896 0.00382916 0.011017295 0.0049229627 0.007972449 -0.0025227815 -0.003377551 0.0030956387 0.003676307 0.0049852123 0.006370547 0.007580423 0.022077013 -0.010817003 0.009417743 -0.0022223792 -0.0029551894 0.0014724393 -0.0015090934 -0.008393386 0.0027424698 0.013278866 0.011150591 -0.021502662 0.009576082 0.0038537472 -0.0038970166 0.011842572 -0.013849811 0.018886827 -0.006539839 -0.0069961646 0.013696109 -0.0026529124 0.0057009775 0.005485005 0.0013603272 0.013374759 0.009184919 0.0014854966 0.0026211375 -0.021215906 -0.003657447 -0.009558778 0.0064160656 0.007589838 -0.006680204 0.0012500935 -0.0060311807 -0.0037090029 0.0008220441 -0.005317267 -0.0065155993 0.0049050753 -0.00010834234 0.0071341647 0.0137395775 
