B0002E1NQ4	-0.112482734 -0.111923896 0.083512925 0.12340581 -0.04998564 0.28267026 0.29477438 -0.041092254 0.06404227 -0.09456836 0.030824708 -0.16999751 0.11185207 0.39122796 -0.107806675 0.16586445 0.31202245 0.1389 0.017725384 0.15720089 0.08910366 -0.03549241 0.06800779 0.025633508 0.06670593 0.00048902666 0.29475355 0.12326353 0.054408364 0.03572682 0.078997016 -0.09140938 -0.092779934 -0.0457993 0.15758036 -0.021852866 0.2982674 0.18084888 0.13533394 -0.1734307 0.017814947 -0.022893235 -0.1007888 -0.15729843 0.098615244 -0.040947758 -0.35173604 -0.00818959 0.24635659 0.11989493 -0.08889577 0.31011796 -0.49069205 0.14760384 0.19591545 -0.075932056 -0.0028050824 -0.117439985 -0.15028065 0.28232917 -0.32058886 -0.17885081 -0.016895248 -0.04683983 -0.21762031 0.045479406 -0.096735924 -0.16251743 0.035027035 0.13982168 -0.042066615 -0.014596696 -0.17345516 0.10231579 -0.097947024 -0.045611992 0.26611298 0.20496243 -0.04026554 0.06328036 -0.07010954 0.22019961 0.1582575 0.17211659 -0.14545956 -0.30548686 0.033346273 0.07026104 -0.1254549 -0.306675 0.060184263 0.1702457 -0.05009503 0.03293675 -0.1546856 0.21110243 -0.14194931 0.15599611 -0.011194957 0.084213264 -0.0226924 0.033334322 -0.035335634 -0.07537062 -0.1719535 0.014126138 -0.10849481 -0.1261213 0.32417154 0.255914 -0.19103958 -0.096661724 0.029439628 -0.3499225 -0.26779827 0.12011698 0.036520187 0.23569554 -0.15536879 0.05040568 -0.12966053 -0.1382566 -0.10970971 -0.2216148 -0.07604036 -0.32275072 -0.24339195 0.124121085 
B0002F7IN0	-0.138169 -0.018483663 0.35889018 0.121975936 -0.029324077 0.13572386 0.23472388 0.38093293 0.16121177 -0.062316176 0.122059464 -0.46787924 0.116210066 0.19113392 -0.033673104 -0.21165381 0.1200425 -0.069818914 0.043585468 -0.1788895 -0.31945366 0.12835157 0.2681218 -0.04157837 -0.15944342 0.0804972 0.26876348 0.14581628 0.11801727 -0.0058535216 0.09357522 0.07801135 0.28313977 -0.108425 0.025455393 -0.20631629 0.18954267 -0.031378448 0.3227302 -0.1366424 0.2883062 0.15655711 -0.3193807 0.09593479 0.26720354 0.07977316 -0.1854376 -0.033125907 -0.10065923 0.17885815 -0.36800587 0.72338355 0.32636055 -0.36490622 0.119804755 0.13040538 -0.2559457 -0.054788236 -0.08391581 -0.08118113 -0.06538431 -0.10330297 -0.24796426 -0.20369563 -0.15657565 0.26828474 -0.12592638 0.27680987 0.04058954 0.56946266 0.09687443 -0.21050362 -0.2378713 -0.06158003 -0.15692616 0.37900734 0.063666336 0.13670778 0.19759952 -0.08360003 0.13306955 0.6933562 0.24269272 0.06733156 0.056300044 0.122810066 0.18504812 0.07455016 -0.0059332913 -0.22093089 -0.06988311 0.3673764 0.18757619 0.22211781 -0.04925149 -0.09361351 -0.36483935 -0.13452373 0.12351484 -0.37675068 -0.034382887 -0.23638679 -0.4153391 0.389288 0.1019927 0.1513991 -0.4202896 0.0041672364 0.170109 0.18497078 -0.16240208 0.0659922 0.067203596 -0.32936662 -0.16588783 -0.17965537 -0.058226295 0.26832134 -0.14450993 0.042991888 -0.5629674 0.02612894 0.41903567 0.030737203 -0.15848193 -0.27707303 -0.043796934 0.40307188 
B0002H03YY	-0.011117809 -0.078440264 0.3254943 0.26947963 -0.051586647 0.17677358 0.123781204 -0.092127346 0.45304874 0.26434013 0.10621301 0.07823932 -0.10826622 -0.1445525 -0.11944346 -0.17682178 0.032919373 0.114981 -0.088272184 -0.016690174 -0.018057253 -0.17562804 -0.021018405 0.103787564 -0.026857432 -0.089980654 0.16187257 -0.09880146 0.15111688 -0.1538069 0.096378796 -0.077128425 -0.28187346 -0.01765127 -0.021570034 -0.0583335 -0.14347857 -0.0041429345 0.2608548 0.13661203 -0.22052205 0.03036298 -0.11403547 -0.17363091 -0.0819201 -0.032801215 0.11690101 0.16390187 0.097319685 0.22086003 0.025345566 0.1102 -0.14157665 -0.045170028 -0.24576321 0.15478064 -0.0961595 -0.14831161 0.024408318 0.034232903 -0.13711889 -0.13361342 -0.14231622 -0.24168094 -0.068259954 -0.12467372 -0.2672418 0.06301373 0.23590434 -0.0022321865 0.070257075 -0.08453469 -0.054761942 -0.15938622 -0.15815663 0.1795229 0.09156675 0.2839832 -0.062044308 -0.06781617 -0.32157844 0.32571742 0.1442482 -0.075490765 -0.10739476 -0.28525996 -0.14026082 -0.03241432 -0.071816355 -0.17453869 0.21155633 -0.1410858 -0.011675191 0.17390539 0.009783107 0.049325857 -0.18214996 0.020578718 0.033894178 0.21507265 0.13215707 -0.022137936 0.020236159 0.16890113 -0.06612418 -0.039888434 -0.099342674 0.024681382 -0.20114958 0.2809334 0.18542711 0.049440347 -0.3585443 -0.01849615 0.08897569 0.20349108 -0.030632993 -0.041773982 0.17185697 -0.07879216 0.2871336 0.18706636 0.029832387 0.11886806 -0.1289438 0.01248342 0.08094358 0.06217282 
B0040ZBI52	0.069745995 0.4442561 0.18248704 -0.17917812 0.03554261 -0.04315689 0.14810014 0.08284804 -0.35792965 0.18898109 0.006547868 0.33286715 0.16957586 0.14985253 -0.18741421 -0.36226496 -0.33240974 0.027574522 -0.14222191 -0.481426 0.3485313 -0.46393415 0.03450447 -0.21484816 0.29739144 0.03425897 0.30932447 0.017522179 0.4945499 0.018962173 -0.009888006 0.10572202 -0.43281108 0.7481827 0.081253015 0.60059416 0.013459543 -0.1729301 -0.51565415 -0.35799313 0.11697373 0.23284249 -0.24351254 -0.38795552 0.06455319 0.10342948 0.4642196 0.28576806 -0.04205799 -0.017625174 0.7383634 -0.42198092 -0.119594544 -0.093278654 0.6379727 -0.4734725 0.12430155 -0.21970738 -0.07995917 0.3076964 0.06760242 0.5657089 0.030823382 0.09181483 0.53420323 -0.16156192 0.0503868 -0.4761926 -0.06917966 -0.061678883 0.114931546 -0.3066227 0.042997003 0.5029771 -0.14028884 0.2207648 0.17129833 -0.2922979 -0.2969966 -0.08879116 0.2258496 -0.10348993 -0.53238106 0.3515593 -0.1348777 0.014375596 -0.32415196 -0.0948067 -0.27347556 0.32684904 0.03616877 -0.34419888 0.0024843465 -0.5093354 0.27428448 0.08297982 0.35469404 0.10409615 0.19069877 0.049612463 -0.0027123527 0.5650766 -0.06290326 0.25456548 -0.13342762 0.4482834 -0.09733686 0.5853504 -0.13765535 0.25128394 -0.34110665 -0.20147698 -0.29057574 0.20416369 -0.308644 0.027107794 0.17808206 -0.5384247 0.39081532 -0.27807948 0.2232297 0.24711224 -0.021960488 -0.097924136 0.2378226 -0.1904595 -0.30891076 -0.35535863 
B002M8GBDI	-0.16465548 0.34965962 -0.0050879708 0.25556484 0.32796568 0.04105244 0.33339295 0.15550219 -0.22463568 -0.12928163 -0.043993346 -0.2137352 0.008694215 0.44573486 0.049902193 0.2518324 -0.11985663 0.49742717 -0.08706081 -0.34583804 -0.060379494 0.28781155 0.2635175 -0.15017681 0.19821417 0.2880968 0.23933306 0.3874723 0.09861751 0.1756421 0.23205428 0.10192551 -0.06925089 0.0021254916 0.3960831 -0.17886826 0.16833559 -0.32821473 -0.57745963 -0.25331804 0.29937235 0.15152834 -0.21708098 -0.027574789 -0.049703687 -0.05915527 -0.22033522 0.2201607 -0.1134338 0.082055636 -0.13103856 0.112758644 0.11811382 0.08374787 0.43467206 -0.20159619 -0.15783912 0.101381 -0.38905072 0.20872419 -0.08414305 0.44244015 -0.10485026 0.4032687 -0.2849511 0.41877034 -0.022371517 0.3854233 0.03434061 0.14845291 0.10487275 -0.5248575 -0.25465363 0.07466937 0.10624949 -0.05535531 0.15194403 -0.12519851 -0.071145326 0.06573976 0.1403006 -0.22396715 -0.67571646 0.5431966 0.37244037 0.22791167 0.16288717 0.3962163 0.044144943 -0.19218943 -0.03937523 0.0041743726 0.5018859 -0.0047643227 0.051673282 0.41759476 0.034020763 -0.15522614 -0.045720864 -0.31889105 0.38155496 -0.16949575 -0.24030323 -0.0104844235 0.11662123 0.14362568 -0.26480085 0.27906767 0.16987757 -0.035244547 -0.36113128 -0.2626675 0.2910241 -0.32934052 -0.22448191 -0.0015430492 -0.0016807715 0.10220732 -0.45955142 -0.17923582 -0.4188243 0.12193464 0.18857321 -0.56439406 0.2533583 -0.48116878 -0.1549627 0.10902677 
B0073XCYO2	-0.08724866 -0.33650333 -0.2147778 0.14647977 -0.19283792 0.29821497 0.055432778 -0.102126956 0.2026381 0.025601955 -0.15247601 -0.13287105 0.05633641 0.1999861 -0.15044281 0.07234059 0.09917553 -0.0626106 0.09667956 0.20407902 -0.12714623 -0.18672965 0.13689743 0.101558544 -0.0991723 -0.051608462 -0.0064256424 -0.26478964 -0.0025449449 0.14164913 0.03509087 0.0477808 -0.1335402 -0.22795023 -0.2128592 -0.36284453 0.014765104 0.16950054 0.5592441 0.11036829 -0.18947662 0.06931346 0.022148268 -0.18173657 0.012760171 0.1354801 -0.17460078 -0.21089092 0.12822485 0.25127223 0.03576972 0.31077033 -0.22129312 -0.06265195 -0.43051946 0.23191747 0.013397085 -0.12415095 -0.038305864 0.1278983 -0.43402353 -0.30130377 -0.2404228 -0.33121362 0.014367647 -0.15070681 0.13223182 0.028752122 0.095105946 0.0123144295 -0.19544968 0.047162317 -0.048654985 -0.2485807 -0.07354956 0.11786644 -0.04068537 0.30248135 -0.05951814 0.05833134 -0.2700565 0.33846277 0.35061845 -0.12818393 -0.10826131 -0.23896532 -0.13135065 -0.1322366 -0.01385661 -0.091754705 -0.13008289 0.040340055 -0.33983725 0.008615152 -0.13831586 0.14626071 -0.5049116 -0.02156964 -0.35197756 -0.09497491 -0.08853405 -0.08431451 -0.1938367 0.31206524 -0.10191532 -0.23835622 -0.011945863 -0.18281798 0.2253233 0.26999396 0.028366938 0.19785528 -0.24621655 -0.067500085 0.17851132 0.010055521 -0.2694436 0.08553605 0.030304862 -0.0014174351 -0.1031488 -0.033558033 0.118517525 0.04652923 -0.26586112 0.09857732 -0.019341536 0.13438383 
B0002HLL8G	0.15497835 -0.27642164 0.236567 0.3256371 -0.08889877 0.27014986 0.14096667 -0.0018512261 0.47079396 0.18327671 0.09107641 -0.081042975 -0.04411688 -0.23742314 -0.1620643 -0.10551092 0.3721845 0.055581115 -0.039099634 0.04764183 0.0119506335 -0.011099871 -0.10170402 0.14577952 -0.10602419 -0.05049892 0.26292318 -0.3119813 0.12572044 -0.2969639 -0.067005455 -0.097519286 -0.11539426 -0.10593953 -0.16954382 -0.093755245 -0.18532048 0.06835927 0.2238737 0.1981662 -0.17042892 -0.0005609573 0.0009032875 -0.2982657 0.17091699 0.13402425 0.24445838 0.18705492 0.17162706 0.21684958 -0.060807537 0.15208168 -0.1798874 -0.16736102 -0.26705995 0.23070386 0.06980848 0.06211061 -0.011725527 0.20437463 -0.10404017 -0.21842784 -0.29214856 -0.3630467 -0.09791077 -0.07804448 -0.085627645 0.008326118 0.026461788 -0.007273905 0.19018151 -0.094467394 0.036493916 -0.09915901 -0.29680133 -0.029898485 -0.03961926 0.23837695 -0.13187693 -0.20727088 -0.13219088 0.28375953 0.27577293 -0.05151168 -0.0014962713 -0.23071243 -0.007518473 -0.121714436 -0.08078485 -0.23448348 0.13063732 -0.14297244 -0.22641523 0.15523133 -0.0737321 0.122029275 -0.118052304 0.08495882 -0.0818529 0.17166308 -0.047253426 -0.2631867 0.083544575 0.097366765 -0.11550299 -0.07104561 0.1279328 -0.08504924 -0.19843882 0.2310106 0.28028366 0.031383116 -0.28225267 -0.11464272 0.036046747 0.22752763 -0.013763712 0.039007008 0.22628115 -0.053552415 -0.0014258685 0.03716466 0.0044305935 0.12171682 -0.27881905 0.066324145 -0.101872966 0.18612212 
B000EEJAFS	0.033083107 -0.10546093 0.16636145 -0.056948207 -0.24220581 0.18320937 0.021686142 0.23081997 0.27700537 -0.15963787 0.08918504 0.14283197 0.114451766 -0.06659839 -0.036249224 -0.2528692 0.19046193 -0.16780058 0.26379332 0.1781845 0.21065123 -0.19914687 0.19059362 -0.023579033 -0.018264446 0.12894285 0.35330516 -0.17917323 0.052409217 0.04203953 -0.070726365 -0.17016654 -0.16196202 0.23757054 -0.21616487 0.35964432 0.18193136 0.14607449 -0.14990664 -0.08928484 0.12110839 0.35305107 -0.134358 -0.34843856 0.13866062 -0.14644839 -0.021519145 -0.031074451 -0.07699709 0.054276068 0.3063508 0.13778728 -0.24642237 -0.39321932 0.052086357 0.089649715 -0.001981247 0.016452188 -0.23348886 0.14780901 -0.075187474 -0.15359516 -0.05456396 -0.14627963 -0.14385957 -0.27065355 -0.07358452 -0.034268975 -0.06435424 0.24727227 0.04852845 -0.112924084 0.009312195 0.35753322 -0.070261575 0.04082801 0.1395853 0.02556673 -0.08519028 0.06921197 0.12343953 0.2499494 0.35478136 0.11636939 0.12385583 -0.4253013 -0.26141706 -0.21195075 -0.23304555 0.30791736 -0.14758022 -0.012146359 -0.24050179 -0.046098065 -0.005081828 0.21874246 -0.4486107 -0.3805684 -0.14677082 -0.013961136 -0.12012608 0.13464466 -0.30664498 0.24173853 -0.114521675 0.052934498 -0.10922087 0.17226191 0.102739185 0.22102536 0.18999548 0.032461353 -0.24223982 -0.10248522 -0.26231772 0.28319004 0.0923939 -0.1305735 -0.06797179 -0.26980913 0.15062375 0.26214615 0.100344904 0.22475637 -0.20209302 -0.16213858 -0.29030156 -0.06678646 
B0016ZZKJO	-0.027433224 0.18515429 0.353194 -0.29176515 -0.09119534 -0.05199358 -0.23194282 0.45191914 0.21896167 0.036686357 0.20772539 0.88465095 -0.020072319 -0.37253436 -0.114747934 -0.7137567 -0.63589764 -0.16729464 0.382524 0.028521918 0.36926758 -0.59120446 0.10911638 -0.35222018 0.14281061 0.12076914 -0.10397531 -0.14329988 0.2307701 0.32875404 0.17338404 0.24845426 -0.32253733 0.08976446 -0.1684419 0.60238934 0.09727663 -0.047124144 -0.36463252 -0.20301765 0.20831272 0.48540998 -0.3564459 -0.3152013 -0.16724192 0.10541847 0.16058992 0.23334967 -0.3440606 -0.080856085 0.811148 -0.057253364 0.11504812 -0.36108214 0.3622245 -0.20161073 0.005931479 -0.032500006 -0.42582658 -0.053537432 0.24333137 0.27915823 0.029486949 0.11415333 -0.09319778 -0.33540574 0.020224962 0.019098004 0.0039913086 0.20990609 -0.12489586 -0.16194296 0.08303846 0.53810394 0.041714855 0.40364686 0.05799394 -0.24737875 -0.2542903 0.18601678 0.17910574 0.013564432 -0.13234346 0.34536773 -0.058619943 -0.08515395 -0.6997859 -0.025886983 -0.2199671 0.46578768 -0.19960766 -0.5498172 -0.2766275 -0.26213866 0.06461648 0.1864014 -0.39623037 -0.39245805 -0.14658499 0.3285574 0.17001145 0.6016338 -0.20920378 0.28936023 -0.037098113 0.3070559 -0.26670834 0.6446162 -0.2924984 0.12214437 0.20186618 -0.044359088 -0.36485997 0.41862348 -0.022065792 0.44480538 0.06891417 -0.6967634 0.15283833 -0.6477985 0.62437254 0.7376756 0.03225226 0.2560626 0.25337836 -0.1698858 -0.21932332 -0.22908981 
B0002CZVK0	-0.032155376 0.18210615 0.19741252 -0.34735194 -0.1662771 -0.13397916 -0.17623085 0.3766314 0.1961777 0.043039754 0.1831812 0.82409817 0.054894287 -0.25285113 0.016578218 -0.6546965 -0.76709074 -0.20415173 0.44535685 -3.5344172e-05 0.37214085 -0.6370209 0.04660953 -0.4657727 0.1288794 0.14580639 -0.24795252 -0.11982261 0.15052406 0.30655104 0.0713447 0.2550452 -0.3069837 0.13945824 -0.17079116 0.68493074 0.11212948 -0.07677959 -0.35315153 -0.33886155 0.2315915 0.4362711 -0.40550083 -0.10063359 -0.041666314 0.065901704 -0.025771271 0.070694074 -0.42745674 0.004964904 0.78700864 -0.060781933 0.084525846 -0.25403017 0.36006314 -0.1587118 -0.12955895 -0.13958585 -0.28353736 -0.169232 0.12057324 0.43849868 0.038528025 0.097864345 -0.0235603 -0.24509953 0.014547183 0.121691704 0.06615619 0.032255773 -0.33995202 -0.080699734 0.07263342 0.41916066 0.1145126 0.26423165 -0.052151047 -0.047358066 -0.2510503 0.4614392 0.19434145 -0.07715832 -0.065850735 0.24385948 0.022727555 -0.1876454 -0.69001657 0.017302517 -0.3653162 0.5986092 -0.26363456 -0.36393696 -0.1558737 -0.25255996 0.14680323 0.09037509 -0.31557956 -0.4780395 -0.17989786 0.18621907 -0.054039385 0.6708836 -0.14437512 0.28837794 -0.11469632 0.41957605 -0.21146452 0.6100711 -0.11061422 0.23198512 0.19729602 0.0042841346 -0.41525555 0.41231692 0.05722616 0.4534768 0.025790473 -0.5259552 0.012460984 -0.61909425 0.43783638 0.70500475 -0.012161197 0.24171379 0.19177769 -0.065954626 -0.27210638 -0.17927714 
B0002DUS8E	-0.05387456 -0.067566864 -0.052387327 0.19724952 -0.21386382 0.12948568 0.11268328 -0.11502293 0.23695585 0.089739144 -0.057847828 -0.11911292 0.08818337 0.058596916 -0.03657679 -0.07512471 0.22328526 -0.020542728 -0.10993759 0.09343638 0.025814408 -0.10614827 -0.06007272 0.07049892 0.021841923 0.116598465 0.28597707 -0.050982624 0.25479704 -0.13389903 -0.007190357 -0.1616515 -0.15793222 0.22513042 -0.03153351 -0.14602025 0.07398539 -0.03717769 0.09245699 0.13102542 -0.20244499 0.17544352 0.029337203 -0.05427574 0.044927012 -0.005676485 0.11861861 0.029899416 0.22861952 0.17797564 0.05622054 0.028261775 -0.27785102 -0.11262464 -0.20952109 0.113038264 -0.0537066 -0.07251164 -0.047835823 0.18110149 -0.31711984 -0.042468674 -0.13378762 -0.13988104 0.09714371 0.02186991 -0.0653162 -0.0053711827 0.025204828 -0.034097496 -0.103150636 -0.090363376 -0.14652891 0.106394075 0.01099289 0.06167563 0.08216254 0.27368078 -0.11240576 0.034621805 -0.22469425 0.23745535 0.08771857 -0.09983453 0.03055264 -0.50569814 -0.08649102 -0.17378451 -0.11022617 -0.10696052 0.2663785 -0.06791262 -0.09345227 -0.049282398 0.12416312 0.12037995 -0.24509603 0.018237833 -0.015260045 -0.038114697 0.011587162 -0.055109978 -0.09637867 0.17574759 -0.108228214 -0.11448225 0.053972453 -0.00047629827 0.17605695 0.27082926 0.11537847 0.052919656 -0.42392573 -0.031199107 0.009475462 0.27118275 0.06891806 -0.07174443 0.14057069 -0.023242423 -0.014536221 -0.001899944 0.16199937 0.06789824 -0.21125403 0.03134827 -0.08921694 0.011329115 
B0007XWUQ2	0.023014288 -0.18220028 0.3078262 0.35948417 -0.11141354 0.18351123 0.086649686 -0.14653474 0.54035765 0.30167425 0.085933484 0.098548666 -0.14592876 -0.18806244 -0.0937707 -0.23271468 0.014002415 0.057857707 -0.0890831 0.024557961 -0.0067768074 -0.17808382 -0.068056546 0.1262675 -0.08721322 -0.14047484 0.19282228 -0.16142236 0.16931269 -0.16314146 0.10981368 -0.11441276 -0.26617983 -0.05738801 -0.12517579 -0.06795008 -0.18454506 0.04966496 0.31015328 0.20344907 -0.3052986 0.0131001705 -0.07264746 -0.17021242 -0.07208933 -0.023708934 0.1442655 0.19034545 0.1157801 0.24362113 0.009325305 0.07069538 -0.17254937 -0.12118422 -0.3318716 0.1612956 -0.12536283 -0.1050033 0.06487121 0.010047582 -0.17659289 -0.203872 -0.0823414 -0.3095088 -0.038107675 -0.18599534 -0.24360296 0.08002207 0.2755258 0.012623867 0.10403124 -0.02729621 -0.04641228 -0.15929236 -0.25307655 0.15340585 0.057601478 0.27398503 -0.059639197 -0.054490175 -0.30076125 0.42112032 0.26166084 -0.09313988 -0.091352515 -0.35712954 -0.17215045 -0.073579185 -0.07081368 -0.22764711 0.2362769 -0.14932841 -0.044258397 0.21844621 0.00092307146 0.04231028 -0.24630018 0.027674146 0.023582425 0.19715886 0.11644701 -0.100419745 -0.02468364 0.20655477 -0.06467704 -0.06419057 -0.02998086 0.0063936943 -0.22423285 0.31380913 0.24407516 0.093772605 -0.4581859 -0.013239858 0.14955398 0.20941478 -0.045734398 -0.05080904 0.2279034 -0.06861325 0.22530766 0.19058163 0.015588022 0.16597672 -0.20659952 0.06917935 0.107488625 0.09101243 
B001L8MDMS	-0.078840494 0.13289672 -0.21568668 0.06351355 -0.2456763 0.14607164 0.10738414 0.023233632 0.069321886 -0.09692454 -0.09506829 -0.25364336 0.217367 0.24882409 0.0016685042 -0.03390871 0.31870276 -0.010019539 -0.123497486 0.17569962 0.07623416 -0.014646048 0.034098707 0.08262617 0.17905417 0.27558577 0.40602523 0.11485487 0.2952119 -0.040567577 -0.037158124 -0.20573577 -0.113899045 0.43444917 0.09622385 -0.073064625 0.3041252 -0.13342525 -0.13933861 0.0525582 -0.1258193 0.29026252 0.07713432 -0.06710248 0.07328931 -0.029732313 0.062910885 0.00557679 0.2708092 0.09141868 0.16116582 -0.05698662 -0.3826664 -0.087330654 -0.042939864 0.012151516 0.051146924 0.034743823 -0.24840239 0.2770894 -0.34955922 0.07626548 -0.17090622 0.00075400615 0.08940924 0.122843094 -0.07401787 -0.041460212 -0.17516522 -0.032862674 -0.23269637 -0.24990621 -0.22953813 0.32141003 0.17658108 0.069784954 0.21759525 0.21184608 -0.17382628 0.029877478 -0.18890007 0.045716897 -0.17799291 0.029686753 0.12677477 -0.52140415 -0.079019815 -0.21747671 -0.14615837 -0.00983286 0.2817881 -0.080282085 -0.08573169 -0.25154504 0.24806993 0.20062926 -0.23534784 -0.02917283 -0.01870025 -0.17525832 0.008804687 0.026258457 -0.24165374 0.0680637 -0.083110884 -0.12770484 0.025374647 -0.038628295 0.46355516 0.18001738 0.021846026 -0.0045644916 -0.37882155 -0.043389194 -0.1784147 0.3742248 0.20136808 -0.17483522 -0.050056636 -0.12013752 0.033804536 -0.10320705 0.26304847 0.038443424 -0.18252297 -0.17601457 -0.2495214 -0.07963337 
B0002GXV3A	0.025853321 0.44987166 0.40021914 -0.06163829 0.05012943 0.06844984 0.028729782 0.17681982 0.15474603 0.20824423 0.112836346 0.50215197 0.0045471005 0.017105678 -0.22880457 -0.42372793 -0.25109875 0.024275966 0.10534637 -0.09094652 0.33954054 -0.39512184 -0.0307219 -0.21854484 0.40041074 0.059720274 -0.17487696 0.20484044 0.32789692 0.0037855946 0.12370852 0.10200135 -0.41283137 0.14443362 0.12236106 0.37766525 0.12763909 -0.13738705 -0.2385863 -0.23995622 0.0313917 0.2103231 -0.2353958 -0.33492544 -0.15610904 0.30396512 0.26468942 0.4170095 0.12116999 -0.12062123 0.6060481 0.045007236 -0.21595736 0.13964012 0.40801337 -0.18938635 0.060549803 -0.15395871 -0.2879917 0.012473465 0.11785226 0.35602 -0.09130923 0.26634642 -0.099921726 -0.0612694 -0.13720831 -0.16773318 -0.16088939 0.008576426 -0.20510927 -0.20903237 -0.022296857 0.19366944 0.013196777 0.47068983 0.045333695 0.035535116 -0.50175226 0.18562439 -0.124708846 -0.24364486 -0.41016617 0.22434404 -0.2940983 -0.08392236 -0.4289172 0.084289916 -0.26630422 0.11911705 0.083362 -0.44365847 -0.12576224 -0.27154195 -0.17026086 0.19206162 -0.021926733 0.22744444 -0.026663618 0.69430524 0.1790059 0.62474144 0.4065107 -0.1589083 -0.17188655 0.36234465 -0.19557159 0.39053223 -0.07281601 0.040903226 0.015718741 -0.15555613 -0.3096188 0.2234122 -0.19787452 0.45297492 0.09411904 -0.5470665 0.17334524 -0.49642494 0.76267284 0.43145505 -0.011745935 0.011420235 0.4018509 -0.177283 -0.11455973 -0.1986518 
B000J5Y214	-0.24910754 0.33632612 0.02973766 0.20791832 0.026089782 -0.24268599 0.039067544 -0.012013227 -0.23198418 0.34740466 -0.41338992 0.11610004 -0.040793728 0.49562138 -0.026747437 0.011700636 -0.6899505 -0.10963465 -0.062134508 -0.23021747 0.113467 -0.35813284 0.4946537 -0.071778014 0.3652031 0.047747776 0.14557336 0.9938136 0.020953126 0.19782446 0.21726051 -0.17129286 -0.26797733 0.15803988 0.16031094 -0.45853078 0.0030978061 0.14758399 -0.18797089 -0.56061804 -0.23373488 0.05703267 -0.2652232 0.19883063 -0.7803003 -0.17245743 -0.5333039 0.01849692 0.13667516 -0.12700455 0.1223642 -0.29138738 -0.19200021 0.21441221 0.24607316 -0.6545257 -0.34474868 -0.2827772 0.06601849 -0.32082966 -0.48654112 0.099881195 0.40438333 0.50644886 0.3281623 0.15399332 -0.15108167 -0.10664132 0.09127084 0.29280367 -0.56687266 0.14039552 -0.41304925 0.32993993 -0.21216416 0.3149376 0.22409154 -0.16157709 0.15335912 0.62086177 -0.11733836 -0.23586786 -0.109111294 0.3535559 0.14316052 0.21700172 -0.44013694 0.13368481 -0.15612437 0.49180582 0.18688345 -0.06331048 0.5921002 0.09364835 0.010018603 0.11185849 0.004181706 0.051117126 0.003729994 0.052234046 0.3637361 0.17306153 -0.2582452 -0.0441108 -0.13249941 0.16158742 -0.36586356 0.11640908 0.726662 -0.034403272 -0.41284347 -0.07344665 -0.37274426 0.0849916 -0.42687443 -0.2627663 -0.27315348 -0.11119512 -0.097469 -0.085874006 -0.085487925 -0.12033447 0.21691349 -0.3506462 0.33107072 -0.3578011 0.40453056 -0.16335128 
B003AYC1SM	0.0037607 0.1544021 0.2920471 -0.26915818 -0.058292184 0.0031795935 -0.27547005 0.41218337 0.19085056 -0.033043433 0.17094697 0.77938944 -0.11105625 -0.21326011 -0.11590973 -0.68175346 -0.46709025 -0.18176161 0.3475081 0.14607506 0.29971924 -0.5026112 0.16790971 -0.2579137 0.17819941 0.08679837 -0.13946961 -0.08975778 0.20291753 0.35622612 0.13043937 0.16577867 -0.3489411 0.04926924 -0.15891808 0.6710127 0.16519582 -0.0018011952 -0.29062086 -0.23632061 0.18844171 0.46917006 -0.27650353 -0.40459478 -0.2100814 0.14934444 0.112447314 0.25719595 -0.23264568 -0.1827297 0.7428806 -0.060638726 -0.010407583 -0.25894517 0.28884646 -0.18480746 0.03790915 0.012756206 -0.45268887 -0.021638857 0.19205847 0.17534445 0.06009682 0.1258172 -0.16793336 -0.34288388 0.049426448 0.024879862 -0.018416619 0.21330562 -0.20571846 -0.16446705 0.047162965 0.46057215 0.11923643 0.43533894 0.08183601 -0.23218569 -0.28370312 0.26633045 0.12680349 -0.016137792 -0.060247038 0.31178415 -0.08558529 -0.032547258 -0.6631787 -0.04804178 -0.22606504 0.43074116 -0.1739635 -0.49149862 -0.37122348 -0.2416008 -0.04961732 0.2193617 -0.4571915 -0.34737965 -0.23261587 0.3898805 0.14735854 0.50499153 -0.2030012 0.17773625 0.019215073 0.21928318 -0.29621398 0.5260991 -0.17821126 0.092605345 0.18598342 0.005656691 -0.3859352 0.38363594 -0.058740996 0.44996327 0.08120137 -0.6414961 0.12336365 -0.6546106 0.7032768 0.6832666 0.0881965 0.2931725 0.24392638 -0.17057765 -0.15328671 -0.2146115 
B000068O4H	0.009764261 0.25899288 0.30364338 0.048722804 0.07569731 0.07299124 0.21407355 0.1703275 0.0036933622 -0.073704265 -0.02724588 -0.15878204 0.22183828 0.21041895 -0.1962333 0.1977829 0.17496695 0.05657174 -0.0027339235 -0.06802461 0.12949389 -0.16154501 0.14213893 -0.07752398 0.2412341 0.1004003 0.17746605 0.2995575 0.10510542 -0.14431949 0.06383259 -0.0593585 -0.07756374 0.009223182 0.18890691 -0.23130038 0.20111646 -0.036388595 -0.027224483 -0.18004079 0.108207166 0.03514856 -0.037062608 -0.07985351 -0.12220285 0.03605056 -0.026552226 0.07197994 0.15473454 -0.038483802 0.00033813386 0.35255358 -0.2143719 0.078745686 0.31083044 1.5396463e-05 0.06342704 -0.10339184 -0.20424372 0.06031845 -0.14315848 -0.00883899 -0.33440813 0.19056828 -0.23944764 0.23043269 -0.17040278 -0.22206607 -0.19432096 0.2919556 -0.13493088 -0.21275434 -0.2606136 0.10736368 -0.11285873 0.17134915 0.11693642 0.12188837 -0.1513966 -0.047838207 -0.067569084 -0.039263133 -0.27553663 0.18789731 0.06855073 0.003876838 -0.0061110365 0.14596571 -0.07343192 0.024099704 -0.013221416 -0.079225235 0.16775998 -0.15387022 -0.24812607 0.20216338 -0.03574178 0.18927939 0.0019929155 0.27819186 0.12653229 0.09431651 0.23333505 -0.09743585 -0.12992164 0.09549909 -0.24544656 0.0869229 0.25276884 -0.01921282 -0.22529988 -0.17466873 0.0191908 -0.14770591 -0.36959434 0.13082188 0.02275458 0.05274646 -0.1929391 -0.055010084 -0.0059566335 -0.12781881 0.071315095 -0.26504058 0.18477683 -0.34218955 -0.07317071 -0.028984038 
B000N4WHYK	-0.027852027 0.048613157 0.098475195 0.08133968 -0.043808065 0.17121205 0.14135402 0.06740168 0.14686021 -0.010038793 -0.03083472 -0.15780035 0.11264322 0.15205677 -0.12883043 0.029434808 0.18612215 0.02351243 -0.0008806706 0.019851645 0.0070322356 -0.054538596 0.11810561 0.017360982 0.09250987 0.09825075 0.17924261 0.083898 0.09581151 -0.05931099 0.031201141 -0.06474187 -0.098883875 0.07157657 0.07533996 -0.13829845 0.12502527 -0.0052493108 0.054432753 -0.018462993 0.013726496 0.12009083 -0.061807092 -0.11884406 -0.0038068946 0.024604643 -0.051359143 0.012238103 0.14421035 0.07148769 0.034269642 0.23395473 -0.19284639 -0.047904108 0.020246414 0.0568591 -0.018725686 -0.041453227 -0.15496872 0.10034957 -0.1750621 -0.050491843 -0.20708227 -0.04651597 -0.108183675 0.06264354 -0.084019944 -0.019281596 -0.057614103 0.13850372 -0.10923476 -0.16164292 -0.12328619 0.052856974 -0.041468646 0.12255479 0.1358859 0.14690323 -0.118411995 0.0004471367 -0.11278431 0.13343093 -0.0071573635 0.02962126 0.022734815 -0.1689903 0.0015474745 -0.0030321267 -0.09527323 -0.04335 0.051777888 -0.003607339 -0.05988601 -0.05117822 -0.0465513 0.14173464 -0.20243122 -0.00055768015 -0.056424506 0.006741287 0.045519684 0.013335336 -0.021392709 0.037070137 -0.09227958 -0.017327113 -0.10587333 0.015270604 0.2117427 0.12658754 -0.06406381 -0.012026723 -0.114747375 -0.10711209 -0.1500469 0.1435257 -0.026512751 0.0049085887 -0.061807822 -0.082519546 0.010734412 -0.00022181003 0.140209 -0.04733449 -0.04548402 -0.18479292 -0.10031121 0.024724504 
B001G3TJXO	-0.16482306 0.47313657 0.10263371 -0.26428273 0.33055243 -0.096321955 0.06628231 0.249394 -0.25738603 0.029324971 -0.033416096 0.39327225 -0.04714474 0.34586462 -0.42084128 -0.13012478 -0.4789855 0.041303497 0.09755196 -0.19474258 0.07328517 -0.33951193 0.020664899 -0.26271906 0.47874182 0.17350765 -0.72004086 0.38251144 0.23706165 0.3553444 0.15242244 0.5174259 -0.24903765 -0.24876691 0.31521928 0.20623437 0.22096546 -0.21508305 -0.14296174 -0.3451115 0.12709735 0.18157753 -0.17214468 0.064888515 -0.37467244 0.38682163 -0.0906517 0.14856993 0.08307054 -0.15845244 0.4725428 0.074931525 -0.08282425 0.3200308 0.52509165 -0.13189633 0.076383285 -0.3085617 -0.33893096 -0.19446012 0.0864605 0.5790871 -0.12075409 0.44814873 0.07606212 0.05241367 0.2083429 0.07864473 -0.04989221 -0.11761709 -0.7034297 -0.13255422 -0.012528388 0.01968784 0.23829769 0.3824556 0.025390187 0.06154398 -0.33621934 0.36385435 0.02152659 -0.38446867 -0.7232894 0.20918381 -0.34803492 0.40023717 -0.40013748 0.3717499 -0.24696213 0.10972159 0.033085573 -0.44523093 -0.24529871 -0.3006523 -0.13798428 0.016153667 0.07996275 0.17812304 -0.2341064 0.34565827 0.22321565 0.46612975 0.455806 -0.13350268 -0.18645716 0.37604356 -0.2075663 0.27750692 0.10124935 0.059274476 -0.5744795 -0.004891592 -0.19039622 0.2010524 0.07237912 0.082045004 -0.13335305 -0.4035987 -0.21216431 -0.489398 0.33236352 0.20445003 0.2541459 -0.23173378 0.6966257 -0.14943133 -0.030332372 -0.100632064 
B000EEEYCW	-0.0769118 0.0018425277 0.15288894 0.08915448 -0.07240408 0.29330155 0.11928105 0.10962357 0.13319312 0.11633617 0.13725805 -0.10221433 0.06635293 -0.08950965 -0.11646496 -0.17369798 0.13215445 -0.014788652 0.12283086 0.07830571 0.030955372 0.013580516 0.08656287 0.027441446 0.004150694 0.01797102 -0.12445805 -0.26812488 0.122562066 -0.12420793 -0.14418499 0.0075179883 -0.09267496 -0.0057572555 -0.17835896 -0.07526248 0.030239748 -0.022707155 0.37688783 0.016378023 0.15414551 0.14028029 0.0718788 -0.15687591 0.23444651 0.2782101 -0.08688801 0.065734 0.1131086 0.03910012 0.20704068 0.22233464 -0.06421429 -0.124348454 -0.19686429 0.44569066 0.055037815 0.18000261 0.08113498 0.022330193 -0.098679915 -0.23174246 -0.2951497 -0.112295434 -0.06362429 -0.09224758 -0.14369643 -0.068507545 0.17677803 -0.14873767 -0.14995278 -0.0012533658 0.08273468 -0.17743571 -0.009708682 0.24960539 0.0841585 0.22116953 -0.20258746 -0.17213929 -0.30635694 0.06650521 0.030796321 -0.029029015 0.026991956 -0.05229768 -0.10313612 -0.091483064 0.019951621 0.03252204 -0.19404157 0.07359321 -0.15918103 0.04292513 -0.30966783 0.003376188 -0.17854941 0.09184548 -0.2920207 0.087396346 -0.24624899 0.13215579 0.17296621 0.021664983 0.037051104 -0.070822895 -0.1732436 0.039725434 -0.15234281 -0.17124793 0.04449658 0.02700053 0.025524374 0.13339946 0.10154768 0.18743278 -0.21006937 0.04561355 -0.024258869 -0.17114817 0.31828636 -0.031689648 0.05927488 -0.0095447125 -0.22720277 0.1851534 -0.019051133 -0.07002541 
B005EHILV4	-0.6567714 0.090733625 -0.29311678 0.365665 0.51318073 -0.39102253 0.015717924 -0.20347606 -0.6041494 0.80037713 -0.2967469 0.6681483 -0.31476152 0.26527673 0.19156942 -0.31891692 -0.9352697 0.83968997 -0.15987852 -0.8666806 -0.40607527 -0.0856497 0.75595707 -0.28451556 0.38117164 0.0037193457 -0.22472303 0.74264914 -0.15522589 0.25420576 0.18966609 -0.055158444 -0.29121062 0.081950895 -0.15691389 -0.48466974 -0.6222404 0.29597142 -0.4384992 -0.18868878 0.109157875 0.4750567 -0.6193732 0.06700415 -0.44768986 -0.47357824 -0.7091593 0.09086681 -0.3470993 0.15179172 -0.2519369 -0.025030859 0.50364584 0.08919746 0.38566813 -0.40425298 -0.95389307 -0.28688252 0.15942858 -0.06011749 -0.028742563 -0.08138454 0.49041936 0.63467216 0.28697127 -0.02575124 0.12737837 0.47066408 0.47026113 0.30925792 0.12952627 0.17947344 -0.12949769 0.117287084 0.039563872 -0.0052244407 0.06387422 -0.4067481 0.22687553 0.5457695 -0.29041463 -0.41814154 -0.0633426 0.4249318 0.09092559 0.656523 -0.10319859 0.25344688 0.3224085 0.36954072 -0.24553758 0.023869319 0.6943303 0.43358046 0.4380484 0.20473015 0.13785228 -0.45331913 -0.3525012 -0.22282858 0.4655295 0.05300508 -0.8115439 0.19165486 -0.13636819 0.084117875 -0.5358876 0.5340841 -0.5853873 -0.20898862 -0.18862197 0.034253955 -0.12851569 0.45451394 0.0021960512 -0.46633777 -0.46301365 -0.19821098 -0.08706754 0.22883269 -0.13585316 0.36010635 0.26527426 -0.65984684 0.7424391 -0.12603477 0.71123403 0.3244723 
B0002E1OVS	-0.19671418 0.27371877 -0.28715983 -0.30182725 0.14721225 0.10280324 0.5309713 -0.094117746 -0.126755 0.17752394 0.026733471 -0.42010313 0.16465239 0.37278536 -0.21462108 0.30666807 0.044830024 0.21589598 -0.3935503 -0.56235856 -0.2848032 0.019277798 -0.00082795054 -0.07153726 0.04967129 0.26508296 0.18079904 0.25588253 0.042337358 -0.24734734 -0.13212486 0.34888726 0.02364501 0.18115073 0.8297628 -0.47532928 0.019698821 -0.114543505 0.08332623 -0.095890075 0.028179385 -0.21307075 -0.35778105 0.13444582 0.047468435 0.06912244 -0.076488875 -0.27366436 0.03959005 0.3320566 -0.12370057 0.23724698 0.21608266 0.4709551 0.032329842 -0.26833743 -0.10667293 -0.59854364 -0.0033896428 0.20967735 -0.3937562 0.69331914 -0.5190657 -0.08181521 0.30746016 0.3817413 0.11386132 0.2705368 0.2007403 -0.5658187 -0.24382426 -0.23877613 -0.0062694554 -0.026486645 0.32484272 -0.044249523 0.09270583 0.55494 0.1132128 -0.106474824 -0.421815 0.013094838 -0.49553713 -0.34648392 -0.23884486 0.13688505 0.47340578 0.18293786 -0.026374845 -0.25846764 0.417213 0.09137051 0.20002209 -0.2068449 0.49401537 -0.020235885 0.25710437 0.14033654 0.47483137 -0.25890693 0.121091485 0.23746441 0.12563007 0.28172112 -0.103020266 0.094133064 -0.03900977 -0.08410234 0.30071852 0.6340227 -0.5174126 -0.105423376 0.36307397 -0.14995556 0.16460465 -0.30849397 -0.15662865 0.09246662 0.07889294 0.15312523 -0.23723182 -0.2664711 0.04114126 -0.44549257 0.21166061 -0.06600728 -0.22412325 0.3086902 
B001ELP5WM	0.016333928 0.16011514 0.2671994 0.02817927 0.03608479 0.08375548 0.18157761 0.3570227 0.0672647 -0.1921461 -0.00061691215 -0.32767934 0.10260174 0.28906408 -0.09926806 -0.044689365 0.25216264 -0.08239691 0.042384055 -0.055186674 -0.19652322 0.03296878 0.22679977 0.0032780361 0.051288784 0.14198299 0.32029855 0.31999195 0.04517217 -0.079297476 -0.030397307 -0.09264034 0.11393867 -0.030242866 0.07887826 -0.12445547 0.19185972 0.027122693 0.06110898 -0.28038213 0.23262082 0.13540356 -0.19408362 -0.085754745 0.05760499 0.06521573 -0.18914671 0.06807809 0.003993306 -0.0018339044 -0.24037226 0.50620383 0.05025297 -0.15254425 0.18226969 0.0045600855 -0.044104964 -0.052007943 -0.10885656 0.057026323 -0.072358064 -0.007950328 -0.23181473 -0.001445391 -0.209262 0.30707335 -0.119399875 0.08422483 -0.15600781 0.44000068 0.01911453 -0.16976526 -0.28979462 0.11470795 -0.08665463 0.25987148 0.070396334 0.07707968 0.026844425 0.014506063 0.088432856 0.28293303 0.038456477 0.18472403 0.10740563 0.12927416 0.13227989 0.087489836 -0.11395952 -0.0005298521 0.028394802 0.19625166 0.20399629 0.021611372 -0.2058462 0.033551835 -0.22630881 -0.029178824 0.08400269 -0.09123458 -0.028003098 -0.08734305 -0.17441335 0.11442131 0.025502782 0.099089526 -0.371404 0.022503287 0.36911574 0.07392156 -0.16608809 -0.11800337 0.021411812 -0.30150357 -0.36213982 -0.08305987 0.072234474 0.11007142 -0.13446318 -0.0765266 -0.37269387 -0.022122307 0.3099264 -0.058406387 0.063613154 -0.32739058 -0.065103464 0.16650355 
B00923G9Q0	-0.1782399 -0.008125703 0.19097494 0.14951552 -0.11211916 0.24020818 0.04280178 0.1351669 0.0418845 0.010657965 0.025293563 -0.2152277 0.06356134 0.10333248 -0.055020023 -0.108419634 -0.020752741 -0.013688778 0.123745084 0.14893742 0.027887432 0.008975376 0.1813924 -0.0078058783 0.048202183 0.012271767 0.042578366 -0.005303949 0.17248905 0.10423039 0.089137316 0.030551253 -0.0394841 -0.044123422 -0.106805 -0.17043126 0.1895028 -0.05137409 0.36264172 0.015910575 0.16580988 0.23459294 0.05314893 -0.067916535 0.14753355 0.19690107 -0.20132607 0.043656424 0.0848383 0.044333372 0.15568675 0.36638927 -0.008980828 -0.15702161 -0.089932255 0.3457191 -0.0046122945 0.19111446 -0.09077574 0.0024652842 -0.1411913 -0.24000463 -0.0999242 0.025034744 -0.15177704 0.015713977 -0.15129773 -0.00073082495 0.15301499 0.1231219 -0.16243161 -0.17047787 -0.050299816 -0.13386442 -0.006498468 0.3873683 0.1667678 0.11385222 -0.118289724 -0.19835861 -0.20796333 0.21212229 -0.0327698 0.06044369 0.04919866 -0.06768646 -0.11598683 -0.017488543 0.026321871 -0.10796048 -0.17969516 0.07871529 -0.09959254 0.011570418 -0.39599192 0.13043028 -0.37935832 0.042359933 -0.26716223 -0.0383662 -0.097846165 0.049845494 -0.09074643 0.10254999 0.072453104 -0.08696839 -0.30490127 0.047981992 0.07899788 -0.11628456 -0.06640708 0.042604025 -0.018079167 -0.069352604 0.017581327 0.16408114 -0.18053284 0.115909286 -0.14222363 -0.23982331 0.08858804 0.03097687 0.12163894 -0.10340733 -0.25663784 0.016880644 0.017591976 -0.09098436 
B0010SHU18	-0.09529477 -0.58609897 0.035621442 0.3682938 -0.092379086 0.26081035 0.010586633 -0.05789631 0.33180916 0.25413275 -0.122751884 0.10768091 -0.00656533 -0.29137734 -0.07669332 -0.11816207 -0.007112247 0.059219886 -0.14755394 -0.07981382 -0.20873916 -0.030588325 0.17073883 0.109338894 -0.1871758 -0.081252754 -0.25417212 -0.47307268 0.062325165 -0.08777216 -0.20398508 0.028952379 0.08708918 -0.49233532 -0.61596787 -0.5536594 -0.7000552 0.3490845 0.44593933 0.07118428 -0.17651652 0.14202023 -0.041916132 -0.20329155 -0.13182227 0.17143573 0.034370698 0.0050338157 0.049718417 0.18437335 -0.10890091 -0.023837294 -0.07737945 -0.18534285 -0.3382009 0.13749549 -0.013395826 0.21004948 0.009812341 -0.053801835 -0.22476444 -0.6107471 -0.26883453 -0.4491327 0.042511214 -0.3169239 0.24692658 0.086535305 0.014749541 0.067868076 -0.058015548 0.29806194 0.11806857 0.00046891902 -0.4721884 -0.1062939 -0.12900174 0.10155004 -0.011869057 0.20601262 -0.10952672 0.07537011 0.6498241 -0.034550123 0.07737765 0.16177258 -0.19857648 0.008124307 -0.0028902115 0.22976874 -0.1659598 -0.20186506 -0.28639966 0.49366868 -0.14582144 0.13309155 -0.30778584 -0.13354854 -0.5737486 -0.017790258 -0.015417546 -0.5780936 -0.14224613 0.217718 -0.14268228 -0.11540855 0.17829216 0.11851514 -0.16077691 -0.0031149338 0.18129888 0.18932463 -0.40765384 0.15792084 0.32629615 -0.06344979 -0.43160132 0.09994984 0.21964672 0.29625037 -0.2544485 -0.16472885 0.2520131 0.0486883 -0.106593 0.3683336 0.26848897 0.26664847 
B00A270KYM	-0.0771246 0.059743244 0.1602317 -0.07928172 -0.12714148 0.2999141 0.29338077 0.0012285395 0.21241511 -0.20490007 0.15987651 -0.31645712 0.24515378 0.108388945 -0.06855051 0.11055258 0.5299575 0.0038054697 0.05263702 0.124558665 0.1188329 -0.028156186 0.08977793 0.060253695 0.0742746 0.06863739 0.28973505 -0.109035656 -0.006371594 -0.20761876 -0.030751914 -0.12667447 -0.107442714 0.21761961 0.18864347 0.18047978 0.20073313 0.043180563 0.043618944 -0.036494438 0.1363618 0.21925771 -0.012542021 -0.13926518 0.30213642 -0.088475734 -0.07028618 -0.13117331 0.0703506 0.10433658 0.033148877 0.4018178 -0.27685845 0.005877984 -0.0365415 0.18931018 0.019367514 -0.09008327 -0.17399698 0.23070373 -0.1649199 -0.25408563 -0.40803 -0.065230116 -0.22286233 -0.08637456 -0.07588425 -0.082012236 -0.011448575 0.1420691 0.08743581 -0.27348748 -0.04755589 0.035233404 0.07928214 0.016522773 0.16459982 0.48576695 -0.04505588 -0.07650245 -0.15735829 0.23464562 0.06361044 -0.14504448 -0.07673781 -0.28687638 0.20230013 -0.00932611 -0.1668383 -0.06992889 -0.14981452 0.15818468 -0.21345279 -0.13684271 0.020874375 0.20926495 -0.24252617 -0.040698703 -0.059861485 0.13813105 -0.19994408 0.10024545 0.10118012 0.074244365 -0.12553938 0.052641176 -0.0714876 -0.09833892 0.14690405 0.2623946 -0.09852259 -0.03239932 0.111941926 -0.18222232 -0.13040806 0.21720003 0.12643152 0.072514035 -0.18815508 0.027991269 0.22227184 -0.050676133 0.028325532 -0.048058078 -0.18804257 -0.1628043 -0.24625023 0.016921971 
B00JBIVXGC	0.15963286 -0.10221863 0.24358469 0.7530018 -0.10857855 -0.035224494 0.3803714 0.09219269 0.7755468 0.4966193 -0.095730245 -0.24140276 -0.38409296 0.030657709 0.073946044 -0.52810025 -0.02283523 0.03823538 0.17229812 0.13341217 -0.44713834 -0.09468529 -0.1925427 -0.09801341 -0.35784572 0.14261153 0.24858212 -0.15842259 0.22850962 -0.084897816 -0.60153145 -0.15137151 -0.01720747 0.025098525 -0.42559335 0.12109044 0.040025465 0.22715501 0.008687818 -0.20084171 -0.35277 -0.18503326 -0.11130304 0.06927193 0.10262879 0.060607 -0.03651062 0.19960886 0.08009917 0.52101064 -0.23764636 -0.09636332 0.032676164 -0.26230317 -0.63412684 0.090425484 -0.7116412 -0.2068204 0.6604574 -0.46398672 -0.31803364 0.0026166837 0.023898147 -0.38955337 0.45147783 0.025569879 -0.5104685 0.6738329 0.5037786 0.0331101 0.014479318 0.28355488 0.03410929 -0.41674882 -0.55832416 -0.16793059 -0.19212659 0.63012403 0.03796757 -0.21634053 -0.006704999 0.6367114 0.3192389 -0.17010514 0.14496318 -0.6412435 -0.38829842 -0.15819405 -0.40625122 0.18117887 0.2510945 0.33957973 0.640553 0.5749179 0.4347602 -0.34067184 -0.1482809 0.1675129 0.1411099 -0.28106502 -0.02309859 -0.7033457 -0.1811809 0.01958707 0.25921956 0.3770804 -0.04339475 -0.43729445 -0.0798609 0.28397784 0.06997329 0.08021744 -0.9346199 -0.30420032 -0.21487556 0.124532126 0.05537049 0.266793 0.20537028 -0.2547118 -0.40976274 0.020060781 0.5540803 0.4372611 -0.41259006 0.11003811 0.010685377 0.4448553 
B0002T67J2	-0.013348058 0.21278787 0.35322127 -0.0065196175 0.028891798 0.010102016 0.13568811 0.17567796 0.054653402 -0.017442958 0.009036365 -0.013874428 0.22595282 0.0967101 -0.19601409 0.066292934 0.019744484 -0.057279382 -0.0014423631 -0.11436893 0.21277958 -0.21042861 0.17536463 -0.05444626 0.17740057 0.06056591 0.105151795 0.26932105 0.07640056 -0.16846494 0.01125286 -0.06932018 -0.06251218 0.041332655 0.07238746 -0.1423649 0.075619474 0.008569958 -0.023480862 -0.19533394 0.02683103 0.030589813 -0.122579426 -0.045441616 -0.1593137 0.03699292 -0.0072943848 0.032177802 0.10237077 -0.07516257 0.11319965 0.21137132 -0.18492778 0.014713186 0.2465211 -0.063796975 0.06119937 -0.12776498 -0.12516977 -0.06958775 -0.17473403 -0.025205595 -0.2756095 0.15615833 -0.11658426 0.089248456 -0.1464324 -0.2630061 -0.1306288 0.29897988 -0.19924316 -0.016042186 -0.15847571 0.17821413 -0.19392534 0.19434336 0.105027914 0.05776589 -0.084634334 0.065111704 -0.038033575 -0.059838217 -0.17161037 0.1356495 0.008766377 0.04193355 -0.13351886 0.067866005 -0.100339755 0.22070393 -0.033821348 -0.11794112 0.13745019 -0.069603115 -0.16178496 0.1270535 -0.062109377 0.14807436 0.09139343 0.24498302 0.11163679 0.15873249 0.17502657 -0.026915418 -0.10323892 0.15570696 -0.23898143 0.14931011 0.19179018 -0.024071544 -0.15800287 -0.0910609 -0.07642067 -0.04696946 -0.32738757 0.042822022 -0.011211892 -0.045635294 -0.102581084 0.012669842 0.103556 -0.104623646 0.090869494 -0.16819936 0.21705262 -0.26361623 -0.032067824 -0.10108192 
B0037M62KA	-0.057519805 -0.07041636 0.067027226 -0.21013072 0.14901532 0.13731642 0.055221956 0.27027014 0.27750173 -0.12681523 0.17650172 0.380763 0.48610708 -0.104278415 -0.20846577 -0.012595058 0.5229235 0.11133104 -0.10278489 -0.23365049 -0.057127535 0.00858121 0.4696064 0.08155284 0.057290543 -0.0130438795 0.047151994 -0.46011385 0.07261298 -0.5027482 -0.72319597 0.09174282 -1.9344123e-05 0.30751744 -0.5945749 -0.19097511 -0.68768954 0.12396629 0.09387348 -0.06727151 -0.0020208762 0.12431942 -0.37192127 -0.45053053 0.22411627 0.023795662 0.14619166 -0.09520208 -0.19783646 0.21939917 0.07466094 -0.16982742 0.03598062 -0.41288844 0.11675982 -0.045637425 0.35446927 0.26796883 -0.18204138 0.18116319 -0.25737238 -0.32290292 -0.5920115 -0.72459126 0.08275088 -0.28677204 0.057552215 -0.30345798 -0.2743355 0.09022893 0.41371685 0.21648149 0.26062462 0.48707497 -0.32722437 -0.30245697 0.06436854 0.046067685 -0.028121332 0.29749313 -0.3258556 -0.104081616 0.38180465 -0.046292275 -0.037811466 0.39469063 0.0099752275 -0.29029202 -0.010593813 0.6897031 -0.25398755 -0.20159669 -0.28226867 0.34289876 0.46279722 0.014898479 -0.088260494 -0.41451284 -0.34728467 -0.40779138 -0.31956053 -0.13067998 -0.3474076 0.25041914 -0.093624845 0.060051106 0.011795237 0.17076074 -0.18775284 -0.12611029 0.15186742 0.42934957 -0.255616 0.21846467 0.05511637 0.019502493 -0.17982356 -0.2436363 0.37702915 0.30374116 -0.027901651 -0.35663638 0.35331786 0.10482828 -0.2144281 -0.13096955 -0.04044188 -0.06497971 
B004FRHKA2	0.006453681 0.4511716 0.10544137 -0.17140739 -0.0386025 -0.26670727 -0.113140896 0.22452626 0.2577572 0.12391758 0.056316063 0.44293508 0.14622557 0.33768156 -0.099545814 -0.48826906 -0.54598546 -0.3300097 0.2180932 0.07723228 0.20232216 -0.522633 -0.15324163 -0.52466756 0.33875176 0.116738215 -0.37281466 0.42751148 0.23474252 0.09058232 -0.03167583 0.20532586 -0.2578477 0.01298056 0.05608031 0.30333602 0.3611702 -0.27592576 -0.059665658 -0.33721048 -0.08025731 0.093724355 -0.17721699 0.050835095 -0.15758684 0.35849684 0.0034694625 0.16940978 -0.12655985 -0.05870923 0.51009655 0.024595447 -0.108211935 0.06660316 0.12755871 -0.20509714 -0.032432783 -0.2668671 -0.12081648 -0.29640284 -0.15003213 0.68390876 -0.041266557 0.15819702 0.009431776 0.17484811 -0.10048554 0.16420767 -0.009167867 -0.08974421 -0.62922746 -0.011692481 -0.27478904 0.14526443 0.118939415 0.40027404 -0.2627784 0.22691625 -0.5025359 0.6050468 -0.14577928 -0.11391558 -0.42518482 0.045393277 -0.16711724 -0.17229258 -0.52817786 0.10568858 -0.39126828 0.32861593 0.06826818 -0.16044924 0.08020369 -0.22284101 0.019822253 -0.06486123 -0.19009385 0.17282349 -0.08840834 0.29875985 -0.038932204 0.5314468 0.19904286 0.03562969 0.019810302 0.44145057 -0.21290153 0.20592141 0.3878097 0.1044867 -0.019773193 0.15526976 -0.6529929 0.23409626 0.07524711 0.44359925 0.07049796 -0.5044332 -0.024844978 -0.5843889 0.35668647 0.33361092 0.2506288 0.03428657 0.29169276 -0.0872249 -0.12859465 -0.26194638 
B0002DURNK	-0.19293804 -0.2684019 -0.17609252 0.43383598 -0.40617144 0.12647516 0.09887189 -0.3398666 0.4889473 0.33554044 -0.09423091 -0.16218229 0.0387498 -0.10153526 0.05738793 -0.2463292 0.17920057 0.008260294 -0.33356518 0.07952318 -0.038463987 -0.05905385 -0.22154555 0.17080885 -0.10752202 0.15602724 0.41098934 -0.197695 0.4880386 -0.23565587 0.051550493 -0.1948203 -0.19393718 0.3880359 -0.0545624 -0.26767975 -0.08965238 -0.15626244 0.13978635 0.41658235 -0.50840366 0.2515777 0.022202425 0.081119016 0.031097924 -0.060810536 0.3108774 0.09242753 0.3314623 0.37545326 0.054759193 -0.23859383 -0.25264156 -0.21924365 -0.57400656 0.13249877 -0.22096837 -0.026567519 -0.010045808 0.20097834 -0.52832705 -0.059347343 -0.050176755 -0.37819594 0.3882006 -0.08406246 -0.086581305 0.17567708 0.27306372 -0.23575702 -0.15240061 -0.11037861 -0.15373263 0.16821475 0.013881832 0.045780372 0.1629414 0.47915244 -0.050188392 0.022205055 -0.4297888 0.5147132 0.14273047 -0.2798507 0.04215206 -0.86294633 -0.14026003 -0.33449876 -0.1290171 -0.3155647 0.6053416 -0.14666776 -0.13904577 0.039557323 0.4981199 0.09965044 -0.355059 0.00789435 0.08657779 -0.24763589 0.14564143 -0.25805286 -0.33711725 0.417692 -0.06963212 -0.23409939 0.25373897 0.0020198235 0.09254263 0.5204389 0.2590962 0.18641685 -0.8583884 0.055955876 0.36918336 0.35819185 0.11617805 -0.15168591 0.35958296 0.086782604 -0.022881927 0.015989188 0.29147047 0.17615084 -0.43681464 0.20985827 -0.037018944 0.004415068 
B0002H0A3S	-0.19539404 -0.6545431 0.26477852 0.5650599 -0.15481888 0.2185532 0.12186603 -0.2198529 1.0839101 0.79742354 0.12556246 0.20729458 -0.43285468 -0.84284407 -0.08424302 -0.6413643 -0.14002241 0.25960988 -0.3131297 -0.4179434 -0.22238405 0.044725794 -0.15200454 0.3029693 -0.5933306 -0.060192697 0.30650738 -0.55261153 0.19517204 -0.31082407 0.026852978 0.049690608 -0.30367586 -0.12014748 -0.09482852 -0.23761086 -0.8103846 0.023984186 0.2581596 0.44732732 -0.5788424 0.066522844 -0.42450613 -0.22879793 -0.19578046 -0.1053994 0.29840785 0.29619992 -0.15939741 0.5289139 -0.027139358 -0.49811608 0.39856642 -0.37852308 -1.084293 0.1346694 -0.4112126 0.0299444 0.25475916 -0.061984476 -0.15105923 -0.17498168 -0.016682934 -0.8760479 0.24572812 -0.59190243 -0.2231077 0.6206711 1.000829 -0.45178166 0.33059642 -0.078741625 0.3483589 -0.11786627 -0.27035835 0.0813215 0.105254225 0.41699773 0.26082504 -0.10791093 -0.4258382 0.6271253 0.51058906 -0.3375174 0.0013844562 -0.38355303 -0.1868499 -0.23918234 -0.0468627 -0.32034686 0.55149955 -0.27405864 -0.043633502 0.7813969 0.67890334 -0.1453765 -0.28046837 -0.34761128 0.19962679 -0.15204765 0.37074834 -0.4953905 -0.5212358 0.6837732 0.1970395 -0.16158754 0.15044427 0.2001859 -0.873753 0.6901143 0.5914214 0.08538952 -0.73837346 0.118614405 0.9358762 -0.030995227 -0.15736958 -0.14439908 0.72431487 -0.08210942 0.19090031 0.42879158 0.10192163 0.3623053 -0.51669246 0.3850802 0.1795958 0.37614375 
B00AHEWBM4	0.031460002 0.468832 0.2227132 -0.15265605 0.054021556 -0.07416994 0.088690855 0.14912155 -0.052890226 0.1571069 0.11815962 0.2654864 0.04870509 0.26771545 -0.17180398 -0.17527016 -0.30259347 -0.12630238 0.11208786 -0.09177692 0.25978512 -0.39296067 -0.015767127 -0.2354261 0.40540102 0.08924676 -0.2757274 0.3471951 0.3059569 0.090777904 0.0688467 0.13400711 -0.26829737 0.06290603 0.16089003 0.28798518 0.22249402 -0.29413015 -0.1647756 -0.37531078 0.07686305 0.04119929 -0.07624719 0.034972064 -0.1180903 0.29890296 0.073241904 0.22638963 0.09287991 -0.04997905 0.38633534 0.040697765 -0.28175592 0.18771674 0.42507732 -0.17776124 0.04612324 -0.31366622 -0.10119872 -0.17114387 0.057734344 0.5086121 -0.065459654 0.33797958 -0.01480432 0.13385397 -0.060007248 -0.11322641 -0.14010525 -0.04774851 -0.4539365 -0.14773424 -0.154351 0.09905841 0.08358015 0.3668215 -0.016458739 0.121747576 -0.39673233 0.37803668 0.018967632 -0.24991424 -0.34344348 0.1868051 -0.19166197 0.06528454 -0.39600307 0.1477222 -0.36524993 0.21041395 0.058630064 -0.24743176 0.075874574 -0.2854701 -0.1500678 -0.040089972 0.15893629 0.23764941 -0.007785839 0.45077565 -0.0054967883 0.48544756 0.3881153 -0.06863988 -0.23142555 0.38857493 -0.18914208 0.15965644 0.21932274 0.037455704 -0.24555875 -0.08556045 -0.22378069 0.11203608 -0.26952857 0.26721612 0.0092088375 -0.2612735 -0.0724195 -0.39037317 0.38920552 0.2483139 0.07939952 -0.08024662 0.3811178 -0.13528158 -0.10383525 -0.12066664 
B0052S3WFU	-0.0028279978 -0.039171517 0.15928994 0.026839947 -0.060054764 0.36114925 0.19890527 0.309934 0.19716024 -0.2366931 0.11026799 -0.20349617 0.19275965 0.04578552 -0.11532659 0.10992412 0.546335 0.10176277 0.06024339 0.0668562 0.08233005 0.11792219 0.22083761 0.18496852 0.07607967 0.24351014 0.4325615 -0.13079783 0.05090548 -0.14463009 -0.064349055 -0.1885943 -0.015756194 0.21588671 0.01542085 0.014956084 0.098506734 0.05849424 -0.16477004 0.020936273 0.2320217 0.1873883 -0.058072045 -0.45815393 0.17613772 -0.08614 0.01748088 0.03800594 0.068953075 0.07030106 0.036355935 0.21407984 -0.15136893 -0.2362143 0.11372006 0.19915707 0.20925663 0.25034496 -0.39333722 0.36374286 0.03803566 -0.25736564 -0.34677047 -0.20859681 -0.267151 -0.09190888 -0.10676474 -0.07677531 -0.16858332 0.12268081 0.23148544 -0.4247202 0.0072761644 0.3552059 -0.05486214 -0.02667793 0.26523253 0.04473764 -0.07383651 -0.2034656 -0.015133298 0.089777224 0.084952764 0.1787268 0.20516536 -0.13834767 0.10873413 -0.10984852 -0.14119932 0.11724947 -0.09638516 -0.040995058 -0.22367631 -0.08221937 -0.007275585 0.32425112 -0.1922432 -0.24541482 -0.21716785 -0.19235227 -0.06853757 0.011044743 -0.21819213 0.12769097 -0.2376349 -0.102496 -0.100689776 0.048742637 0.20435567 0.089032136 0.008041291 -0.10607871 0.12609443 -0.27385807 -0.32298788 0.2238801 0.06195103 0.0055639585 -0.14652602 -0.2785023 -0.051381435 -0.017848425 0.14430244 -0.01658434 -0.2436317 -0.29653955 -0.26578128 -0.03574941 
B0002D0096	-0.21340138 0.23421039 -0.24476929 0.14994277 -0.21307601 -0.18892346 0.0714257 -0.35906762 -0.15165152 0.40315863 0.13744886 0.045318063 0.40698937 -0.1798583 0.02781253 -0.04714791 0.024756556 0.25748575 -0.13900486 -0.40541893 0.16140638 -0.26425663 -0.36210522 -0.20672184 0.2065854 0.36773688 -0.11524484 -0.29037508 0.69036233 -0.21894388 0.100279376 0.09920355 -0.057795484 0.6748711 0.0013544287 -0.5302074 -0.11286479 -0.7207355 -0.025755733 0.2423382 0.22234923 0.21013802 -0.07381152 0.09191658 0.23677139 0.30563545 0.7047427 0.24146351 0.30562696 0.3763033 -0.04446233 -0.021188924 0.062060904 -0.118327506 0.22868565 0.1720643 -0.11675989 -0.13351941 0.1302351 0.26557198 0.050962266 0.46124864 -0.12938266 0.107279286 0.23122296 0.38470316 0.19622596 -0.08678823 0.081116706 -0.48899186 -0.13267702 -0.36109057 -0.20432115 0.2037551 0.46056175 0.11470108 0.011100235 0.31019813 -0.41657695 -0.10501554 -0.3399853 0.007724246 -0.41020182 0.05618115 0.17337827 -0.45201755 -0.050684825 0.030364929 0.13900943 -0.20528987 0.11754228 -0.32822213 0.09693679 -0.48225483 0.27632582 0.08312583 0.3322192 0.22782218 -0.0023747531 0.050590925 0.008523474 0.3267632 0.37025422 0.49711186 -0.25670412 -0.18640548 0.059858892 0.5390457 -0.2204199 -0.17064911 0.008666883 -0.09729429 0.1624973 0.39394057 0.21362077 0.33577552 -0.10179954 -0.13135545 0.44492668 0.23333105 -0.23153692 0.18638761 0.051165074 -0.29564515 -0.014242494 0.36522135 -0.017342927 -0.09800556 
B001MSS6CS	-0.15216286 0.23331937 0.24382345 0.16521083 0.26826164 0.03326871 0.22794813 0.017039746 -0.0915088 0.14938232 0.048941184 0.004995499 -0.028572176 0.11345798 0.04959723 0.085179746 -0.16104276 0.4226443 -0.08919183 -0.25827354 -0.031533748 0.036291957 0.18335138 -0.1078592 0.21356927 -0.020218162 0.07291113 0.25057778 0.028602475 -0.045081217 0.20227098 0.047094297 -0.076847486 -0.0556422 0.14840059 -0.18459286 -0.060583867 -0.09752299 -0.13828623 -0.11523453 0.2655715 0.07652662 -0.1076227 -0.008223006 -0.030543549 -0.05527351 -0.115107335 0.21275133 -0.030566009 0.062058076 -0.12337568 0.2423551 0.11155278 0.1287682 0.3239004 -0.008325157 -0.20585781 -0.028648185 -0.14036937 0.055077285 0.022293307 -0.055213716 -0.13261637 0.28179947 -0.2462149 0.19059177 -0.14670664 0.09479453 0.09422902 0.21514235 0.1477916 -0.2988698 -0.16780478 -0.09332355 -0.07132397 0.050546225 0.0973334 0.030605609 -0.030434094 -0.07844208 -0.11771193 -0.016829055 -0.33522117 0.27423736 0.124908954 0.2024408 0.10956182 0.3196472 0.13251972 -0.1751911 -0.047009543 -0.027851066 0.37264404 0.04389323 -0.054636367 0.19772556 0.10301878 0.04532716 -0.09138631 0.13756727 0.18703826 -0.07167734 0.052835092 -0.04576983 -0.040141553 0.13772272 -0.30203813 0.14923556 -0.24859856 -0.1312624 -0.19491798 -0.20327525 0.20823887 -0.025956335 -0.13679273 0.088913985 -0.08157445 0.08888331 -0.25753504 -0.01492636 -0.020615261 0.05763219 0.027918627 -0.3908581 0.18320991 -0.2604641 0.111710645 0.13079345 
B000AC6DVS	-0.0350263 -0.45195544 0.046826784 0.25097284 0.042145897 0.31959304 0.24312106 0.034680117 0.30564797 0.09675786 0.080810905 -0.3432346 -0.00090452895 -0.21984395 -0.0059487526 0.18449244 0.5171078 0.32727003 -0.10328756 -0.11723032 -0.23922575 0.2909576 0.029145703 0.124028526 -0.07935763 0.10124573 0.037967578 -0.3488028 -0.034813832 -0.21648228 -0.30042672 -0.031070832 0.10997601 -0.24232772 -0.18964674 -0.24476449 -0.50487727 0.2436557 0.2266649 -0.014270078 0.06474077 0.10895775 -0.10472175 -0.22636068 0.10915575 0.25890282 -0.08193171 0.031219494 0.099758156 0.24362056 -0.31781566 0.31821403 0.018126605 -0.0054497207 -0.1406266 0.32788104 0.13922116 0.20542212 -0.039803505 0.25270256 0.02401178 -0.53809106 -0.36328232 -0.39960667 -0.20731214 -0.10252266 0.026151475 0.09277425 -0.08404949 -0.15790349 0.24637449 -0.12066346 0.22541769 -0.110195585 -0.13428782 -0.17323601 0.0014079086 0.33620173 -0.05859157 -0.044699103 -0.1273591 0.07856191 0.41711894 -0.06798878 0.04882754 0.07246852 0.2003632 0.045247093 -0.19316448 -0.153569 -0.07327692 0.08472 -0.2049226 0.43374225 -0.125712 0.12150324 -0.04136259 -0.047424756 -0.3819501 -0.16900185 -0.18500677 -0.55432266 0.104279205 0.04854617 -0.18408094 -0.10156649 0.035406046 0.04039161 -0.077909544 0.026386233 0.22274314 -0.026894502 -0.051029533 -0.15849607 0.04691753 0.052716598 -0.19526637 0.3365396 0.14764495 0.12817253 -0.20280647 -0.28010887 0.14132021 -0.038630556 -0.2814496 0.12663254 0.034014765 0.3138272 
B000P5LVSK	0.013348119 -0.10674662 0.0959636 -0.08167964 -0.22537638 0.204959 -0.042635918 0.3119185 0.27287906 -0.14387773 0.0034616205 0.19793735 0.079383746 -0.055597935 -0.043797668 -0.28045744 0.17735116 -0.15858302 0.19839218 0.15745412 0.11774576 -0.16357957 0.32651022 0.028000262 -0.049267143 0.1812171 0.45277643 -0.20219514 0.082606904 0.13753882 -0.15173987 -0.17282872 -0.21024759 0.3014409 -0.29522195 0.249026 0.1460863 0.16225746 -0.19826299 -0.113818705 0.09496439 0.3890211 -0.19284774 -0.44206452 0.04556142 -0.18288551 0.007388692 -0.027098244 -0.076224074 0.06252649 0.34230855 0.028053157 -0.25211915 -0.44992864 0.029623598 0.0061466936 0.025419734 0.044695273 -0.29050136 0.17296632 -0.116889365 -0.11182589 -0.06728711 -0.20022082 -0.10882394 -0.3132765 -0.07655822 -0.007117308 -0.12530711 0.20589781 0.057777535 -0.09813519 0.05005868 0.40680233 -0.07430284 0.019948456 0.17495725 -0.0733921 -0.13039838 0.079972096 0.1452115 0.19627398 0.37783435 0.1678321 0.20977625 -0.3943544 -0.31549352 -0.23122145 -0.23021246 0.41430062 -0.092297666 -0.04798377 -0.22774182 -0.045991685 0.07032416 0.23291898 -0.5215987 -0.4718235 -0.13973808 -0.15536186 -0.03605144 0.090951554 -0.47909468 0.29100767 -0.07016931 -0.0031415494 -0.12947994 0.2326041 0.12924576 0.22940804 0.17661136 -0.0047304668 -0.29325598 -0.081445254 -0.33245412 0.24110153 0.03177856 -0.14475295 -0.034902427 -0.26949057 0.13673812 0.25767198 0.15622051 0.26091108 -0.20225714 -0.19143154 -0.27077618 -0.022719448 
B005FKF3L6	-0.045922168 -0.30559066 -0.009463389 0.0936132 -0.12587063 0.1316045 -0.0077448706 0.03917416 0.23156515 -0.043501314 -0.0011886195 0.11759545 0.27575 -0.24748027 -0.038266078 -0.10154683 0.226924 -0.049359314 -0.042014938 0.022089148 0.036434915 0.028123138 0.14471714 0.0077109695 -0.05732565 0.1032724 -0.15225121 -0.4163853 0.10364855 -0.22138873 -0.34316415 -0.010146626 0.16116913 -0.09577452 -0.50601965 -0.17535914 -0.4238215 0.090831436 0.12802625 0.043977525 -0.030148163 0.27259427 -0.010639868 -0.11964527 0.13184413 0.04820463 0.09016039 -0.08253214 -0.043590654 0.090700775 0.08286366 -0.12011074 -0.10713265 -0.34451082 -0.13196574 0.19534963 0.1565658 0.2878775 -0.109986894 0.036750797 -0.14761752 -0.26952344 -0.28982157 -0.34770572 0.044382747 -0.21520258 0.14621846 -0.00886037 -0.1756923 0.050759234 -0.03712196 0.22868073 0.12369036 0.23167865 -0.24512513 -0.20723794 -0.04287614 0.058539372 -0.07478788 0.18848579 -0.010774316 -0.07245347 0.39497522 -0.1074541 0.098786876 -0.046586797 -0.1218793 -0.15120262 -0.079526566 0.39073655 -0.15007511 -0.09670651 -0.31886333 0.23877609 0.09247752 0.091159046 -0.2153091 -0.2345216 -0.37190858 -0.23230101 -0.22003204 -0.28550044 -0.14113733 0.12949196 -0.1245605 -0.035164267 0.18792114 0.13041204 -0.03622205 -0.08799031 0.24686831 0.24728738 -0.30076987 0.1725208 0.20124757 0.12003885 -0.12768935 -0.060558654 0.114281684 0.17271933 -0.16772221 -0.15374045 0.32438514 0.15182975 -0.13487254 0.22355983 -0.026836101 -0.03580334 
B0002D0LKY	-0.033427723 0.04375505 0.16536966 -0.039498545 -0.08790584 0.2464252 0.2448456 0.07955644 0.18192388 -0.11813145 0.083669215 -0.179016 0.25098696 0.06405376 -0.1144911 0.084967464 0.4699526 0.01652885 0.08038467 0.05129164 0.09334635 -0.11942574 0.116166644 0.022693612 0.089868575 0.10110024 0.23200557 -0.12309846 0.044814974 -0.21383356 -0.10760349 -0.124533094 -0.12371832 0.18534921 0.008002144 0.0057372553 0.10575442 0.054407474 0.03711585 -0.064972855 0.13263464 0.21251652 -0.02150694 -0.22053744 0.21162146 -0.0040905513 0.005465698 -0.064069994 0.090826765 0.10695324 0.047353353 0.35392427 -0.24743484 -0.07830038 0.016408477 0.17218682 0.056791272 -0.087078735 -0.15526178 0.2251333 -0.12810883 -0.2117471 -0.4146506 -0.08412499 -0.18675727 -0.04531048 -0.060279023 -0.10758021 -0.1023717 0.13762337 0.07821415 -0.2000692 -0.038490467 0.10092193 0.015843133 0.008023052 0.08598442 0.37605008 -0.10568212 -0.037501365 -0.14780496 0.14220019 0.08914999 -0.051359516 0.008049115 -0.21776785 0.06358149 -0.041824576 -0.13863136 0.074424796 -0.11947306 0.039964285 -0.17431487 -0.104473285 -0.044649336 0.22648776 -0.21681546 -0.060262356 -0.16389397 0.15876086 -0.14526641 0.08396802 0.104362674 0.12834844 -0.16694346 0.03903602 -0.08926877 0.005675151 0.12010491 0.16210201 -0.032189082 -0.048826363 0.019100836 -0.11069242 -0.1963955 0.21967512 0.040902704 0.02093054 -0.07250231 -0.00806245 0.13499616 -0.027237998 0.088468 -0.058812976 -0.10870366 -0.11284246 -0.2027148 0.019321332 
B000RVYPQ2	-0.00198206 0.31830847 0.024548242 0.0024232552 -0.023525618 -0.09799563 0.008925038 -0.05132995 -0.087403625 0.18560186 -0.11435807 0.26498199 0.021760043 0.26903665 -0.056548208 -0.20422065 -0.25504887 -0.104463734 0.07797878 -0.06336412 0.19733368 -0.3584937 0.1334559 -0.120092064 0.31903794 0.04841034 -0.0019019567 0.40294737 0.2069676 0.12849127 0.06985958 -0.11765434 -0.28359053 0.23159142 -0.020640057 0.09806689 0.1384309 -0.077161476 -0.22166155 -0.31237414 -0.05644261 0.17283869 -0.12085115 -0.023705423 -0.1775395 0.038348116 -0.061118204 0.13187066 0.10451387 -0.029591402 0.29165018 -0.07259059 -0.30812633 0.08694733 0.28759462 -0.26684085 -0.15017237 -0.24377868 -0.009679817 -0.041237995 -0.16207547 0.2610286 0.19404913 0.34693742 0.10587741 0.06449902 -0.044378247 -0.118954375 -0.06525425 0.05212694 -0.30765355 0.010244192 -0.22584127 0.22869179 0.04407255 0.24876463 0.05318372 -0.019043116 -0.24924676 0.44737977 -0.051637102 -0.2067653 -0.11311274 0.21541758 -0.076251924 -0.12735596 -0.3924775 0.009406176 -0.22831039 0.26009378 0.1138055 -0.13267334 0.14570436 -0.14852436 -0.045866102 0.10085901 -0.06605063 0.05064218 -0.057230324 0.270739 0.058376472 0.33835372 0.04212388 -0.02101551 -0.17951737 0.17914017 -0.17716545 0.18694797 0.28432176 0.035016082 -0.10912496 -0.02496058 -0.33520502 0.16522206 -0.28685176 0.16897982 -0.018805627 -0.26560822 0.019766726 -0.22749068 0.23133959 0.1928766 0.09634183 -0.07570875 0.26986194 -0.116120435 0.028438399 -0.13027903 
B00GTSM8FW	-0.27266636 -0.6860142 0.2846946 0.17367303 0.014929956 0.14817806 0.22267057 0.31578183 0.38800094 0.334714 0.11249573 0.27027398 -0.064492315 -0.6537021 -0.17597857 -0.48092228 0.000248812 0.16589871 0.02786274 -0.43452987 -0.30979934 0.21947207 0.39389017 -0.1835998 -0.42869002 0.14294125 -0.5687077 -0.9072244 -0.11066764 -0.12677978 -0.7409806 0.30269694 0.36817035 -0.5301668 -0.74464625 -0.37044987 -0.7552842 0.29093084 0.17815706 -0.10214649 0.18639992 0.4041446 -0.3859905 -0.11163982 0.09524602 0.08672028 -0.011941086 -0.048173912 -0.2100637 0.14451717 0.027171439 -0.19856223 0.2222884 -0.42980078 -0.37394923 0.17978978 -0.28634742 0.23037261 0.17914978 -0.49385238 0.13283417 -0.43530375 -0.39561 -0.5328177 0.22743586 -0.468292 0.26158497 0.5811855 0.30760452 0.07314957 -0.20360889 0.6816924 0.6296377 -0.009245443 -0.44048992 -0.38696525 -0.17583098 0.15255524 0.06629661 0.24551818 0.16300139 0.055919483 0.84027165 -0.35818654 0.15004124 0.2041626 -0.2929605 -0.0012108017 -0.06261591 0.73742026 -0.34379083 0.15071487 -0.2743543 0.8620621 0.14901994 -0.038298164 -0.0892298 -0.45880908 -0.6162247 -0.3292557 -0.1342711 -0.72093344 -0.13872842 0.17329745 0.12346611 0.28240022 0.18803734 0.26424754 -0.72406745 -0.064057946 0.1237137 0.22480948 -0.23043698 0.30344215 0.4691818 -0.17325531 -0.5462031 0.24404429 0.21585602 0.38156757 -0.16775544 -0.0587454 0.46217582 0.24486434 0.057098214 0.57734185 0.058842186 0.5164726 
B0002GJ3E6	-0.021298936 -0.23708174 0.07859009 0.20767005 -0.0874863 0.16496222 0.08572892 0.005365434 0.28430003 0.14115775 -0.03511607 0.049626525 0.10107717 -0.117180705 -0.10598397 -0.07924327 0.1927757 0.0004773507 -0.046181522 -0.026244957 -0.028917694 -0.104538865 0.09785328 0.029532764 -0.041726615 0.03912673 -0.01705323 -0.24772485 0.0943787 -0.17948593 -0.18786196 -0.07979331 -0.041300464 -0.10250049 -0.33695823 -0.26543698 -0.2882255 0.1654809 0.18641356 0.01375782 -0.09510768 0.13271385 -0.031646684 -0.17630881 -0.015537737 0.088944934 0.06680178 0.030272273 0.10019928 0.13454472 -0.0060833814 0.04555273 -0.19855978 -0.18387614 -0.15243126 0.13021784 0.01376477 0.058923934 -0.02250702 0.045044053 -0.18183607 -0.29867476 -0.24604964 -0.26557416 0.005715059 -0.1414119 0.04178192 -0.010289179 -0.039547056 0.05790591 -0.038088076 0.12655872 0.024716038 0.09362637 -0.26586047 -0.07490241 -0.040150426 0.15607716 -0.103946164 0.14225908 -0.11596238 0.09150241 0.354026 -0.021260086 0.0652321 -0.112989224 -0.14646313 -0.060394123 -0.07222351 0.1714102 -0.007536539 -0.10888358 -0.16199169 0.20967999 -0.045431193 0.1102812 -0.21280283 -0.04916556 -0.2891567 0.037455086 -0.05876171 -0.21568349 -0.00013253574 0.13352437 -0.14946792 -0.034479298 0.06029884 0.08222908 -0.022811148 0.06732801 0.12366979 0.10667963 -0.28923324 0.063215755 0.048486445 0.10926845 -0.16930903 -0.0034395123 0.14726532 0.09141343 -0.08012373 -0.07706889 0.19062233 0.039053693 -0.0987173 0.1273602 0.03576818 0.109289624 
B0002H0JZC	0.0025161607 -0.11557467 0.3838955 0.30434945 -0.060939506 0.1845152 0.12110724 -0.14691016 0.51292074 0.2727725 0.15990222 0.08537003 -0.14772905 -0.16375098 -0.095272586 -0.20181802 -0.0064372695 0.118362986 -0.08042769 -0.005525965 -0.016180808 -0.15927096 -0.0474149 0.13325521 -0.059934147 -0.16138615 0.1549077 -0.12019332 0.12738878 -0.15566714 0.14330405 -0.07551515 -0.28299037 -0.0691555 -0.028445698 0.0022653078 -0.18283185 0.0015093638 0.3324006 0.1843384 -0.27672952 -0.013985909 -0.11922904 -0.14632039 -0.07726441 -0.06352974 0.094876036 0.18051344 0.07160324 0.2390354 -0.016889602 0.10413135 -0.12869637 -0.040585414 -0.30202815 0.17594376 -0.13712801 -0.15035084 0.051200125 -0.021379214 -0.1340476 -0.18853444 -0.09950801 -0.29244822 -0.084568895 -0.17809415 -0.29569831 0.09504652 0.31045595 0.01315745 0.113268495 -0.05789004 -0.036503047 -0.22280402 -0.2072518 0.17904909 0.110799104 0.2917078 -0.03252724 -0.08191089 -0.33340937 0.4046179 0.20918953 -0.12064831 -0.15169634 -0.2916873 -0.13144349 -0.02581711 -0.062594555 -0.24313577 0.20298284 -0.11370136 0.003042929 0.22538136 0.010673885 0.02133923 -0.18394394 0.019265192 0.07861405 0.21855175 0.12755899 -0.04708719 -0.004043565 0.17335851 -0.029298978 -0.0317478 -0.07825062 -0.00869937 -0.26642382 0.29575157 0.20401333 0.09435771 -0.34236357 -0.023242671 0.14918989 0.18078884 -0.030552901 -0.0052732923 0.16620912 -0.051028505 0.31791443 0.20996258 -0.015615513 0.15876198 -0.16289017 0.023834107 0.12980649 0.0665034 
B001LNN30E	-0.053713404 0.094901815 -0.099475324 -0.05646748 0.06819315 0.20490474 0.28440782 -0.051915415 -0.016930405 0.0064050867 -0.13839325 -0.30118296 0.13520733 0.32734233 -0.15491652 0.2821926 0.19677171 0.125229 -0.15730439 -0.04502212 -0.100555815 0.025998883 0.03131813 -0.057861935 0.08397308 0.11901854 0.117738605 0.1506857 0.07231701 -0.022959981 -0.02391096 0.073889345 -0.085759744 -0.08286137 0.3703375 -0.2264768 0.22377518 0.041476652 0.097734176 -0.10386131 0.014339456 -0.08184462 -0.13867538 0.00125255 -0.005623513 0.08873531 -0.10337396 -0.09329034 0.1545834 0.1689795 -0.059323113 0.27028313 -0.21269092 0.25746608 0.07449877 -0.03178982 0.033020884 -0.21093681 -0.10574852 0.18347217 -0.23269932 0.1721691 -0.22138034 0.011100994 -0.10828085 0.21651666 0.023857918 0.03232829 -0.082326874 -0.12913643 -0.17003524 -0.15659112 -0.104792446 -0.05125463 0.08114792 0.019500053 0.09919499 0.25223964 -0.06620811 0.012692098 -0.13613059 -0.04631753 -0.12649253 -0.077122815 -0.14774314 -0.08681203 0.18596382 0.09537972 -0.10827521 -0.20437434 0.24748924 0.12139811 0.013907452 -0.08819246 -0.09653934 0.13140814 -0.0015359542 0.18632469 0.06678273 0.06052488 -0.008902369 0.0070745437 0.15729909 -0.06012603 -0.116539784 0.018952755 -0.058869228 -0.08891885 0.35174188 0.26271886 -0.24411704 -0.07579501 0.07297993 -0.17557277 -0.12917995 -0.03364956 -0.065346494 0.17119905 -0.07165806 0.01028027 -0.10103531 -0.14582378 0.021747544 -0.2252705 0.032640487 -0.110526 -0.15420039 0.16571544 
B0002GZM00	-0.18013422 0.17756256 -0.17066117 -0.016245948 -0.050294578 -0.10704797 -0.1236499 -8.510469e-05 -0.28607714 0.101355575 -0.040530935 0.4466761 0.005220842 -0.026674123 0.044411503 -0.696776 -1.3955518 0.028220344 -0.018175704 -0.14072876 0.068836056 -0.44525203 -0.09287764 -0.76653355 0.31765163 -0.17098269 -0.7328045 -0.28171542 0.45445275 0.42797592 0.059232056 0.79810447 -0.07589001 -0.088985115 -0.2777078 0.54692453 -0.06302062 -0.0393257 0.2188716 -0.14350496 0.21268761 0.4987909 -0.30219322 0.34384048 0.26094863 0.44183755 -0.18651912 0.029196044 -0.21924485 -0.0026502926 0.878818 0.25128573 0.13860089 -0.05688234 0.610308 0.043318097 -0.3167517 0.04350005 -0.059941623 -0.17566521 -0.32976353 0.2879473 0.11332925 0.1709259 0.24044521 -0.044252977 0.16669554 -0.1914152 0.18297428 -0.1661184 -0.6396459 -0.07146835 -0.00057192094 -0.36560056 -0.1602479 0.4164518 -0.10907669 -0.043199793 -0.39277917 0.41924658 0.20718582 0.012693445 -0.548189 0.4211149 -0.03842534 0.020638209 -0.45557097 0.28105533 -0.24546488 0.014917766 -0.51104254 -0.116811275 -0.11595191 -0.36433312 -0.0009092105 -0.17984065 0.024662647 0.086823694 -0.46260288 -0.26450342 -0.4532314 0.40365827 0.13738477 -0.12184686 -0.14145166 0.7059284 -0.13984293 0.44284227 -0.09836007 0.011123554 -0.20427878 -0.09416745 -1.0196434 0.72765905 0.4095269 0.32273293 -0.054350592 -0.31840768 -0.176723 -0.42136085 0.11413522 0.18147647 -0.119935594 -0.18359344 0.1605017 0.11592299 -0.38761312 -0.009204636 
B001C74GLY	-0.0871948 0.13332692 -0.16255155 0.06745023 -0.26054743 0.13658647 0.14152035 -0.0034200337 0.0622835 -0.09087524 -0.06197314 -0.25052863 0.22457159 0.22914481 0.0029154157 -0.0063112616 0.29120913 -0.013232012 -0.09908506 0.1363779 0.07803232 -0.03677449 0.008213743 0.057646636 0.16751136 0.25931293 0.4086188 0.118834026 0.2825886 -0.048115097 -0.03127444 -0.19501573 -0.093941085 0.41320014 0.12990434 -0.07321584 0.30648834 -0.13640818 -0.12602259 0.04478642 -0.096961915 0.26351586 0.055946153 -0.035557743 0.10102114 -0.03685321 0.055446655 0.004936715 0.26483023 0.105143815 0.12560658 -0.0036122606 -0.36733872 -0.070490845 -0.009121939 -0.0024144063 0.0034646813 -0.021586273 -0.19432229 0.25403625 -0.33524427 0.08861924 -0.16456409 0.023484537 0.07961965 0.1389745 -0.074815385 -0.050732467 -0.15256694 -0.01797516 -0.21551919 -0.24052443 -0.23229259 0.2871839 0.16586843 0.04832266 0.19651078 0.22595987 -0.16745445 0.022679983 -0.16463536 0.07379302 -0.17341205 0.021102047 0.12246298 -0.5308089 -0.057574514 -0.18233547 -0.15255913 -0.0323594 0.24378198 -0.03649636 -0.03591407 -0.25457653 0.19973546 0.18927822 -0.1910299 -0.00038033896 0.011992718 -0.15485322 0.010112744 0.033168036 -0.18347238 0.06602565 -0.09420569 -0.09228634 0.020262588 -0.015907887 0.44630623 0.18680151 -0.0053069247 -0.036665205 -0.33122337 -0.08162325 -0.20008501 0.3550225 0.19770265 -0.11237712 -0.057307802 -0.08154468 -0.012213506 -0.09808037 0.21798742 -0.00061200745 -0.16019553 -0.15755168 -0.2544518 -0.06883294 
B003FO6E6M	-0.04901173 0.4356651 -0.03201786 -0.092871554 0.033165954 -0.04977322 0.173894 0.0574004 -0.18070441 -0.0207684 0.082495816 0.047817886 0.26116747 0.22928478 -0.03157793 0.010641665 0.18415734 0.076770164 -0.072564766 -0.044735573 0.17481837 -0.17701958 -0.043932788 -0.09592862 0.35318214 0.25274873 0.14643171 0.15324117 0.37001398 -0.1304675 0.018827705 -0.021924771 -0.1296475 0.4666055 0.24091697 -0.08082162 0.30153036 -0.35485688 -0.28727716 -0.08389916 0.152106 0.13507712 0.101007216 -0.100803256 0.10986773 0.099985175 0.25425434 0.1984313 0.23291326 0.035163872 0.08977592 0.022655345 -0.22876294 0.029365225 0.3869602 -0.11970357 0.118977375 -0.076724194 -0.14150347 0.27193022 -0.011589711 0.40606803 -0.1788183 0.30941603 0.005310855 0.28944057 -0.010594704 -0.14201608 -0.10769146 -0.14788964 -0.08151746 -0.29564703 -0.21623002 0.23975766 0.2846038 0.059306953 0.05259088 0.16107301 -0.33901453 -0.06338604 -0.15427916 -0.194724 -0.5704636 0.18252088 0.11905979 -0.18993482 0.022272816 0.08262926 -0.0319573 -0.012755105 0.085524864 -0.2036996 0.082665496 -0.54112124 0.16293156 0.1908633 0.19279005 0.21410666 0.040591847 0.12977843 -0.0006538276 0.3574894 0.24029703 0.042518675 -0.1751055 0.013437344 -0.08569299 0.17602888 0.18501438 -0.04287225 -0.19901489 -0.20369244 0.123001516 0.040187657 -0.22554182 0.34946987 0.14941168 -0.23461883 0.013584754 -0.11193836 0.032919034 0.08420241 0.021251561 -0.2537364 0.18616968 -0.12710689 -0.20247597 -0.12003108 
B001FQ74FW	0.13180545 0.08481264 0.0993785 0.120501876 -0.06566218 0.20614164 0.22012949 -0.024100019 0.16793354 0.18277316 -0.09198672 -0.0652258 -0.07990344 0.17848518 -0.1480929 -0.019391375 0.3169652 -0.02909068 -0.021116808 0.045814507 -0.0032521328 -0.10522163 -0.02233342 0.12793112 0.07882871 0.06626328 0.084564075 0.04619607 0.067801036 -0.16156597 -0.046190903 -0.29064912 -0.34769472 0.09902908 0.0076252604 -0.06653254 -0.008259117 0.13224213 0.049712557 -0.16795893 -0.13509727 -0.027890377 0.04197843 -0.16280441 -0.1647326 0.14616404 0.059760585 0.083590955 0.297186 0.037702125 0.041776434 0.015361389 -0.46049702 0.111770116 -0.13866125 -0.015551863 0.008535382 -0.15878813 0.010777806 0.05819048 -0.18717174 -0.08591233 -0.15336305 -0.024166182 0.017686356 -0.036975287 -0.14157535 -0.10268473 -0.12155979 -0.048117056 -0.2230167 0.011693558 -0.07781261 0.02617677 -0.08052067 0.08810332 0.05005999 0.23315285 -0.19174586 0.22293366 -0.1763688 -0.067389116 0.20816144 0.013782389 -0.05865862 -0.17382143 -0.17781433 -0.07288673 -0.17524691 0.11152448 0.22590737 -0.076040424 -0.045936868 0.05526567 -0.15690275 0.07398875 -0.11952219 0.15549347 -0.10557034 0.39335322 0.033932135 0.0582418 0.22412631 -0.089490324 -0.13887322 -0.0053644725 -0.011040426 -0.004341291 0.17602636 0.13231441 0.017256852 -0.026877552 -0.19131084 -0.054358795 -0.28590196 0.15342493 -0.013134556 -0.035596196 0.15932064 -0.063990794 0.28214982 0.052018866 0.10490957 0.12966157 0.03563657 -0.04610826 0.015234769 0.017424343 
B00135HFK4	0.118595965 -0.14490934 0.12736759 0.31480455 -0.1123489 0.20983683 0.14995927 -0.09885843 0.39089584 0.18431783 -0.013243487 -0.053725913 -0.113367334 -0.050863016 -0.096530646 -0.06386291 0.25928792 -0.0039056388 -0.087570935 0.10643353 -0.01942605 -0.0911917 -0.10669299 0.16870202 -0.08149221 -0.009981246 0.2135577 -0.14463265 0.12368661 -0.2112487 0.0035453674 -0.21335134 -0.24174681 -0.020108793 -0.09010985 -0.123154886 -0.07638715 0.08864632 0.17847458 0.12419639 -0.2711097 -0.021485731 0.0813108 -0.16292503 -0.069303036 0.060989663 0.14981796 0.14425403 0.2526985 0.15361461 -0.054068454 0.03455563 -0.36900532 -0.07022033 -0.3018687 0.14568044 0.0063465484 -0.048227612 0.0024279365 0.11564338 -0.19000588 -0.14694692 -0.13166854 -0.20774117 -0.02135891 -0.07462175 -0.1449391 0.007994992 0.05908289 -0.06139827 0.0069197146 0.00075757084 -0.053457763 -0.07529677 -0.1665209 0.0022880305 0.0030348361 0.25007227 -0.12773658 -0.025014061 -0.19041938 0.20447508 0.2632251 -0.054110233 0.023694558 -0.37355363 -0.07942231 -0.085999906 -0.08835989 -0.15724859 0.2855712 -0.1288835 -0.08263196 0.115142696 -0.06194422 0.092777595 -0.17173058 0.113972306 -0.04222755 0.21701787 0.053883314 -0.14699194 0.12967099 0.05612503 -0.10212101 -0.12068319 0.0747414 -0.049692705 -0.02089759 0.26509285 0.1768465 0.027373103 -0.3202488 -0.0791164 -0.009029481 0.227049 -0.001912689 0.0016412236 0.19316949 -0.05176205 0.07457331 0.057371568 0.027700175 0.111810625 -0.16721016 0.052359853 0.004557757 0.10608304 
B007Q28BHE	-0.289196 0.4165537 -0.22825433 -0.19989069 0.010399958 -0.4977741 -0.08705403 0.35100958 0.4646362 0.33496624 -0.010202163 0.62545 0.1715339 0.70361084 0.05401211 -0.68158185 -0.6860267 -0.40231007 -0.04624992 0.02703707 0.05876516 -0.3959338 -0.22600824 -0.9089774 0.24182841 0.28563654 -0.36704993 0.6690782 0.24820477 0.048634887 -0.1085076 0.43770394 -0.27411056 0.064278714 0.32406563 0.08494064 0.37507975 -0.24219967 -0.2905815 -0.58416265 -0.3645309 -0.06093729 -0.31290132 0.04564242 -0.35866305 0.51033235 0.033765327 0.104004666 -0.3671932 0.024040252 0.5051238 -0.41458845 0.25520545 0.10405886 -0.22375236 -0.7402369 -0.05250353 -0.30595973 -0.25039482 -0.38670698 -0.36137182 1.0777398 -0.044014633 -0.20414214 0.34473652 0.18999201 0.029570665 0.6286771 0.30997935 -0.4095552 -0.78456056 -0.062242813 -0.30450368 0.48933548 0.11234506 0.30965498 -0.49645418 0.526954 -0.39597237 0.9591392 -0.40551832 -0.020245958 -0.6351036 -0.078789815 -0.13677245 -0.20481993 -0.4752176 0.13678478 -0.45388597 0.34120148 0.4453958 -0.22213936 0.14229237 -0.12349065 0.7550088 -0.08712757 -0.3568561 0.26409918 -0.1577758 -0.08429923 0.11820844 0.54092187 -0.2575569 0.32868874 0.2890874 0.5724866 -0.14742312 0.25134343 0.6981792 0.44802684 -0.06426859 0.33917594 -0.9915459 0.08872659 0.61508787 0.42152935 0.077431336 -0.7982839 0.27698842 -0.74043995 0.20415801 0.32913148 0.54337 -0.0014169319 0.08750923 -0.15556583 -0.13990077 -0.28300422 
B0002E1I2I	0.10973071 -0.39136592 0.09875216 0.13277552 -0.27441767 0.26839572 -0.0687636 0.0768475 0.4892419 0.07154571 0.0017202985 0.27233946 -0.07902104 -0.23789407 -0.021748098 -0.3131057 0.118293405 -0.17025809 0.17502996 0.22149558 0.04760362 -0.22481623 0.12236173 0.09849115 -0.15912113 0.028592918 0.31805804 -0.41050076 0.084010884 0.04107457 -0.121394135 -0.20675348 -0.25253427 0.023690747 -0.4724675 0.19990198 -0.13330624 0.29408824 0.08964153 0.02206674 -0.0967989 0.29906243 -0.123893686 -0.38431364 0.029804891 -0.08058229 0.011546722 0.048483524 -0.026297992 0.2083716 0.23799096 0.059899997 -0.29423797 -0.4312769 -0.22979116 0.14669897 -0.0344805 0.034204926 -0.12389849 0.15318044 -0.18894173 -0.30932373 0.015868014 -0.39107013 -0.07104385 -0.37067336 0.013784557 0.092281915 0.011283235 0.10184533 0.045458358 0.068433344 0.07783832 0.21356519 -0.25380343 -0.060483675 0.043611642 0.0402563 -0.074651666 0.15496159 0.069560066 0.36772117 0.7237286 0.08167869 0.1372635 -0.4507295 -0.3758531 -0.239363 -0.2077375 0.24906477 -0.000591079 -0.12683368 -0.3101825 0.1605394 -0.025983723 0.17932507 -0.57005847 -0.40518993 -0.2564829 0.032445733 -0.09496019 -0.14582367 -0.36003655 0.34795603 -0.12315853 -0.057757095 0.030998407 0.15453969 -0.023887826 0.3632532 0.39715248 0.115911216 -0.48814058 -0.043263044 -0.07014593 0.26166964 -0.060934883 -0.104657516 0.16030903 -0.20080298 0.009804283 0.3007795 0.10325796 0.33530548 -0.29522347 0.063806534 -0.14659655 0.111711 
B000KIRT38	-0.06291009 0.4198212 0.05962929 -0.042833798 -0.011003705 -0.22307809 -0.011192169 -0.0870594 -0.15928778 0.2642613 -0.07778288 0.46796432 0.0048356308 0.29082346 -0.03728835 -0.33778453 -0.5055722 -0.103591435 0.10312045 -0.14399435 0.2579794 -0.5087132 0.14123176 -0.2312772 0.407814 -0.017063463 -0.11321514 0.5171398 0.23721445 0.17564796 0.1730912 -0.06250985 -0.33837762 0.28073162 0.033431675 0.21338929 0.13072608 -0.123016834 -0.28380013 -0.34555638 -0.0495983 0.2149981 -0.17088017 0.05364167 -0.21780254 -0.012673347 -0.09773235 0.15508415 0.013421621 -0.06696419 0.3658956 -0.11630524 -0.25235006 0.12302753 0.4195033 -0.38651532 -0.2569148 -0.34808213 0.015267121 -0.15792413 -0.10038125 0.37979075 0.3043718 0.48806688 0.1746702 0.06560993 -0.057763506 -0.10466955 0.020186339 0.096739024 -0.36832428 0.02728861 -0.25087297 0.24769752 0.08148881 0.31679678 0.043082144 -0.039123923 -0.23568702 0.5447359 -0.07556757 -0.23251215 -0.19053663 0.21191601 -0.15687832 -0.06394241 -0.4584565 0.060347687 -0.23663667 0.31030077 0.08492738 -0.18556339 0.21574336 -0.19750232 0.022274654 0.07131718 0.0032533214 0.033829827 -0.02157226 0.33155194 0.09560976 0.53183585 0.05167208 0.00017764731 -0.22940814 0.28184524 -0.23140544 0.2810431 0.1931932 0.050626725 -0.14723773 0.011178772 -0.36366323 0.2986827 -0.22619003 0.19548126 -0.010074102 -0.3841005 0.027291752 -0.26106402 0.33418664 0.34185186 0.063439816 -0.10103993 0.40184367 -0.13203986 0.08131477 -0.19397041 
B0002GXF8Q	0.01125509 0.24282019 0.44200245 0.61283904 0.21858902 -0.08606759 0.3617469 0.14318739 0.09325681 0.18523268 -0.17623185 -0.42069176 -0.23132774 0.57445484 0.07358041 0.012127074 0.07162159 0.08849546 -0.16915238 0.012920849 -0.23020513 -0.006160824 0.44472083 -0.0008825241 0.3202277 0.13174647 0.32401022 0.8359638 0.03137321 0.22701295 0.13925485 -0.14628683 -0.16805774 0.1576507 0.25870603 -0.5122401 0.22115971 0.3314904 0.025312742 -0.73363006 0.11447955 0.13332212 -0.17720023 0.006854575 -0.52760434 -0.09678849 -0.52978104 0.2623731 0.4464972 0.03824141 -0.26866344 0.2610174 -0.22754997 0.32740363 0.21744835 -0.37154904 -0.50283796 -0.19425091 -0.044928145 -0.26782364 -0.28483245 -0.4739464 0.092401884 0.3512249 -0.10971983 0.30346143 -0.21650018 0.13445792 0.16884704 0.5703205 -0.23930061 -0.28679729 -0.48527303 0.05817493 -0.2995034 0.3859165 0.43077666 0.18501802 0.013820903 0.27648774 -0.19996993 0.2700949 -0.010622664 0.29581338 0.32314408 0.22328603 -0.22087127 0.42919382 -0.23729385 -0.018147046 0.16528343 0.1556996 0.47820026 0.253565 -0.23485711 0.25973123 0.00061738276 0.12327868 -0.36028448 0.19522804 0.277892 -0.25584537 0.057997983 -0.39644822 0.068494946 0.2753271 -0.53986824 -0.23686221 0.67865616 0.07665439 -0.64928 -0.2680555 -0.16242222 -0.29880217 -0.5311667 -0.1531059 -0.1934992 0.34438607 -0.32191995 -0.08118488 -0.09302386 -0.17760186 0.3609483 -0.2166492 0.122397766 -0.4158732 0.5043304 0.22243004 
B0002Z2D08	-0.08954068 -0.19440134 0.08940132 0.050168835 -0.10180968 0.27383146 0.2744395 0.2837829 0.15185173 -0.19960882 -0.054198887 -0.22442548 0.25041866 0.13904567 -0.035539843 0.033332188 0.69904107 0.053879622 -0.038803607 0.06351698 0.2276592 0.090372644 0.25847864 0.0009773081 -0.025303898 0.23424666 0.66794235 -0.000358358 0.059575718 -0.22058395 -0.1189343 -0.2620995 0.0057971077 0.28207457 -0.07502649 -0.056442637 0.14707305 0.24840432 -0.34192717 -0.16226707 0.14068681 0.3364801 -0.05369306 -0.4256375 0.12764384 -0.0848942 0.0015144704 -0.03203007 0.12651546 0.058919195 -0.03296445 0.17878307 -0.32546923 -0.3314791 0.17701948 0.02155462 0.118663885 0.15559633 -0.38745776 0.39141998 -0.023838904 -0.38318893 -0.2688254 -0.13842064 -0.22208285 -0.087464795 -0.11744436 -0.13738427 -0.2905454 0.31314385 0.3118568 -0.3106513 0.015330901 0.5231902 -0.18540612 -0.0637351 0.14405695 0.07308325 -0.050079122 -0.0195401 0.17264535 0.064636275 0.3035979 0.25262308 0.26449558 -0.31442374 0.054526594 -0.10207691 -0.19143899 0.13587554 0.022370972 -0.003776146 -0.09840389 0.07508209 0.074457936 0.36958286 -0.320545 -0.16724616 -0.21834432 -0.1526876 -0.12273643 -0.080168486 -0.2755878 0.09750659 -0.35037026 0.008578905 -0.044796266 0.14516146 0.30494606 0.13718392 0.01189881 -0.17606056 -0.05005705 -0.40789482 -0.434123 0.17173976 0.115840815 0.08428662 -0.07825596 -0.14031085 -0.267437 -0.04372589 0.20683494 -0.050743256 -0.28018364 -0.32189324 -0.31282702 0.04028704 
B0002H0H4A	-0.05605268 0.13398403 0.3616838 0.30259082 0.2396231 0.33877152 0.3457214 -0.020973723 -0.25836465 0.42003363 -0.0874898 -0.1605221 -0.45666984 0.43741986 0.026144218 -0.05378935 -0.34443676 0.32045355 -0.032546945 -0.33298424 -0.16762565 0.17444819 0.4819861 -0.004568712 0.17772746 -0.28558567 0.2114986 0.5025776 0.05868604 0.544726 0.5085107 -0.107852 -0.3362755 -0.12779646 0.2918493 -0.28323016 0.020398906 0.05225137 0.17070307 -0.6571172 0.23692259 0.037070405 -0.32714275 -0.0545514 -0.32615605 -0.06170242 -0.34142002 0.38486463 0.17827767 -0.080304205 -0.13286747 0.2474003 -0.0875714 0.4000619 0.2577655 -0.14978059 -0.42324463 -0.33991647 -0.061385073 -0.28590044 0.101861686 -0.41809148 0.31353006 0.37777314 -0.24369355 -0.055025414 -0.31981412 0.060188908 0.025050076 0.43327805 -0.14895894 -0.4074277 -0.17319784 -0.1977551 -0.063666835 0.7101204 0.42106396 -0.07073716 -0.023353584 0.13630392 -0.04494708 0.14049803 0.06924774 0.35849735 -0.12165417 0.13640328 -0.066641614 0.30896765 0.010957315 -0.28498057 0.014687073 0.06661356 0.56700313 0.20455876 -0.42244995 0.20124255 -0.082263604 0.11404901 -0.29014114 0.3367579 0.31073692 -0.18899675 -0.1398536 -0.26845 0.009315589 0.16220309 -0.7955637 0.19209942 -0.13764103 -0.14236619 -0.41595748 -0.3651315 0.079746515 -0.2375189 -0.46741772 -0.22053093 -0.4024025 0.3534388 -0.30514848 0.07708025 0.32831156 0.037911534 0.04207826 -0.13056958 0.352739 -0.44380483 0.43991983 0.4047193 
B000J5Y282	-0.1727846 0.38579142 -0.013415159 0.15824533 0.04054949 -0.17154838 0.0417877 -0.0460512 -0.2908462 0.24420354 -0.3663808 0.06681177 0.004472775 0.5354907 -0.03394806 0.07781745 -0.45620808 -0.09402667 0.019739393 -0.16519979 0.107110575 -0.33340225 0.4784092 -0.042031784 0.41783702 0.06891856 0.15923382 0.9199941 0.041722856 0.23095858 0.17682199 -0.23623097 -0.23874098 0.183227 0.1264343 -0.38407385 0.12613305 0.0600081 -0.21241553 -0.52225477 -0.09900339 0.097749256 -0.1641538 0.15336901 -0.59642994 -0.15920904 -0.48047334 0.053637616 0.19892867 -0.11945281 0.086653434 -0.102777004 -0.33347663 0.20221762 0.34340414 -0.53108335 -0.29962137 -0.27294096 0.032853503 -0.19706762 -0.41214553 0.08478843 0.3925872 0.59029263 0.16567531 0.21090733 -0.09654577 -0.14387912 -0.0115231 0.2887015 -0.5020058 0.064833395 -0.43609312 0.29836932 -0.07515325 0.2688731 0.22180276 -0.17674907 -0.0124343475 0.5764749 -0.0819694 -0.26262656 -0.09351173 0.36076948 0.13492274 0.120999664 -0.38009706 0.13911277 -0.1650393 0.38890374 0.13865136 -0.027266245 0.5198192 -0.0260228 -0.12044242 0.15559967 0.002309854 0.06822128 -0.05759477 0.15075257 0.25526357 0.16814187 -0.16689016 -0.088845365 -0.16741404 0.08736173 -0.36662838 0.083822064 0.69563824 -0.080644034 -0.41258308 -0.0924287 -0.21914355 0.05283642 -0.5432832 -0.15250844 -0.21325272 -0.061098147 -0.18223038 -0.103405334 -0.059492026 -0.06642864 0.16418487 -0.38540956 0.35616907 -0.35805586 0.3107629 -0.13361722 
B001BY4RQM	-0.060126603 0.1762444 0.2483515 0.07398992 -0.0052866535 0.10287994 0.19142175 0.11420093 0.10637867 0.069533944 0.052360713 -0.05488716 0.10059664 0.15960522 -0.12659921 -0.060900915 0.057664827 0.06683057 0.0026403207 -0.07999468 0.09668875 -0.14238085 0.12587492 -0.07205757 0.18850671 0.095708124 0.14362274 0.18480788 0.17272542 -0.04015395 0.05727532 -0.022791415 -0.14113402 0.11345362 0.12217881 -0.050108373 0.13642362 -0.041555237 -0.03088477 -0.17022444 0.071541734 0.14416379 -0.12900163 -0.108303845 -0.033514142 0.052683283 -0.027117549 0.10423567 0.10802692 0.0621846 0.11066461 0.21313013 -0.16930616 0.022690775 0.19766814 -0.02903467 -0.07142264 -0.13417435 -0.14399147 0.03762285 -0.114741996 0.022939831 -0.16518699 0.071199 -0.0941187 0.08522101 -0.14311099 -0.045718893 -0.011484312 0.15950523 -0.122851774 -0.21595357 -0.1492143 0.12179963 -0.048076518 0.2185961 0.15823464 0.15923432 -0.14342381 0.04695065 -0.10963144 0.082943335 -0.1105506 0.113525234 -0.020670723 -0.11253473 -0.1091647 0.07568169 -0.14129736 0.0156103745 0.0490164 -0.07545835 0.055769853 -0.05902943 -0.070361175 0.1544695 -0.09832471 0.056574244 -0.042556457 0.16377527 0.06830592 0.12175031 0.059716716 0.023458544 -0.113459155 0.14302738 -0.2089071 0.10522087 0.15234175 0.1047781 -0.14280413 -0.087689094 -0.1258348 -0.07236808 -0.21861306 0.15715945 -0.008177239 -0.04914216 -0.05856867 -0.15070538 0.1117361 0.06895595 0.12828246 -0.098890744 0.06618502 -0.21554354 -0.0594403 0.022412965 
B002433RXI	0.06434066 0.05808751 0.0848622 0.055457946 -0.042552225 0.20355448 0.21413422 0.15436395 0.13175668 -0.10541536 -0.015988858 -0.17985575 0.19964048 0.116884865 -0.09957838 0.11038001 0.4509625 0.07690073 0.0009129698 0.054538973 0.040410068 -0.005693446 0.077898644 0.04894011 0.11864034 0.17927507 0.29836544 0.0013729233 0.11045551 -0.18822 -0.16383626 -0.18821706 -0.09610749 0.18684101 0.009490007 -0.06726027 0.116540745 0.10711766 -0.08580853 -0.09619625 0.0835855 0.13683404 -0.0016166784 -0.24679273 0.09704143 0.012015005 -0.00017249178 0.055940703 0.17406388 0.08022871 -0.008327706 0.19620855 -0.31475496 -0.094496325 0.113894686 0.06522209 0.08749334 0.042970754 -0.21940796 0.26761997 -0.11245059 -0.12638453 -0.28211656 -0.061556034 -0.17287086 0.063805334 -0.09412924 -0.11673976 -0.22946894 0.074516155 0.043015577 -0.18577915 -0.07166204 0.22425292 -0.042234007 -0.060749758 0.12352725 0.13096057 -0.15626173 -0.033247337 -0.05481866 -0.017100204 0.042306177 0.11996231 0.14524625 -0.18886012 0.04949129 -0.026949577 -0.12659179 0.06601141 0.025075695 -0.0075881896 -0.09009331 -0.08124968 -0.06263988 0.2350851 -0.07911948 -0.031951927 -0.14129333 0.054503962 -0.073363625 -0.0069922875 0.07671845 -0.05230499 -0.1679682 -0.0066328025 -0.031896133 0.019853834 0.26331705 0.06233326 -0.01739681 -0.11861445 -0.041578934 -0.15254623 -0.3317302 0.22617672 0.08016486 0.027179293 -0.061794065 -0.08801281 -0.031461585 -0.09105873 0.08357943 -0.10011469 -0.069082156 -0.22751372 -0.23160651 0.02782252 
B000SAC5PA	0.002440313 0.040758055 0.16191998 0.055878438 0.0016689572 0.22371273 0.2606583 0.08333139 0.1712552 0.015481546 0.0884778 -0.16195555 0.11979241 0.06791828 -0.17155872 0.08493856 0.3418539 0.12593676 0.002882341 -0.0051707374 0.001014724 -0.04400116 0.058238357 0.040531453 0.09355812 0.096817605 0.18355834 -0.038692296 0.071323976 -0.17412113 -0.02963203 -0.050745416 -0.13382742 0.06426249 0.1041982 -0.120168135 0.073329054 0.01706512 0.087137856 -0.00861937 0.07293534 0.07160021 -0.06642702 -0.19222075 0.11146604 0.062075492 0.003518649 0.04908214 0.1360671 0.14798427 -0.02162816 0.29815766 -0.18295446 0.0016581571 0.028158767 0.16429815 0.0360518 -0.09079942 -0.1194921 0.18283437 -0.0795488 -0.07915533 -0.3355224 -0.09170373 -0.1465001 0.0711072 -0.119484425 -0.034848154 -0.057529308 0.05436432 0.03210402 -0.18952657 -0.028871033 -0.014962218 -0.038069405 0.058346372 0.10390481 0.2371694 -0.11232474 -0.11776225 -0.15257165 0.11783048 -0.001522117 -0.009668313 -0.030775217 -0.13195458 0.06286576 0.017842904 -0.071510136 -0.094402485 0.044785332 -0.019741433 -0.08757781 -0.00801569 -0.06647617 0.1389939 -0.06715276 0.03522364 -0.05428016 0.112405464 -0.03894268 0.024396425 0.14497213 0.017458538 -0.15375018 0.011433802 -0.08535938 -0.021479102 0.055558078 0.13738365 -0.038017485 -0.07476582 0.018286975 -0.13672672 -0.16247916 0.15284176 -0.01074481 0.06859862 -0.024941703 -0.077483155 0.04385397 -0.045896024 0.07906696 -0.06752706 -0.06994408 -0.13015175 -0.12862259 0.117555335 
B0002E1J5E	0.26050857 -0.00400294 -0.11961629 0.17207147 -0.16448867 0.25885904 0.1803706 -0.18009786 0.34492 0.47049427 -0.20293544 0.0553719 -0.2933297 0.13745338 -0.12306166 -0.16131754 0.38108653 -0.22143613 -0.06893964 0.067376986 -0.053517222 -0.079451926 -0.10722256 0.30284032 -0.08144549 0.057776093 0.039274167 -0.07757409 0.011498207 -0.20181917 -0.16877124 -0.5401159 -0.63880223 0.20875305 -0.06106774 0.03440106 -0.17731798 0.24631673 0.007981 -0.2610741 -0.41691092 -0.2118451 0.045385543 -0.18431288 -0.32027027 0.22332908 0.21059494 0.10252408 0.42045835 0.050482918 0.10503566 -0.40392885 -0.65958416 0.19862947 -0.57383925 -0.12261105 -0.032244913 -0.23467866 0.20707744 -0.003817353 -0.29314384 -0.011721473 -0.009395481 -0.18217118 0.25670695 -0.29853576 -0.16637209 -0.036923382 -0.055327866 -0.40167144 -0.36100823 0.26453197 0.04641961 0.042289026 -0.08858157 0.0059618396 -0.00755286 0.3365755 -0.24548277 0.50994384 -0.24958502 -0.13700739 0.49177438 -0.087736875 -0.124807976 -0.32656687 -0.34353697 -0.27205893 -0.27312663 0.25519842 0.49692458 -0.07644909 -0.09175833 0.19706759 0.013442232 -0.055015698 -0.17837308 0.22704852 -0.059332974 0.534308 0.05291929 0.06713754 0.21209633 -0.09535707 -0.07308153 -0.047904458 0.16477357 -0.049315847 0.15467651 0.26200098 0.15674376 0.049743623 -0.4188967 0.020531246 -0.26065093 0.10122851 -0.03138457 -0.14396288 0.42558324 0.0021172173 0.64435494 0.0788718 0.12614323 0.4157218 -0.041772567 0.13770203 0.09996213 0.014230598 
B002HPMTZU	-0.106406525 -0.046918944 0.16776338 0.09979293 -0.09184628 0.31471017 0.13946988 0.123532 0.15176211 0.12963142 0.18008192 -0.14340295 0.080264784 -0.16075575 -0.11093796 -0.20029414 0.13357617 0.0023740446 0.14158103 0.087504484 0.021672813 0.058683187 0.044872716 0.003739001 -0.068543546 0.03994914 -0.17786919 -0.38959113 0.119049214 -0.15286782 -0.17501114 0.0668594 -0.054635666 -0.029100748 -0.22368187 -0.09653131 0.007973243 -0.034843616 0.49891847 0.0879915 0.19836055 0.15359645 0.100472726 -0.14091834 0.31203982 0.3386037 -0.09826983 0.034551468 0.10018928 0.07500666 0.24837682 0.24363351 0.032343056 -0.18170013 -0.29140884 0.58536965 0.06334774 0.23106521 0.12679717 -0.0051408564 -0.07929374 -0.24773099 -0.34382126 -0.17044297 -0.033885222 -0.090493344 -0.16661495 -0.029988809 0.28296816 -0.22208029 -0.16297048 0.031908754 0.16441076 -0.2721804 0.0049723466 0.27330086 0.078814246 0.27041912 -0.1712463 -0.2724023 -0.35556042 0.12998733 0.031229021 -0.096827365 0.05755388 -0.06945563 -0.093603045 -0.10217027 0.06449735 -0.00068407203 -0.2419012 0.11503174 -0.20177825 0.07898133 -0.34710494 -0.051139876 -0.19586138 0.07472069 -0.31779358 0.007474723 -0.3027475 0.15283114 0.2242891 0.0644981 0.08601986 -0.07749201 -0.16530411 0.04832111 -0.22815444 -0.21005046 0.07321404 0.04314565 0.07515255 0.16227953 0.23356782 0.17042105 -0.27264583 0.08922588 0.0073820534 -0.19131994 0.30772457 -0.03235933 0.048098795 0.014152051 -0.3047567 0.29345796 -0.025594756 -0.08092323 
B000ZJTPLG	-0.2916361 0.3290813 -0.17612824 -0.34670764 0.044776104 0.02613771 0.39622155 -0.15752842 -0.23274513 0.31335732 0.273707 -0.03388782 0.2631965 -0.13877967 -0.2659345 0.0857864 -0.08807629 0.25031617 -0.21772677 -0.7522462 -0.16184647 -0.20426722 -0.11918411 -0.01764147 0.05092416 0.35516033 -0.156748 -0.41919327 0.44637054 -0.37454003 -0.017105902 0.4359558 -0.13238081 0.552788 0.42563167 -0.51005536 -0.2980258 -0.74624795 0.2537721 0.2164181 0.19940525 -0.059458025 -0.2209027 0.009176228 0.21551223 0.15352029 0.52158755 -0.06363877 0.07453979 0.448871 0.100811675 -0.06747619 0.36241305 0.11952537 0.11381667 0.13907662 -0.018096864 -0.54841226 0.10074695 0.14199284 0.0169713 0.8419899 -0.67265105 -0.24904577 0.5442375 0.17807904 0.11657096 0.12607117 0.39948705 -0.84268904 -0.14300716 -0.24438308 0.15626657 -0.12902634 0.47183838 -0.0300859 0.03316424 0.56437093 -0.19466755 -0.48472625 -0.48366353 0.12743753 -0.66066486 -0.3276178 -0.048853576 0.04234796 0.22561605 0.091984354 0.1936461 -0.10838629 0.13750686 -0.23079053 0.09400427 -0.49938208 0.6188637 -0.3082615 0.46474618 0.027061306 0.4371656 -0.35226676 0.11151079 0.5216981 0.26362926 0.7502918 -0.22728418 0.035295565 0.02618518 0.3542942 -0.4210615 0.29185498 -0.40357792 -0.103820354 0.5318693 0.31082672 0.5214822 -0.12950481 -0.3918612 -0.098191805 0.21724933 0.319129 -0.100064024 0.05406409 0.03479144 -0.30793875 0.2774556 0.3903799 -0.23242506 0.0879894 
B005IGFGWI	-0.010980349 0.04031996 0.046585876 0.061154023 -0.02794106 0.12505768 0.20271596 0.07809554 0.16035758 0.0456596 0.015962383 -0.07344783 0.15424399 0.10764831 -0.12656492 0.009845625 0.26448005 0.09231209 -0.019411562 -0.05818912 0.019593615 -0.08605774 0.06877083 -0.020491026 0.10251055 0.162654 0.16984008 0.024723295 0.12442928 -0.1431955 -0.15851635 -0.06152927 -0.10412975 0.16897886 0.041882772 -0.08595162 0.05612688 0.06319445 0.009814935 -0.10403157 0.0074723996 0.10797012 -0.14271906 -0.19411159 0.03538003 0.09726677 -0.020132199 0.038027734 0.1434793 0.13738894 0.039004304 0.19369581 -0.20815957 -0.041804876 0.042309295 0.022247858 -0.013382452 -0.10056552 -0.09731104 0.12752713 -0.1925026 -0.02931505 -0.236501 -0.082217626 -0.034909565 0.031011062 -0.041942406 -0.028028388 -0.052335493 0.012453427 -0.0727489 -0.09883838 -0.045499504 0.16290843 -0.02504525 0.036998745 0.08073483 0.19609495 -0.12305616 0.058721088 -0.15188336 0.028648552 0.029770665 0.052769925 0.013306142 -0.18521814 -0.05389569 -0.036906783 -0.13180652 0.06686994 0.06260366 -0.02040457 -0.026660617 -0.010358632 0.03083757 0.16153559 -0.09494084 0.01273271 -0.08454373 0.028066238 -0.047771852 0.06111354 0.036651585 0.043603424 -0.10364341 0.04308459 -0.08348918 0.042914398 0.19287942 0.13019216 -0.027827531 -0.05220866 -0.12532173 -0.074755326 -0.20642401 0.12633976 0.011032693 -0.02052962 0.073368296 -0.05402049 0.044466488 -0.025349818 0.11165416 -0.054917846 -0.020246444 -0.14761336 -0.1258215 0.075573854 
B004PFWYL4	0.04890395 0.15689296 -0.03487052 -0.05053394 -0.018462842 0.19587184 0.28664598 0.009391545 0.06193038 0.006429292 -0.0019813185 -0.27029836 0.13176022 0.21303853 -0.14994422 0.12463288 0.2882333 0.019003747 -0.077859156 -0.08266068 -0.07818433 -0.008560746 0.041203275 0.08414934 0.070060045 0.17675959 0.19049877 0.0796803 0.090102494 -0.1895962 -0.13693923 -0.039435953 -0.13461673 0.18545412 0.2401572 -0.15606402 0.09878799 -0.061034415 0.07871054 -0.0835058 -0.013504106 -0.031910297 -0.08166235 -0.065857105 0.06176941 0.08624626 -0.013699783 -0.047012422 0.17443275 0.15349287 -0.010640605 0.15988572 -0.21150771 0.10787178 -0.013988419 0.027822383 0.025526905 -0.20528568 -0.06148344 0.16711822 -0.27062348 0.16131033 -0.340442 -0.11240151 0.060316358 0.15589531 -0.07676456 -0.0063500227 -0.07585406 -0.15212831 -0.15404001 -0.09025254 -0.05695325 0.022814596 0.09049334 0.014717978 0.10576567 0.30252236 -0.09281908 -0.03452354 -0.20097657 0.02646458 -0.06709585 -0.11304485 -0.045660183 -0.15846452 0.112917826 -0.039559547 -0.09926403 -0.024562506 0.1859492 0.06812651 0.016703187 -0.081407085 0.08295428 0.024731837 -0.013173433 0.07610324 0.1648497 -0.053111825 -0.046519857 0.09033247 0.10481332 0.034079537 -0.09010504 0.00058690767 -0.0116168 -0.055721886 0.27758843 0.24125649 -0.12780535 -0.01552379 0.020570692 -0.09134506 -0.1481741 0.031898253 -0.021321787 0.07322561 0.01477092 -0.013232087 -0.037818246 -0.14144266 0.12507163 -0.043112922 0.002619044 -0.09738592 -0.1959189 0.09530131 
B0002D0E8S	0.40512484 0.19170138 0.07508122 0.053277545 -0.08302302 0.30429557 0.5494113 0.015485851 0.2516495 0.2584741 -0.043341987 -0.20505412 0.0041144523 0.19410191 -0.20117547 0.06621887 0.7314506 0.0066063697 0.09400055 -0.074237406 -0.12609494 0.09228003 -0.063445516 0.28218973 -0.075667895 0.16370358 0.10990216 -0.20393711 0.09601712 -0.50528926 -0.38029492 -0.4943967 -0.5120717 0.56526464 0.023131067 -0.009880832 -0.18151644 0.19591905 0.025943013 -0.39144433 -0.22857054 -0.28626537 -0.046266552 -0.18100213 0.0041482025 0.14240274 0.1303909 -0.08087142 0.345214 0.23069325 -0.02381797 -0.31756327 -0.5116969 0.12892303 -0.2813737 -0.035690784 -0.015319715 -0.2654999 0.16887996 0.0964917 -0.2902271 -0.14146857 -0.3878732 -0.5465358 0.43765354 -0.11338512 -0.39107266 -0.23165488 -0.26761526 -0.24690647 -0.09904384 0.2070069 0.035615206 0.27246743 -0.14054024 -0.15047088 0.16773108 0.39832097 -0.07246109 0.22978054 -0.3652034 -0.08363988 0.4794493 -0.13625635 -0.13364007 -0.19357035 -0.12159423 -0.44457525 -0.16213195 0.44687143 0.35818544 0.11465427 0.024286227 0.26943588 0.14636335 -0.13458198 0.09726301 0.09765134 0.090133816 0.22039191 -0.124824494 0.10875519 0.17989665 -0.16506292 0.012344043 0.027129604 0.22694592 -0.054292604 0.16739133 0.1506725 0.11217158 0.13008386 -0.18046284 0.058102828 -0.47061846 -0.04191423 -0.023250168 0.17059842 0.5169283 0.063230224 0.44792467 -0.16306189 0.21115501 0.529134 -0.22473912 -0.08425335 -0.15835178 0.032275982 
