AJGD0VSCUJUP5	6.791468e-05 -0.0098668 -0.0028829623 -0.0035782233 -0.0068231635 -0.0048126034 -0.00332827 -0.00012169326 0.002770897 -0.004350691 -0.011990639 0.003429989 0.005072296 0.0054335697 -0.004964051 0.005129066 -0.00039808245 -0.00794171 -0.0069750287 0.0004583592 -0.0031750572 2.4540386e-05 -0.00019402763 -0.002010013 -0.0067395293 -0.0013555641 -0.005526898 -0.0021340358 0.0039664633 0.0036922956 -0.0057331007 -0.0009929773 -0.012761354 0.0061025894 -0.001714065 -0.009967734 0.0005722423 0.017564079 0.0043509374 -0.0065286127 -0.0078242235 -0.0015317667 -0.011136456 -0.0024125068 0.002748014 0.0019972122 -0.0020615056 -0.01084583 -0.0029687441 0.0029201743 0.00021500913 0.0072928052 -0.0006173283 -0.0030219026 -0.0064439685 -0.0017266109 -0.0030472646 -0.005399382 0.0004343905 0.0028075092 -0.0019184964 -0.0017720519 -0.0031101836 -0.007848426 -0.0007676576 -0.009135073 -0.0049989047 -0.00937531 -0.012873925 -0.0010362294 0.003187632 0.013203501 0.0037046066 0.003767827 -0.00067947834 0.004969617 -0.0004136216 -0.004660889 0.0011093983 0.0067299367 -0.0020562087 0.005106036 0.0100658825 -0.008395504 -0.009483738 -0.012374058 0.008354672 -0.011332552 -0.009294943 0.0011097369 0.010749599 0.012231808 -0.004578117 -0.0057318327 -0.0026066743 0.000655939 -0.009722786 -0.002738667 0.0062956554 -0.010655349 -0.004096148 0.010560233 -0.003338811 -3.960288e-05 -0.0036176743 0.0013551784 0.00096220884 0.00042733486 0.01620212 0.009226734 0.0072091674 0.00028794323 -0.008816065 -0.001426925 -0.0069113816 -0.007358319 -0.0018671175 0.0038004916 0.0048007844 0.0085604265 0.0005287065 0.0003546403 -0.0027722912 0.0072371583 -0.0064077475 0.0013777561 -0.006153876 0.004062859 
A2158NV89I72OP	0.00014135976 0.0015519466 -0.003448744 -0.004633685 -0.0037784525 -0.0075340723 -0.00545437 0.0064304546 0.0031294308 -0.002354946 -0.0045982837 0.0035739285 0.0062209344 0.00452375 -0.0009462704 -0.00764174 -0.0018285676 -0.003807515 -0.0051039085 0.0028407872 0.0035416386 -0.0097301565 -0.0056982627 -0.0141218165 -0.004431946 0.0010648773 -0.0024929154 0.008978233 0.0006288231 0.0013770344 -0.0025841729 0.005387412 0.00059841253 -0.0014109233 -0.0014362881 0.0016942685 0.007811568 0.0044621234 0.010840474 -0.003016763 -0.0010758151 0.003346267 -0.00810702 0.0063456916 -0.00179666 0.003696352 -0.0019519783 -0.007512035 -0.009553807 -0.00244043 0.0022703882 0.009109505 0.013887154 -0.0010004574 -0.004542103 -0.00069842295 -0.00084614486 -0.0072929915 -0.00023539431 -0.0053332266 0.00013861139 0.0027629798 0.001512871 -0.0008585005 0.0059246696 0.002652273 -0.0073891105 -0.0037532942 -0.0025558537 0.0056038727 -0.0007044061 0.009443953 0.001714021 -0.0017514268 0.0019086589 0.0077575473 -0.008808229 6.395295e-05 0.0038622438 0.0026825268 0.002644972 0.010020128 -0.003598569 -0.009164476 -0.011447225 -0.00096804264 -0.0031039643 -0.002775976 -0.0033304305 0.006060069 0.0005565431 0.0052297986 -0.00106499 -0.0017202622 -0.0045434344 -0.01062121 -0.004495611 0.0046143895 0.0062260064 -0.003643162 -0.0053535732 0.00992803 0.0040106354 9.758577e-05 0.0023969107 0.0059956717 -0.0048375167 -0.0005109597 0.011601345 0.0061262636 -0.0007803116 0.007339895 -0.012392775 0.0017005458 0.0036245547 -0.0030798365 0.0015929012 -0.004990406 0.011830382 0.00024004858 -0.0035612138 0.0006911916 0.007510555 0.0053804014 0.000429195 0.0001766406 0.0011488099 -0.0027617924 
A1NIX2WA2ZKLV7	-0.02465408 -0.028015234 -0.0013935925 0.0023445575 -0.0016662 0.02489265 0.006456788 -0.0076427325 0.020470435 0.0124184145 -0.0033193147 0.0025907082 0.015582196 -0.018082693 -0.0048097293 -0.010547713 0.007344958 0.02831683 -0.036564823 0.009883681 -0.007209629 0.016980944 -0.011772292 3.4374802e-06 -0.0027359056 0.002414028 0.0073305313 -0.043092176 0.026404751 -0.021950629 -0.0030282564 0.009524523 0.01431599 -0.007871105 0.009333443 -0.015268296 -0.030193338 0.0011963974 0.009043434 0.021142432 -0.0044303397 0.040022597 0.0050247735 0.0022844665 0.004954653 -0.0077047087 -0.0040533766 0.017505068 -0.009325689 0.026420766 -0.013748791 -0.021322891 -0.005636662 0.0033333371 -0.0034354078 -0.005531444 -0.0043754433 0.025593672 -0.032592025 0.016424052 -0.01347005 -0.03091183 -0.0026226363 -0.032788128 -0.00036798968 0.0071578883 0.02142428 0.006782376 0.010674299 -0.0024366628 0.000419349 -0.013171858 0.002738402 0.012723921 -0.014866698 -0.03346903 0.03149779 0.01877853 0.0009536561 -0.016023187 0.0051884213 0.01167631 0.012548363 -0.013360521 0.0027836787 0.014404771 0.017038498 0.010533042 0.004832266 -0.010281762 0.015049697 -0.02904719 -0.016366925 0.005560898 0.027247883 0.0023514745 -0.014390127 -0.005264904 0.0014016614 -0.00397279 -0.008937088 -0.061892185 -0.025564253 0.015027392 -0.014552164 -0.0019324024 0.029958006 0.0016950412 -0.027138507 0.027464177 -0.009143776 0.016644388 -0.008666381 0.03179722 0.04540663 0.017736418 -0.006238593 0.012885773 0.020170858 0.0042472 -0.046263747 -0.02123262 0.021063406 -0.021008998 -0.004885686 0.018729327 -0.014141841 0.018523261 
AJK15Q9JOEHRH	0.006961547 0.004579732 0.004031194 -0.033100657 0.0044936775 -0.011251079 -0.010612152 0.024473796 -0.004509112 -0.0061534145 -0.002349757 0.01275393 0.0128582325 -0.004976532 -0.016374063 -0.0066536856 0.014747605 -0.011704062 0.00986931 0.0059695505 0.011131782 -0.020525409 0.010129082 -0.013516663 0.003307728 0.0019347246 0.0106136445 0.013924027 -0.017322157 0.0013720787 -0.005020381 -0.0017541266 -0.0010040047 0.011984644 -9.204021e-05 0.013905679 0.019712206 0.022451788 -0.016332502 -0.0143162925 0.027280375 0.014280814 -0.0043633976 -0.016670143 0.0062774834 -0.0057879076 -0.0050989375 -0.015983235 -0.015402044 -0.0066958424 0.01650288 0.016390732 0.008307804 -0.009358585 0.022477886 -0.0011058962 0.007815476 -0.011575054 -0.012008603 0.003926846 0.012146898 -0.0013906192 -0.01443968 0.011817183 -0.009536884 0.0036337762 -0.0018181631 -0.014536041 -0.020369133 0.021138301 0.00415088 0.00450585 0.008072538 0.018072907 -0.009123102 0.0049756407 0.0065557403 -0.014126023 0.0078223 -0.0019845963 0.015028702 0.0054352484 0.0029584551 0.007868927 -0.012236659 0.015457804 -0.0067985468 -0.005520743 -0.005322208 0.028269367 -0.0050280625 0.00027359687 -0.013820944 -0.019150749 -0.008782433 0.008098754 -0.013375718 -0.011870841 -0.0023312203 0.023683343 -0.0042037107 0.021747738 -0.004559623 0.00072763895 -0.004411667 0.0092721265 -0.008781523 -0.0049517965 0.004381761 0.00922269 -0.008742069 -0.01011475 0.0077508166 -0.009218352 -0.01833021 -0.007284474 0.012672025 -0.009691149 -0.003480243 -0.021872247 0.014673051 0.008622223 0.0028613857 0.0028093848 0.011757505 0.002855301 -0.013965106 -0.003940208 
A1Y8BQ5R1SGGVD	0.0060560247 0.011484557 0.003314002 0.010374335 -0.0016704464 0.0012249151 0.005490653 0.0017091732 -0.012419589 0.0037979514 0.004885482 0.0013023126 -0.006895942 0.0051098447 0.0009459072 0.00033866908 -0.014521436 -0.0015466922 0.007889609 -0.007346769 0.0056260624 0.00121447 0.007910004 -0.0028301596 0.0030569134 -0.0031756582 -0.0034662688 0.0044832733 -7.503775e-05 0.010554882 0.009196624 0.0061710593 -0.0025701798 -0.0061606476 0.0064703138 0.0017349006 -0.0031384826 -0.008546476 0.0042751296 -0.004752146 0.0024878564 -0.007083353 0.0016173954 0.007790755 -0.00088328274 -0.0031751988 -0.0027488177 0.0025055946 -0.00068205845 -0.0054946165 -0.0005395874 -0.011838929 -0.00077031576 0.0029183389 0.004136218 -0.0030767985 -0.004521605 0.0072187097 0.0025254847 -0.007865381 -0.005717729 0.0039879135 0.012598862 0.007212124 0.004494716 0.0019199338 -0.0017167667 0.0045292536 0.0036998761 0.0017759254 -0.0018583634 -0.001701509 -0.006360866 -0.0042073964 0.0040788497 -0.0031382476 0.005025682 -0.009815164 0.0017954312 0.007496664 0.0053794016 -0.0022486406 -0.0031760484 0.009522524 0.0022334727 0.0063135 -0.004269297 0.002772526 -0.00013939885 0.0056304866 -0.008300477 -6.241043e-05 0.014903746 -0.0020089122 -0.0048461817 -0.0040039285 0.012006453 -0.004013775 -0.0014267123 0.0018505923 0.0066685583 -0.0030889383 -0.007989367 -0.00869805 0.005627469 -0.0009938423 -0.0017022821 0.006938629 0.0039977306 -0.0093390355 -0.0037855518 -0.006739244 0.0014378403 -0.0027705333 -0.0005926014 0.0066118054 0.0014108806 0.0074879313 -0.014170567 -0.0033244502 -0.0041601895 0.0050920704 -0.0034825804 0.0069877286 0.0066533717 -0.0051846416 0.0033626703 -0.0020974642 
A34G1GTMQGEDUN	0.008213568 -0.011116231 -0.0043634214 0.002214367 0.0058283764 0.0019916417 -0.008257758 -0.0091220625 0.009815183 0.010545645 -0.007142734 -0.006902134 -0.004217015 -0.008049663 -0.01183385 0.0046960483 0.014122286 -0.0039998423 -0.0017471657 -0.0036584055 -0.008642659 -0.0006590555 0.004926241 0.002188487 -0.004578541 -0.0076623247 0.0012907588 -0.00033290032 -0.002534655 -0.014088602 -0.0031850734 -0.00700152 -0.005486729 -0.00053769967 -0.008246246 -0.0047099725 -0.0016856595 0.014956812 0.00586853 0.011117027 -0.0076719867 -0.0034659503 0.0011598325 -0.008408577 0.0007977091 0.0047746836 0.0024613463 -0.005870424 0.0041007167 0.0026416008 -0.0060664844 0.012948282 0.0014391814 -0.0038181783 -0.01407023 0.010814902 -0.0001431322 -0.01149049 0.007187022 0.0017846971 0.0033319017 -0.0062781116 -0.009584581 -0.009478555 -0.0021487596 -0.0056596627 0.001252016 -0.006145812 -0.002928175 -0.0031087352 0.011520902 0.006128324 0.0075301174 -0.00596757 -0.009465499 0.0013242903 -0.002684734 0.010922254 -0.0018588846 -0.004777277 -0.008702928 0.013557398 0.016477436 -0.012650757 -0.0030687961 0.00030292582 0.0056659463 -0.004081005 0.0044885227 -0.010869091 0.014216914 0.001805895 -0.019844389 0.0054785917 -0.0029880803 0.00027483975 -0.01040813 0.0031759182 0.00043140302 0.007425447 0.00088368525 -0.004363253 0.010126248 0.0032817468 -0.008314 0.0013869489 0.004312678 -0.009606464 -0.0042281523 0.008348215 0.008110311 0.0075078118 -0.0075462423 -0.0008311071 4.4913868e-05 -0.005289755 -0.0027590534 0.0023634648 0.016346365 0.01026547 0.011940592 -0.005230746 -0.002929131 -0.0007585356 -0.008049833 0.0057341023 0.0043518622 -0.0002969955 
A13A81NN0NRD1S	-0.012814033 0.006064173 0.021910697 -0.021178214 0.0051669637 -0.0075355936 -0.010204013 0.011615235 0.01413255 0.0002541985 0.014645103 0.027131071 -0.0032361273 -0.020420682 0.010862268 -0.013077834 -0.011258408 -0.006592857 0.021376526 0.01909363 0.01386795 -0.010845952 -0.004138668 0.0063029197 0.005779226 0.0060524405 0.014001805 0.0016120579 -0.0010501504 0.0036892577 0.0030708734 0.0012568912 -0.008378447 0.02230457 0.0019744926 0.045380805 0.010074953 -0.010051813 -0.027278282 -0.001498243 0.0052942163 0.041246 0.0006526325 0.00029603357 -0.009428759 -0.011028013 -0.0021933233 0.015025217 -0.013557808 -0.0013862859 0.023742404 -0.011168415 -0.009066 -0.0040456457 0.012074069 -0.009429147 0.010095523 0.008643965 -0.026253203 -0.00787742 0.004561067 0.00062300224 0.016919691 0.020736247 -0.01314911 0.00051573437 0.0058109206 -0.0009093146 0.0034183774 0.01037643 -0.009954922 -0.014028133 0.008405546 0.008104813 0.0121706845 0.0030717135 0.0138739655 -0.0034892443 -0.008756881 0.019482547 0.02255976 -0.0038929542 0.011399492 0.009967122 0.010908009 0.0063543944 -0.017175527 0.01557684 -0.010778103 0.019763954 -0.010066184 -0.015379596 0.0027033987 -0.007443812 0.012195916 -0.004454424 -0.02763778 -0.03538094 0.0060843932 0.021826651 0.0004107202 0.0041563646 -0.007522979 0.0066208765 0.0032924819 0.016572038 -0.004593033 0.011458987 -0.009950728 0.019560356 0.004183879 0.009524752 -0.00176523 0.006078391 0.0022363185 0.032293852 0.014473631 -0.025041167 0.003295978 -0.035019793 0.008128057 0.041671325 0.0073013618 0.015007636 0.015579523 -0.0029445067 -0.014295667 -0.016026331 
A3RFWANBUVX4RA	-0.0074477266 0.0020843062 0.032753672 0.016126903 0.014552001 -0.0077171605 0.011383919 0.0036134857 -0.019056158 0.005338594 0.013134474 -0.00041526038 -0.012428669 -0.008795749 0.008354156 0.0008996273 -0.024319168 0.017162414 0.0036688165 -0.023000207 0.0050392947 0.004599273 0.0190291 -0.001269252 0.007954645 -0.012929259 -0.006834494 0.002938546 -0.0006538417 0.0153901195 0.01699557 0.014549381 0.014408129 -0.0069760936 -0.0055219745 -0.0016973721 -0.008627426 -0.016674645 0.005491579 -0.001601578 0.021575069 -0.000534279 -0.0018528141 0.009610173 0.0010338293 -0.008754032 -0.00038731535 0.0046723667 -0.015925858 -0.0076605016 -0.003944774 0.008544366 0.026056005 -0.0060562915 0.018103419 -0.0016643035 -0.014266628 0.0065115397 0.0011704022 -0.013764948 0.011098109 -0.008913777 0.01950785 0.011973109 -0.009028488 0.0015834279 -0.004843457 0.008547144 0.01998336 0.025800364 0.019364629 -0.018239629 -0.004916534 -0.0108869895 -0.002894919 0.01351105 0.0056548626 -0.017826537 0.015537497 -0.016311323 0.011870776 0.01966812 -0.006379534 0.014067448 0.009237182 0.018796377 -0.00026511712 0.016186954 0.0171841 -0.015584372 -0.022055754 -0.009513207 0.020600853 0.013779119 -0.0076470617 0.0030678147 0.01494831 -0.008279745 -0.010043638 -0.0033985435 0.017216621 -0.010095876 -0.019114845 0.007846602 0.00917323 0.0017197152 -0.032772105 0.005477767 -0.02110427 -0.023038454 -0.003920301 -0.0069912267 0.02002648 -0.011047651 0.0034819983 0.0032318581 -0.011088211 0.005832218 -0.017122537 -0.00043177124 -0.01377494 0.010865105 -0.0035647706 0.0017574738 0.003976178 -0.009174871 0.018587189 0.0056871627 
A16Z3HTUIYPDH8	-0.008209408 0.0064722337 0.011324805 0.0114544695 -0.015039546 0.014430068 0.02160258 -0.01638935 0.019731566 0.0035470075 0.0015621057 -0.007788843 0.01961939 0.010489942 -0.002260622 -0.0011352835 -0.002333733 0.022515062 -0.013807312 0.00015718977 -0.00047163805 -0.013824352 -0.008321252 -0.0009085177 0.0014863864 0.00010674761 -0.0026594216 0.00032459086 0.017212547 -0.0073352493 0.015925752 0.005380938 -0.020880595 0.012606986 0.01582106 -0.007992615 0.0006087669 0.010289891 0.015227636 0.0046554906 -0.01122467 -0.0026760227 -0.013287722 0.0141125545 0.0036288619 -0.00015970181 0.011983464 -0.0030576428 0.02274188 0.021683808 -0.0047834413 0.023939885 -0.025223631 0.00202833 -8.834513e-05 0.0148433065 -0.007704595 -0.014082865 -0.005952442 -0.0024602772 -0.01133355 -0.0009485411 -0.013428543 -0.008059374 0.008720799 -0.0024202697 -0.012417479 -0.0038412765 -0.007199547 0.0028610053 -0.004573361 -0.006515402 -0.0036844187 -0.009827248 -0.009475869 0.011074431 0.008566544 0.02246788 -0.0017663832 -0.0002491895 -0.009802603 0.010725588 -0.0022775827 -0.017694045 -0.016273115 -0.026486471 0.0022606715 0.0051963856 -0.015952747 -0.008801275 0.008868251 0.007580014 0.0024067052 -0.007892093 -0.0014532598 0.0013110093 0.0032485533 0.017644217 0.010152915 0.004807866 -0.014329841 0.019898519 0.02915474 -0.0029016235 -0.022512356 0.016293736 -0.00080196187 0.009712197 0.013390496 0.02037519 -0.011858302 0.0025655008 -0.017720036 0.0073951473 -0.0057807188 0.0007333713 0.0018565882 0.007370367 0.01745865 0.0074925264 0.002657197 0.0021252357 0.00046692273 0.0016232517 -0.0026290677 -0.0029423982 -0.001650883 0.0016953432 
A2GUE6E3DUYX03	0.0013067037 -0.007521091 0.0016031072 0.00518766 -0.0078121517 0.004415746 0.0066167163 0.0037400164 0.0038701831 0.0010519514 0.0071496763 0.0028797647 0.00064491 -0.0050948686 0.00025188117 -0.011382314 -0.0059800716 -0.006410846 -0.0012339125 0.008630074 0.004385284 -0.00753766 -0.0034603442 0.0008553871 0.00048456978 0.0038589328 -0.00056011765 -0.009808639 0.005618739 -0.0049816403 0.0020978032 0.00077778765 0.000919596 0.003415518 -0.008280625 0.0014741964 0.0007618087 -0.00050671643 0.0044760774 0.0026455575 -0.00016844031 0.0128328875 0.0020301938 -0.0019718523 0.0018495593 0.008317693 0.0011353514 0.0033806965 0.00030257393 0.0032028384 0.014145316 -0.00068887003 -0.011504186 -0.009022013 -0.0034155406 -0.0046977666 0.004676442 0.0061098253 -0.003572358 -0.0017504009 -0.0075144167 -0.004864864 -0.0040882123 -0.004813565 -0.00060203095 -0.00023375958 0.003764979 -0.004817009 0.003771314 0.0047822264 -0.012517417 -0.009261789 -0.002433933 0.0060719787 -0.0050061326 0.007584499 0.00930063 0.003508976 0.0025584446 0.00952591 0.005404716 0.0068179606 0.0052577932 0.004596549 0.009523954 -0.0067858854 -0.0050067166 -0.00036361802 -0.0052337972 0.006384871 -0.0035851533 -0.0040233033 -0.0036066892 -0.0038702558 0.008361512 0.00076575443 -0.0069590695 -0.0059288675 -0.005532449 0.0011444335 -0.0026486805 -0.0036378412 -0.0016965751 0.008338326 -0.0031971615 0.004610194 -0.0012833038 0.007183719 0.006782415 0.0020055203 0.004816182 0.0012394992 -0.015696753 0.00091322965 -0.0034385119 0.015424315 0.0022807037 -0.010345584 -0.0018312682 -0.008806352 -0.0061485292 -0.0013948722 0.002440226 0.0078046704 -0.0025638181 0.0028322344 -0.011191501 -0.00035854863 
A18DTTRCYR8TD7	0.0046277065 -0.0033931055 -0.0004023795 0.002582046 0.006583442 -0.006009624 0.00050736143 0.000539374 -0.0013339553 -0.005342804 0.00029418158 -0.0017965513 0.001971438 0.0010943593 0.003967509 0.0057362285 0.001967679 0.0012969251 0.005061801 -0.0010007604 0.00032057567 0.01176141 -0.003810908 0.0040666503 -0.0018486754 0.0005152312 0.0005835132 0.002204941 -0.0015115957 0.0026794123 -0.00053910306 0.001902383 -0.0005730698 -0.0032802124 -0.0030836712 -0.0022207294 0.0009576639 -0.004023555 -0.0061939857 -0.00022768737 0.0019711466 0.0017264189 -0.0018923393 0.002896129 -0.001844253 -0.0035696283 -0.00039016982 -5.357697e-05 -0.00062981807 0.00010881569 -0.004743265 0.0010241921 -0.0012900253 0.0020404228 0.005660856 0.0023463848 0.0028879575 0.0046008364 -0.007977944 -9.010764e-05 0.0006746158 0.001786766 0.0015644286 0.0017925467 -0.0086519215 0.0054175775 -0.0037049002 0.0053729275 -0.005890941 0.0033685924 -0.00044245337 1.23965265e-05 0.0044511827 0.00054939376 0.0032525347 -0.0071128546 0.0024019897 -0.0027863926 -0.0051251007 -8.468702e-06 0.00447414 -0.01007693 -0.003096154 0.008260099 0.0046636206 -0.003454168 0.008963031 0.009113616 0.0039028497 -0.0025923937 -8.7653585e-05 0.00088074437 0.008215981 -0.002434799 6.8106216e-05 0.0026927912 0.004986532 -0.006021486 0.004373614 -0.003043698 0.0051478203 -0.0037710876 0.0014905315 -0.00577631 0.0058407094 0.00025717216 0.0027642671 -0.0013674616 0.004797905 -0.004791819 0.0008741572 0.003653338 0.009628836 -0.008035094 -0.0021098845 -0.004149 -0.0027352595 0.005356931 -0.0054159774 0.0010109384 -0.006088888 -0.0017510625 -0.0020355838 0.00022961374 0.0054550483 -0.00394603 -0.0066538076 -0.0014086979 
A3J1M5WTA3ST77	0.0039989827 -0.0061647794 0.0070052594 -0.010466076 0.018294811 -0.009369874 -0.007376154 0.004859869 -0.009064411 0.020579753 0.015210825 0.0017288008 -0.030950183 -0.04043327 -0.005368543 -0.008617363 -0.0312203 -0.0066226027 0.01647788 -0.016968474 -0.011678591 0.016021213 0.0029322896 0.0034688427 -0.00064651936 -0.0038640338 -0.038759954 -0.010406252 -0.028032094 9.048607e-05 -0.0220293 0.022219682 0.014115613 -0.029655892 -0.004812572 0.02060304 -0.025372572 -0.017301008 -0.0018973501 0.0034015814 0.018147076 -0.00341057 -0.01221722 0.0045776963 0.009963146 0.020146208 -0.013577973 0.0030927768 -0.020356437 -0.009407397 0.0054849596 0.0036411064 0.050091475 0.014124216 -0.018202828 0.011212503 -0.008389002 0.005613952 0.031578656 -0.021799989 0.021726072 0.005101065 0.010497846 0.006910335 0.0063587325 -0.0053390344 0.008867091 0.019698877 0.020211132 -0.029305613 -0.0069820345 0.010473366 0.03530557 -0.037993643 0.005127598 0.00079790386 -0.014570854 -0.0074451994 0.000999159 -0.0031649773 0.012157512 -0.014031936 -6.8351146e-05 -0.009280413 -0.00016009733 0.0454791 -0.008601746 0.010038316 0.0002746469 0.010144487 -0.028013427 0.0049706916 0.0032110394 0.017121367 -0.009960585 -0.021447971 0.025055997 -0.0031845814 -0.0029610556 -0.0016555295 -0.010735646 -0.007567963 0.005682617 -0.009770159 0.012888664 0.021381935 0.0020905158 -0.013447056 -0.028112747 -0.016779473 0.011999069 0.00069647917 0.014053248 0.005236288 0.013518543 -0.02234757 -0.00651468 0.013008211 -0.0069614234 -0.009132725 0.01479733 0.0033077996 -0.0035400325 0.009672825 0.018210176 0.020504905 0.007522112 0.0148374215 
A2T8JRVJRVNX8R	-0.004288665 -0.01517778 -0.0025625967 0.000354662 -0.0038613323 -0.008256117 -0.0059271264 -0.0073299087 0.0042679524 -0.002908877 -0.010402675 0.002701901 0.004915022 0.0003643659 0.002439298 0.0020954628 -0.002065535 0.0029415272 -0.0013172298 0.0051852027 -0.0025922887 -0.00532459 6.449831e-05 -0.0009091909 -0.004856435 -0.0037370303 -0.0037893802 -0.003751972 0.0007082122 0.00052756304 0.0034354883 0.0025050666 -0.002881385 -0.004218069 -0.013587952 -0.008767723 -0.007018084 0.008215865 0.012058406 0.005601482 -0.006344862 0.0026444034 -0.0016977284 -0.00069054664 -0.0057319063 -0.0022968561 -0.0007422679 -0.015636344 -0.0016291564 0.00030414542 -0.0007435081 0.0043251426 0.0058497237 -0.008290969 -0.0044053686 0.008262025 0.0021337555 -0.002263279 0.0010664252 -0.007704457 -0.0057349694 -0.012873606 -0.0019664627 -0.0067316764 0.0037260987 -0.001019393 0.0029491133 -0.0032198897 -0.00058659504 0.011299487 0.001245393 0.01037184 0.0023531674 -0.0057051806 -0.0028449695 0.00015120658 -0.005757523 -0.004283789 0.0053369673 0.0038324415 -0.0013458376 0.008657783 0.019246615 -0.005416279 -0.0014891042 -0.004328957 -0.00059343304 0.0013195537 0.010303796 -0.0026834668 -0.003176913 0.0010307723 -0.005236578 0.0038698085 -0.00071965175 0.0032417479 -0.008290061 -0.007410422 -0.0043390687 -0.011424938 -0.0019900443 0.00032721777 -0.004788168 0.0063200314 -0.0010341658 -0.0044163526 -0.004187232 0.000601187 -0.0016445075 0.0024301298 0.008723541 0.0062824725 -0.0010932522 0.0035421762 0.013705564 -0.0029884076 -0.0077912305 -0.00045892317 0.012310848 0.010968128 -0.012494276 0.003627735 -4.3710217e-05 0.004599431 -0.0053372714 0.0056844675 0.0043699928 0.0001957157 
A2U4KTDIVI8KMR	-0.00075391395 -0.0072425217 0.008766116 -0.0100110965 -0.0012957111 0.0040980997 0.00026966486 0.008474843 -0.002941995 -0.007544054 -0.0028241733 -0.0040071798 0.0060879216 0.0014812318 -0.012528661 0.00063632877 0.018246928 -0.0026290924 0.0007864459 -0.0056949747 -0.0062827035 -0.000544916 0.0010204582 -0.005164526 -0.0068082847 0.005618573 -0.0025370733 0.0011250725 -0.003898522 -0.012775721 -0.007749337 0.0035267633 0.009184101 -0.0023121645 0.0070617483 -0.009371936 0.008728183 0.007957441 0.013887217 0.0021572483 0.0057409904 0.0020582671 -0.00550873 -0.008648962 0.0077495896 0.009531447 -0.011533022 -0.009409336 -0.0061532985 -0.0037293897 -0.004838259 0.021395212 0.016978536 0.0009385218 -0.0018061418 0.009689299 0.0023245485 -0.004430038 0.009734517 -0.00014431783 0.0002560105 -0.0027877707 -0.013121173 -0.00885991 -0.0026750532 0.0072859363 -0.0058296253 -0.0034303537 0.004499743 0.0063323556 0.0012718978 0.005065362 0.004278286 -0.002589417 0.0026251872 0.0051269983 0.00026476927 0.0125874635 0.010304266 -0.00826427 -0.007301452 0.011964428 0.005713567 -0.011170748 -0.011079566 0.0147139095 0.005386536 -0.0077578966 0.0046077 -0.0024263111 0.0014751368 0.0039263596 -0.008267551 -0.001214114 -0.0055551142 -0.0054755155 -0.0054487805 0.0008537577 0.0054209353 -0.0036582574 -0.009739465 0.008931112 -0.0009373507 0.0010956972 -0.0016948604 -0.0059085386 -0.006183621 -0.0021286868 0.0032678356 0.0044042654 -0.0022442169 -0.0008221795 0.01101715 -0.002774115 0.007320377 -0.0041052923 0.0017138643 0.005873293 0.006225521 0.0036342908 -0.0054456387 -0.006818981 0.008000818 0.0008629898 -0.0014873868 -0.0009152234 -0.002084066 0.0014227726 
A1MY8258SXRZ8M	0.0003301319 -0.011270795 0.00056200346 0.008479696 -0.008798787 0.009582176 0.005571153 -0.0015955567 0.014007511 -0.00058703066 0.0028188087 0.006918533 0.0016617106 -0.009116158 0.012340457 -8.8921435e-05 -0.0024104794 0.009164519 -0.004092987 0.003747448 0.0010285529 -0.0015639309 -0.0085695395 0.013920389 -0.010204284 0.004984344 0.005892945 -0.01031455 -0.0020499742 0.009333338 -0.0051346603 -0.0006007251 -0.0018488016 0.0039240825 -0.006728462 0.0014443982 -0.015958438 0.0121586 0.0028942076 0.002010614 -0.00845179 0.007094144 0.0009600404 -0.0008347105 0.01036896 -0.012202675 0.0045280126 -0.00017416343 0.003325153 0.007207861 -0.003033172 -0.016694412 -0.016226582 -0.0029755128 -0.007891586 0.00071937166 0.0033273208 0.008323449 -0.009270688 -0.00013248042 -0.010249156 -0.011252557 0.006018677 -0.007812849 0.005026196 -0.009712337 0.006294498 0.009117946 -0.0061726742 -0.009804043 -0.0018609831 -0.0028577542 0.005399756 0.0036482206 -0.0024155623 -0.013810667 -0.00024823123 -0.00059407356 0.007725515 0.008676125 0.0075084222 -0.0052447403 0.020287901 0.001286229 0.011581321 -0.01473708 0.0017220372 -0.0025359616 -0.0057283705 0.011257047 -0.0029502113 -0.0022112795 0.0064834547 0.00680563 -0.0020858124 -0.002766437 -0.0013747476 -0.011148134 -0.00853907 -0.004235394 -0.005467056 -0.010614191 0.0021939294 0.0028875545 -0.0011849637 -0.00026202103 0.0076850695 0.003217733 0.0017480286 0.007129162 0.009302 -0.0036145379 -0.00094314764 -0.003997307 0.005794592 0.0052754544 -0.0042203665 0.00219377 0.0020670097 0.0038123177 -0.012956029 0.0072780973 -0.0048578656 0.014157302 -0.009379012 0.003183569 -0.0023511339 0.010912503 
A3RNEUUWTA78QR	0.003089011 -0.0072848164 -0.00051661266 0.0003715792 0.003891212 -0.008731248 -0.0076953946 0.006489133 -0.00052426546 -0.0011248584 -0.002989198 -0.0017288765 -0.0046652565 -0.01175974 0.0019534538 -0.0055553126 -0.0057188305 -0.0033126518 0.010863259 0.004382212 -0.0055730008 0.004369324 -0.0044695674 -0.0062161377 -0.003839177 -0.002491815 -0.008644277 -0.005858772 -0.0057901167 -0.0002136659 -0.0067044958 0.0029375704 0.0073867887 -0.008910375 -0.012133576 0.009377807 0.0003159323 0.0026991605 0.00016689589 0.004373109 0.0073684473 -0.0015129735 -0.0041477405 0.008715969 0.007444211 0.0024042914 0.0005931611 -0.0004423617 -0.0032496448 -0.0029641176 0.0026660967 0.009396718 0.009143578 -0.0035202568 0.0062026605 0.007867565 -0.002450423 0.0007034284 0.002562531 -0.005132924 0.0017144696 -0.0027432316 0.0014410821 -0.0014061114 -0.0023255157 -0.0021974181 -0.004204761 0.0020511856 -0.00068173377 -0.0027203613 0.0037320806 0.0070255604 0.0012316155 -0.005329246 0.003404757 0.0010111989 -0.009370915 -0.007281187 0.0013460515 -0.0006665874 0.009725719 0.0043295524 0.00256708 0.0041008554 0.0027304508 0.0015084662 -0.001517261 -0.0024568608 0.0041590156 -0.004897286 -0.011827076 0.011207405 -0.004183245 -0.001600647 -0.0046310998 -0.0043310462 -0.0062144967 -0.007502042 -0.00686596 -0.006907336 -0.0020847712 -0.0031580008 -0.0014660273 0.0028063818 0.0053132186 -0.0006825469 0.00018559735 -0.00090330373 -0.0060037877 -0.0065488573 0.0010112837 0.0012890155 -0.0035715098 0.0074670953 0.0065640095 0.0008459287 -0.0011770867 0.0040078606 -0.0012375513 -0.0015195075 -0.0019040745 0.00020217219 -0.004275661 -0.0014883633 -0.005492731 0.0071566836 0.0012535 -0.00033885235 
A1IR3NR4KRPIJ1	-0.0005342647 0.035686802 -0.007828892 0.011939581 0.013470057 0.00045411082 0.013983134 0.010524659 -0.024404533 0.019716363 -0.012239532 -0.019942274 -0.011756303 0.030608406 -0.004556493 0.02017789 -0.01697493 -0.012617943 0.0052540335 -0.004762829 -0.0039135055 -0.001859922 0.039824978 0.0090353675 0.036789447 0.0048001567 0.00600626 0.065244645 -0.013462138 0.0074733244 0.011940261 -0.017250137 -0.0056259804 -0.0077780536 0.025665287 -0.023085961 0.032994032 -0.01689617 -0.019476121 -0.03320302 0.017439298 -0.020727046 6.001586e-05 0.003817501 -0.033788934 0.013425641 -0.024815314 0.025660407 0.02448787 -0.028540341 0.003379894 0.005085577 -0.012195874 0.019048046 0.022283133 -0.03198966 -0.004137776 0.0049308287 0.01294722 -0.0024057503 -0.014764762 0.0026703058 0.0072275503 0.046304204 -0.0041271443 0.023909554 0.004553993 -0.0029653646 0.0010267715 0.01587779 -0.031584065 -0.024764884 -0.03837646 0.016879614 -0.0050658365 0.020848453 0.013432968 -0.011840857 -0.0013974424 0.012260289 0.005726397 -0.012230988 -0.027254663 0.04015207 0.012616307 0.037664473 -0.017227361 0.0056308345 -0.010883176 0.014912139 0.0068699964 -0.0020708195 0.038213212 -0.011830729 -0.021514157 0.012820139 0.021973193 0.0209733 -0.025161427 0.021058837 0.0188805 -0.010583687 -0.014179995 -0.0222967 0.004006764 -0.007612781 -0.03117098 -0.01611547 0.04320908 -0.025343189 -0.045331802 -0.023094092 0.0044581364 -0.008493607 -0.04996897 -0.0063404664 -0.012756444 0.0074373856 -0.041176096 -0.030373376 0.0028807179 -0.025008764 0.008045795 -0.041241057 0.019668786 -0.029620938 0.00802137 -9.233075e-05 
A1YAAMQT5G88XE	0.010434044 0.021702677 0.019896908 0.0020549407 -0.005264437 0.015450197 0.012445262 0.01995312 0.020563077 0.001031893 0.031039758 0.008025453 0.003662454 -0.008220962 -0.0011285733 -0.02199924 -0.0037614412 -0.0025789589 0.008529654 -0.0034213127 0.0069546504 -0.0011797945 0.0052713538 -0.00027759792 0.01915787 0.0058440682 -7.40852e-05 0.00629992 0.015173232 0.00048684384 0.0007813077 0.0017979447 0.002532661 -0.0033751782 0.014314267 0.030426852 0.017404454 -0.02104458 -0.014176717 -0.014576751 0.020639313 0.007883892 0.0026829336 -0.01138793 0.012412277 0.017394518 0.015829489 0.034880914 0.011868491 -0.008028054 0.009161558 -0.0028558343 -0.010706676 0.0078010675 0.013863911 -0.009314919 0.006550623 0.019583106 -0.004392978 0.0023530347 0.011205804 0.003522637 -0.0070816707 0.015630351 -0.005249243 -0.0039224005 -0.0031544892 0.009453298 -0.006201778 0.0063149952 -0.016166085 -0.038623888 -0.015577111 0.022706693 -0.0003108143 0.025973847 0.004548291 -0.0033688059 -0.019346546 -0.00020546767 0.005280285 -0.0066186697 -0.025029905 0.016191306 0.004849124 0.010749849 -0.010452083 -0.0008019686 -0.022484545 0.013829384 -0.008621199 -0.00985057 0.010811844 -0.012812008 -0.011300046 0.0022138415 0.018654324 0.009160524 -0.01385088 0.027007308 0.0008555117 -0.004475035 0.015817016 -0.014142115 0.008727449 0.0111810975 -0.009742653 0.0011106881 -0.0017113269 -0.009591561 -0.014899981 -0.009140605 -0.0010326944 0.0045331866 -0.02132525 0.021169964 0.009620306 -0.01843598 -0.01015173 -0.034670055 0.029568965 0.007538276 0.007219595 -0.0028850972 0.007662879 -0.015578182 -0.007004646 -0.00035829796 
A1RPTVW5VEOSI	0.007961808 -0.0798517 0.025166972 0.107408755 0.023756182 -0.020845484 -0.059738446 -0.12456382 0.03386372 0.11680696 0.018432673 0.083624795 -0.1672067 -0.122820005 0.13654336 -0.051821787 -0.22119461 0.05911913 -0.007622477 -0.05007374 -0.04524671 0.06419499 -0.018513685 0.018609155 -0.1476771 -0.13512039 -0.04619474 -0.08833661 -0.026352009 0.07042053 0.090702884 0.01869284 -0.055680554 -0.07130694 -0.08234091 0.084778816 -0.14528742 -0.0026077672 0.008010242 0.062442277 -0.10774695 -0.12128014 -0.04938253 0.13225524 -0.078507096 -0.08052008 0.059719563 0.048750438 -0.031078562 -0.022380576 -0.035216358 -0.13512929 0.06052705 -0.01998455 -0.117658675 -0.02144779 -0.093395576 0.03191807 0.09326483 -0.11298378 0.04971684 -0.04661088 0.13528325 -0.038698334 0.05711537 -0.1405228 -0.05946026 0.098715596 0.13508183 -0.015966762 0.06691345 0.06039469 0.06803534 -0.1365912 -0.07231192 -0.024776017 -0.03163592 -0.07392117 0.05249371 0.007906484 0.036541056 0.08394706 0.07969567 -0.00715306 -0.022741837 -0.053369436 -0.04606636 0.027384192 0.09179112 -0.104188174 0.023581255 0.030418355 0.121388026 0.13570857 0.078351185 -0.07438547 0.021099968 -0.023787916 0.066859506 -0.038190536 0.097574644 -0.09972543 -0.06545626 0.004727545 0.1012401 0.0040785144 -0.0013055606 0.053411398 -0.23642863 -0.040793102 0.07541178 0.06967587 -0.02322498 0.059383087 0.10898471 -0.043405246 -0.05386807 0.04219304 0.01723936 0.11777631 0.09515874 0.08444638 -0.09887618 0.09821741 -0.03157616 0.048909526 0.10408041 -0.0039683064 
A2EW01G2LNJN06	-0.00031425848 0.008517672 0.00989572 0.0048974636 -0.001232589 0.0022446397 0.01190123 0.00495377 -0.00020938933 -0.0011229096 -0.00046693473 -0.00086136535 0.006453532 0.00964122 0.0040592784 0.0033587967 -0.0030183787 -0.00094274635 -0.009069697 -0.0058817617 0.0067019165 -0.0029903904 0.0069069653 -0.00288645 -0.0005512612 0.00576021 0.00016845188 0.0056311553 -0.0010720285 0.0028208802 0.0054663704 -0.0017431128 0.0005351474 0.0060425564 -0.0015352734 -0.0075902026 0.0016950154 -0.0046188817 0.0005524919 -0.0055560474 0.0076423753 -7.725127e-05 -0.0040641692 -0.0010842248 0.00044999283 -0.0049110036 0.0034305255 0.0016631067 0.0057726065 -0.002668679 0.0041207075 0.0040107113 -0.0051379753 -0.0051851273 0.011381806 -0.006431018 -0.002106195 0.00060500583 -0.0028432389 -0.0048917374 -0.006060037 0.00050423504 -0.003229089 0.005462268 -0.007194965 0.0052442234 -0.0048333136 -0.00015840268 -0.0024434729 0.00490214 0.0004254538 -0.0019980962 -0.0013919735 0.0011913575 -0.006138381 0.0017783692 0.010868985 0.00069992745 0.0034141056 0.0041360836 0.0037971581 -0.0003978052 -0.008180885 0.010316544 0.0059012217 -0.0029735214 0.004166686 9.66779e-05 0.0015033758 0.0030362648 -0.004779684 0.00082518 0.0062965406 5.628273e-05 -0.00063400046 0.0025770983 -0.0024762247 -0.003977925 -0.0030895497 -0.005609217 0.006203874 0.007077831 -0.0016336937 0.00096515275 -0.0013187298 0.0065626367 -0.009867221 0.010146286 0.0048067947 -0.0030875525 -0.004278321 -0.008198701 0.0048848935 0.00089726574 -0.0143197505 0.0055474015 -0.005631421 -0.00083548855 -0.008401352 0.0026962426 0.0036344274 -0.0020719587 -0.0045442004 0.0040333844 0.00026204716 -0.00895108 0.005560431 0.0055009653 
A2INSN8Z69R0FK	-0.007274272 0.0017076479 0.019581035 -0.0012869595 0.00037706626 -0.0038317114 0.005177228 0.014347405 -0.00906025 -0.0023300294 0.004014093 -0.010007365 0.0031250801 0.0068064285 -0.00810762 -0.005288271 0.015088727 -0.0031161266 -0.0054786615 -0.0010520671 0.0025125209 -0.012389551 0.007215312 -0.008565491 0.005983486 0.009204357 0.017580606 0.018502085 0.00014466596 -0.010269564 -0.004521341 0.0010771083 0.006182838 0.004190665 0.0077134105 -0.009276061 0.012623514 0.009918257 0.0072500496 -0.014272644 0.009526281 0.009676689 -0.000598224 -0.0099807205 -0.0002984725 -0.0012433724 -0.0051762466 0.0013639252 0.0054190774 -0.0047176606 -0.0045903204 0.02184026 -0.00017158451 -0.0033963264 0.017401058 -0.00010164413 0.0020438705 -0.013829006 0.0010525105 0.007095146 -0.006975609 -0.007839253 -0.0014889224 0.012356975 -0.008538993 0.019023519 -0.0030209778 -0.012356216 0.0027526738 0.032948446 -0.0032984486 -0.005079775 -0.015191584 -0.00049172895 -0.008680252 0.014033841 -0.0050276634 0.004896921 0.01178092 0.003348027 -0.00138144 0.014026212 0.0059185545 0.0011020395 -0.0024711206 -0.0033671926 -0.0032599838 0.0014156668 -0.0018835387 0.007905929 -0.0039033382 0.0051115085 0.0060189115 0.005148747 -0.0116588995 0.0016193794 -0.008059327 -0.0006434203 -0.0013795515 0.0123606445 0.0038834321 0.008111787 -0.0023306832 0.008207973 -0.0035784345 0.0023365084 -0.022889806 0.0074837045 0.01695984 0.008077632 -0.0039231563 -0.012177491 0.0039722933 -0.019619115 -0.019655704 0.0056682304 0.0039081243 0.0036641557 0.007321104 -0.009795389 -0.016215447 -0.0006140148 0.010788131 0.004031258 0.01157308 -0.0074867993 0.001459617 -0.001363111 
A3SJ2NETSL6D5R	-0.0021113774 -0.012577667 0.005656603 -0.0019196403 -0.00044654484 -0.0015518862 0.0006660811 0.0012606271 -0.0035277575 -0.00018619152 0.0029810595 0.004491703 0.0053324257 -0.0063914726 -0.007230819 -0.004500358 0.0017604164 0.0024461518 0.0019367711 1.155969e-05 0.0026541746 -0.0046034926 -0.0061550178 -0.0043202 -0.0014076151 -0.003284942 -0.0011259326 -0.007939998 -0.0043543247 -0.0059498926 -0.0050890488 0.0025081432 0.008001498 -0.01080608 -0.0023304084 -0.0021365497 -0.0077511524 0.010672235 0.006905988 0.0028496664 0.002288986 0.0060561104 0.0029647697 0.0003820672 0.00067476375 0.0002501501 -0.0059021977 -0.0038255397 -0.00565604 0.0017344584 0.0015403549 0.0037902899 0.011526459 -0.0030457126 -0.0033265015 0.0077720247 0.007990956 -0.00015278364 0.0062885163 -0.0011162106 0.00442869 -0.0029586079 -0.0021219114 -0.0006951717 0.003314468 -0.0008353065 -8.970748e-05 -0.0006838389 -0.0015333012 0.0031372455 0.0034593912 0.010760073 0.010876582 0.00016202877 -0.008690319 0.0014208606 -0.0038231963 -0.0028913063 0.009098908 -0.0052263644 0.002094452 -0.0051751304 0.008086021 -0.0049963617 0.00015498062 0.008673238 -0.0067946767 0.0012215304 -0.0007507549 0.007888848 -0.00088769 -0.0032580667 -0.0025259177 0.009316041 -0.0036338675 -0.004104383 -0.0015336402 -0.0036053255 -0.0019258021 -0.0019014971 -0.0023954464 0.0004429997 0.0018622972 0.0029803056 -0.0016815169 0.0020126961 0.0028578062 0.0002490993 -0.0063905874 -0.0027832766 0.010012342 -0.0037528663 -0.0015649343 0.0016536986 0.0071271257 -0.0026471615 0.004064003 -0.0028878893 0.00489942 0.0038040224 -0.010611578 -0.0031184766 0.0055512553 0.0067384774 0.003929799 0.01394325 0.0010024463 -0.002196639 
A3237FOR4LVBZO	0.07021727 0.038630165 0.024656499 0.03197665 0.025360081 0.030409848 0.040100086 -0.028285883 -0.07172515 0.06605395 0.02058981 -0.046376415 -0.061577458 0.07646284 0.03008738 4.1695188e-05 -0.08422035 -0.013207113 -0.0013530758 0.0030185438 -0.003886916 0.0110152755 0.01491065 0.010222866 0.030033581 -0.109165706 -0.022782663 0.07971439 -0.025406102 0.07222093 0.0961339 -0.015386449 -0.08492848 -0.016589727 0.07938688 0.033876866 0.07852076 -0.0120052 0.04682817 -0.073755085 0.012536395 -0.104198016 -0.010043159 0.049149163 -0.016360372 0.0008940672 -0.023260036 0.10199976 0.033099122 -0.049086705 -0.023084737 -0.004070054 -0.049126502 0.11790406 0.018140588 -0.02045235 -0.054745115 -0.054472793 0.077162586 -0.062264893 0.060135163 -0.055180192 0.06934069 0.06519752 -0.01919627 -0.014761479 -0.07835945 -0.031145034 -0.0328345 0.055734936 -0.028313508 -0.01576695 -0.0041986234 -0.07449899 -0.029848605 0.1022782 0.052477945 -0.011096146 0.0041965107 -0.017189294 0.029950226 0.0357052 -0.030755237 0.0051899827 -0.11464296 0.036389995 0.017961629 -0.0030726183 -0.019857565 -0.039498705 -0.0027282287 0.063178174 0.11249809 -0.042031176 -0.087658845 -0.03138894 0.11285862 0.0902091 -0.0069903466 0.1452223 -0.013278234 0.025781197 0.05847158 -0.15857139 -0.00196749 0.027367868 -0.058293413 -0.064093344 -0.026544666 -0.04661929 -0.09898149 -0.04392223 0.022350015 -0.0039747283 -0.099928424 -0.03363721 0.011946251 0.075075425 -0.07516447 -0.003031492 0.12286421 -0.045079812 -0.01964497 0.012721315 0.08642576 -0.0016152385 0.066694915 0.051147506 
A2UGCWC46V7PPG	-0.02390737 -0.022049721 -0.01334787 0.023466893 0.019520273 0.035363935 0.022044353 -0.019951431 -0.027696658 0.0114100175 0.008697005 -0.017037926 -0.016702957 -0.009358057 0.013385511 0.013209953 -0.003897518 0.05063319 -0.041310094 -0.030530302 0.0028855272 0.057229746 0.008961234 0.03305124 -0.026377238 0.0021866937 0.01832637 -0.039400447 0.004496436 0.0025959054 0.0150382 0.028889224 0.024119176 -0.028571745 0.027532905 -0.009252514 -0.0072894813 -0.007683432 -0.043082733 -0.00896955 0.0006065762 -0.011605821 -0.014276949 -0.013823454 0.019483136 0.014345505 0.005797727 0.0212165 -0.020396631 0.0018243031 -0.023954213 -0.04738178 -0.0062329895 0.03321479 0.02680273 -0.03564956 0.00021868914 0.040700655 -0.028901659 0.033583473 0.0044252975 0.020483946 0.010696003 -0.0093555525 -0.022953082 0.011461345 0.028966617 0.01658085 0.030372793 -0.03772767 0.033323813 -0.03939733 0.009645853 -0.0033028894 -0.0140935 -0.027284002 0.016305018 -0.014096564 0.01973289 -0.013741144 0.013620131 -0.03995959 -0.011359499 0.04791767 0.009073159 0.025816595 0.04848642 0.03198082 0.03759941 -0.07004519 -0.0031143338 -0.0011777411 0.0049195774 0.02552863 0.0438568 0.027428353 0.021731801 0.008340119 -0.006570494 -0.023402045 0.029487843 -0.050116118 -0.032342453 0.008906026 0.006533159 -0.013330089 0.029606188 0.026187995 -0.039412525 0.004622071 -0.00030805057 -0.0354839 0.07458787 -0.025285888 0.024164444 0.0094707515 0.007783378 0.022536982 -0.013042223 0.02136378 -0.033567004 0.0029480327 -0.05410741 -0.043664306 -0.015372029 -0.021056551 -0.012895494 0.03627235 
AHMEG9CAAT2KF	-0.0071597565 -0.007152242 -0.004160076 -0.0046164365 -0.002616475 0.0037669318 -0.0019196164 -0.0042388085 -0.0014683505 -0.0023284983 -0.005163066 -0.0028529249 0.005207211 0.0006820975 -0.011151672 0.0007392693 0.0050761667 0.002994047 -0.004758116 -0.00032454066 -0.0013459197 -0.01124118 0.0016631811 -0.0069162184 0.0008394309 -0.009265562 0.0012938238 -0.0040862774 0.002803776 -0.0059424764 -0.004081383 -0.0011995197 -0.008291985 0.0015157186 0.001215877 -0.008369501 0.006213429 0.015640302 0.008902728 -0.001509072 -0.0005693354 0.0018108616 -0.0068926737 -0.0063646236 -0.005185571 0.0029107768 0.002211203 -0.0016649188 0.0015687699 -0.0022633895 0.00013191286 0.018082699 -0.004741388 0.0031360597 0.0014246855 -0.001978366 0.0041737487 -0.008024851 0.0020147215 0.008585224 -0.003127678 -0.00855834 -0.006702328 -0.0041365116 -0.0051861843 -0.0020437906 -0.0021101828 -0.011668619 -0.007844358 0.006101066 0.004182975 0.006761099 0.002204473 -0.0012793535 -0.0014223167 0.001992313 -0.0018476179 -0.001181512 0.002861204 -0.0057925037 -0.0085989125 0.004215971 0.002458341 -0.0062326263 -0.007804658 -0.0034889644 0.0035603421 -0.0052982843 0.0013736185 -0.0039798734 0.00056527037 0.009108842 -0.008812857 -0.0017206738 -0.004273551 -0.001010469 -0.0012397508 0.010012791 0.0035011047 0.0034632424 -0.0066576903 0.008003274 0.009419926 -0.0009631679 -0.010898118 -0.004762019 -0.0033694285 0.0012241681 0.00018858709 0.00875785 -0.0009594993 0.0013896347 -0.0023689335 0.005734665 -0.00931606 -0.00070899836 0.0007668804 -0.00089152495 0.013943147 0.005860501 0.002969634 -0.007202811 -0.0068640625 0.0009617773 -0.0008278786 -0.00072168274 -0.0025300921 -0.002527392 
A3IY9JZZ36OQSV	0.002936704 -0.00046798424 0.002163096 0.0007148727 -0.0046513635 0.0068349754 0.0006038327 0.0020639638 0.016391337 -0.0011703691 0.003128801 -0.007315555 0.0056438544 -0.0006845142 -0.0038361696 -0.002464687 0.0014643462 0.0010764771 -0.00025746308 0.004397415 -0.010346749 0.003791876 -0.0022332326 0.0054524736 -0.0067349207 -0.0044930284 -0.0029217543 -0.005220216 -0.0009100408 -0.0072809504 -0.0054545593 -0.0053856885 -0.005099635 0.0017545157 0.002109862 0.0002092934 0.0042751706 0.0063812966 0.0012379787 0.0074341344 -0.00035585157 -0.0060788943 -0.0015602463 -0.0046750116 0.0030625535 0.0033569648 0.006234628 -0.0007564699 0.0077652954 0.0024844084 -0.009244112 0.009014822 -0.007684193 -0.0053888774 -0.0037258684 0.0073033026 0.0033372827 9.598504e-06 -0.0017804939 0.003441161 -2.0799936e-05 -0.0038305563 -0.009437109 -0.008122181 0.0026833126 -0.0043389807 -0.0023742446 -0.0022521615 -0.0046429555 -0.001092942 0.002592854 -0.0037049965 0.0038544887 -0.00090061204 -0.005354349 -0.0017654554 -0.0030332606 0.004308347 -0.0064497753 -0.0079663 -0.0040780427 0.00981515 0.0051308405 -0.0049290615 -0.0054065357 -0.0032556278 0.0054127886 -0.0016124493 3.926032e-06 -0.008001753 -0.00024297598 0.008844526 -0.007808269 -0.000280942 -0.00035217335 -0.0013387378 0.0039049876 0.007708307 0.0054084617 0.0010531425 -0.005429222 -0.0019788845 0.008784719 0.000489995 -0.0023654602 0.003026007 0.0024205975 -0.003949744 -0.0017775098 0.008415712 -0.002331445 0.0005454939 -0.0073793046 0.0034580405 -0.004165083 0.0026895492 0.0048440224 0.004897555 0.0035218787 0.002914284 0.0070055723 -0.007338862 0.003391246 0.0045134895 -0.0068377573 0.0044156583 0.0012403631 0.0064540487 
A1KMDDMQEXV0HJ	-0.0027376637 -0.006602969 -0.003859491 0.00487802 -0.028140854 0.039526183 0.00073117187 0.00890188 0.027144112 0.012601946 0.002296399 0.0038232987 0.00066661474 0.0047114296 0.002702654 -0.015261484 -0.0141591085 -0.0104583455 0.019527638 0.029492263 0.006731446 -0.0033546626 0.019833451 0.029696565 0.012442271 -0.0025124976 0.026259867 0.0037981514 0.0032519759 0.024079448 0.012886215 -0.009468652 -0.011025525 -0.004087608 -0.008677192 0.021602439 0.019063566 0.008806189 -0.006287405 -0.0011807402 -0.008984797 0.031003557 0.01140042 -0.019695176 -0.0051862295 0.0058029336 -0.025895527 0.021950047 0.009548511 0.0028142673 0.015883734 -0.0036203316 -0.042559627 -0.008757013 -0.013211412 -0.015231875 0.0073710536 0.020933323 -0.019011227 0.0034870463 -0.03817052 -0.032962766 0.010553752 -0.0028663815 -0.009533421 -0.023595912 0.018409008 0.005626274 0.004112545 0.023777928 -0.034908738 -0.02500562 -0.012763334 0.016436148 -0.012592439 0.015679156 0.015482818 -0.007259516 -0.0066816225 0.030925427 0.008021233 0.014353121 0.033913508 0.021055747 0.005198767 -0.006523207 -0.02120202 -0.008679889 -0.015576619 0.022634992 -0.011719095 -0.010213395 -0.0030926322 -0.0073241713 9.230273e-05 0.018677594 -0.041154124 -0.015062076 -0.029380703 0.015255491 -0.006308063 -0.03186344 -0.041967575 0.0062558185 0.0043268795 -0.004127104 -0.008830857 -0.009503603 0.017498707 0.023559103 -0.0037944666 0.0064565646 -0.02705012 -0.0087112775 -0.01800379 0.018453784 0.0019055813 -0.017152976 -0.007924044 -0.03483181 -0.0046130493 0.021573592 0.01770472 0.010006934 -0.008023631 -0.011236525 -0.014008896 -0.003950374 
A24VMSBJAWFRCP	0.0046285163 -0.0016947057 -0.0071632415 -0.0030745005 0.008573247 -0.0009231376 -0.006406955 0.00014950059 -0.004713168 0.0060560964 -0.0031113601 0.0020102474 -0.011023384 -0.0057569216 0.0005266435 -0.007549543 -0.005017825 -0.007123225 0.004233431 0.0070849834 -0.0018205068 -1.1798752e-05 0.00065099244 0.00681731 0.00480477 -0.003221486 0.0052456204 -0.0007371738 -0.007979659 -0.0010674738 -0.0064939065 -0.0021261899 0.006609139 0.0019069319 0.001510583 0.018135542 0.00539473 -0.0062872027 -0.009845036 -0.0006067258 0.011008729 0.0116831865 0.0102482 0.0025061772 -0.0015398576 -0.0033583096 -0.003573919 0.008260488 -0.0068194475 -0.005006973 0.0052190926 -0.006785145 0.002849898 0.0019309609 0.002242415 -0.0026690075 -0.0015762434 0.01011869 0.0033646636 0.0016283729 -0.0011041217 0.00600965 0.018736554 0.011059038 -0.00064439245 -0.0012418642 0.01101551 -0.00083097414 0.008711053 -0.0044968007 -0.0008599862 -0.011038245 0.0014291697 -0.0009144372 0.003866274 -0.0008935011 0.0021379462 -0.0037430928 -0.0050668414 0.001489138 0.0040568504 -0.0064748875 -0.009340066 0.00796088 0.0076223095 0.009852499 -0.009326555 0.0062400238 0.0011824071 -0.0025548139 -0.007874058 -0.004067854 0.0045841113 0.0018535723 -0.0011247518 -0.0016659165 -0.0003323946 -0.006305032 -0.009595386 0.0025347886 0.004050822 -0.008192116 -0.008285264 0.0041504405 0.005218073 0.00018884592 0.0021252586 -0.0039874 -0.013190933 0.00199483 -0.0057583824 0.0022516132 0.004682128 -0.0019360173 0.0040450636 0.0040835985 0.0076967278 -0.0025867934 0.00032528403 -0.016880449 0.0028626793 0.009965006 -0.0052965474 -0.0054159057 0.008630065 -0.00024395037 -0.0005215874 -0.0077704936 
A1C92SAQFUBJSZ	-0.0064276434 -0.020063655 -0.033010058 0.00053239806 -0.017057007 0.008040155 -0.018239025 -0.0030408173 0.013146251 -0.0008363699 -0.0332684 -0.0059477077 0.0039084246 0.020749828 0.004161276 0.0047022803 -0.019721406 -0.0048552672 -0.0013767565 0.007842987 -0.018169556 0.009986258 0.012524916 0.006027976 -0.017429626 -0.0041084765 -0.00089806376 -0.0020045505 -0.002063872 0.03511952 0.0013761659 0.0019681682 -0.018799562 -0.01352905 -0.013821611 -0.016898667 -0.00058908836 0.017804421 0.020496957 0.002727997 -0.017364664 -0.0052818935 -0.018417086 -0.0044629294 -0.00076884695 -0.0019942203 -0.00994238 -0.02008783 0.006641605 0.01901117 0.0036289915 0.0038884287 0.001004818 -0.0063628373 -0.030503996 0.008529726 -0.011888792 0.0005351881 -0.009025374 0.0029198427 -0.028835243 -0.0016092845 0.007842079 -0.030436996 0.008395964 -0.027032778 0.0065721353 0.012571899 -0.010233444 -0.012708019 -0.011832948 0.01240941 0.0064578303 -0.006364495 -0.0007213549 0.004008452 0.005334045 -0.0014190786 -0.007838473 0.013663213 -0.0008756773 0.01515246 0.01367486 -0.010070641 -0.008416983 -0.018101063 -0.0031158512 -0.01853105 -0.016293902 -0.007983326 0.009521467 0.024904676 -0.017094795 0.0027760884 -0.005042653 0.006492123 -0.03873806 -0.006321524 0.0008361102 -0.03125528 -0.013913701 -0.006553092 -0.025871798 0.01002679 -0.0007269689 -0.0019712506 -0.00088913465 -0.013092535 0.033094265 0.0128886765 -0.004606737 0.012785324 -0.031913266 0.0028509384 0.0065470557 -0.03048051 -0.01792406 0.0008107768 0.0030667207 0.0073868623 -0.001469319 -0.0025380377 0.008364395 0.0073651765 -0.02098694 -0.0014338667 0.0013802537 0.020420954 
AREHEVC8J64QA	-0.005685876 -0.0064578517 -0.016409975 -0.0048577944 0.0042088763 0.015017163 0.00447492 -0.0056489967 -0.0028928085 0.004850729 -0.004705773 0.0020157725 0.0026167869 -0.0024845153 0.0005722052 0.007568341 0.0027955144 0.011517901 -0.00935289 0.00012608986 -0.0011779362 0.008525529 -0.0015056664 0.0091206385 -0.005349106 0.0020285014 0.00850927 -0.002018034 0.0014050559 0.00037019447 0.00091638794 0.0016106525 -0.0052526183 0.0020438335 0.009411677 -0.0043182815 0.001447377 0.01027122 -0.009195093 -0.006033591 -0.003188304 -0.003092289 -0.011658229 -0.007909233 0.00024456932 0.0035140268 0.0003946601 -0.002615454 0.0039795944 0.0014509985 -0.001035465 -0.012983018 -0.012364421 0.013043411 0.001212786 -0.01074884 0.0040188357 0.0046108575 -0.005315462 0.010270935 -0.006890224 0.007474897 -0.006130955 -0.0043509076 -0.00365658 0.0019503591 0.0069492226 0.0017766152 5.6071203e-05 -0.018665232 0.0067848163 -0.0038661289 0.0016492305 0.0027176251 -0.002388875 -0.011563037 0.0009152942 0.00176608 -0.0037046133 0.007229576 -0.0034702134 -0.020328075 -0.0012680136 0.003860004 -0.0012566145 -0.0015611221 0.007168324 0.0026526111 -0.0019539434 -0.013405877 0.011416986 0.002660102 -0.004991305 0.0021110233 0.010073481 0.00444601 -0.0042437823 0.0032642998 0.009361279 -0.0008676571 0.0058084317 0.0013941738 -0.004083831 -0.0029139419 -0.011505896 -0.009052675 0.013889747 0.0040447298 0.0021178534 0.0072622006 -0.0017935686 -0.00561103 0.0074158222 -0.002139879 0.00012937607 0.0064182696 0.0012580657 -0.00020241694 0.0040802225 0.0044915816 0.004463766 -0.004408798 -0.017514676 -0.009920607 -0.006350986 -0.0067436034 -0.010513832 0.010561821 
A1YAR5PTXNRA7X	-0.0015253866 -0.009419596 0.004761268 0.0074654846 -0.010661808 0.004534892 -0.0003639088 0.0014145505 0.0142886145 -0.00053139275 -0.0006047413 -0.0036165188 0.010667085 -0.0048756767 -0.0018862098 -0.0037524435 0.005044898 0.009382163 0.0019335718 -0.0070889224 -0.0023402371 -0.012668824 0.006454344 -0.0141701205 -0.012733289 0.004585038 -0.007945623 -0.011675323 0.005266699 -0.0011190338 0.00017477224 0.0053677917 0.002030039 -0.006444768 -0.024315003 -0.01098782 -0.0031106255 0.020818964 0.016816888 0.0031924834 -0.000554458 0.0055442685 -0.012463718 0.001966475 0.0054969797 -0.002816721 0.008668826 -0.016303413 0.008367724 0.015366929 -0.0022107807 0.026992846 0.0053368816 -0.018752037 0.0058671497 0.019344669 -0.0066726753 -0.016160453 -0.0029453216 -0.0065324195 0.00044887263 -0.01641083 -0.022562647 -0.010158952 0.0026391344 -0.011993878 -0.012502976 0.0049438155 -0.015408156 0.017705685 0.0037344522 0.015400881 0.013388229 -0.0050898097 -0.011156006 0.0024262855 -0.007372635 0.005201145 0.0003989758 0.00037290496 0.0015652594 0.019688861 0.016060991 -0.013361556 -0.0023347212 -0.022436414 -0.0013175368 -0.005546828 -0.006893234 0.003197681 -0.0016893892 0.012992647 -0.016499417 0.00865059 -0.008745576 0.0029828309 -0.009405955 -0.0032387285 -0.004965499 -0.008931804 -0.0076954416 0.013418682 0.012738578 0.0065552453 -0.003284468 0.007996962 -0.0019679917 0.013104851 0.0021737379 0.0014379846 0.0015512687 0.008534733 -0.010405808 -0.0008648085 -0.00038234395 -0.015781177 -0.0107460795 0.011416613 0.012399412 0.011435037 0.005508507 0.0010130085 0.0043733935 0.0061976137 -0.008212841 0.009349383 0.006411563 0.009034161 
A31BL556QXBJBZ	0.0015114574 -0.019312724 -0.010509048 -0.0016317649 -0.007405031 0.017694646 -0.00081333984 -0.0037936375 0.018638166 -0.009812627 0.016483042 0.0058989986 0.004318416 -0.0070258984 0.0049680346 -0.0014931232 -0.0010632145 0.0037532973 0.0013265512 0.01382443 0.00059506943 0.0050035743 0.0039309515 0.0030099652 -0.011847284 -0.021354143 0.00283522 -0.018479303 -0.005954193 0.0044541704 0.007848741 -6.004394e-05 -0.008320973 -0.0054408438 -0.0028715348 0.015786687 -0.0012211896 0.009453651 0.0071969363 0.0046655363 -0.0040001892 -0.009284472 -0.0073133283 0.0050360616 0.019784467 -0.006487935 3.5230023e-05 0.00034753393 0.0004986167 0.0073674223 -0.0034762912 0.015540317 -0.012782089 -0.003007408 -0.009785507 0.00324294 -0.008110054 0.008383128 -0.0058442065 0.0064175217 0.00071538764 -0.025663337 -0.009326809 -0.021778785 -0.007972563 -0.025674243 -0.0054808874 -0.0045539136 -0.00546396 0.0058958163 0.019772433 0.0057290997 0.0053740502 0.0069323 -0.011785016 -0.014036083 0.015888492 -0.0005962182 -0.003426348 -0.0055800336 -0.00052209885 0.021774549 0.009143414 -0.0057283393 -0.010642661 -0.01726373 0.002889689 -0.007527347 -0.006261407 -0.012094073 -0.011054918 0.013544227 -0.015935788 -0.0012071274 -0.00269405 -0.005131921 -0.0011652923 0.007706337 0.009981821 0.0003014916 -0.012105782 -0.0043434384 0.0021996796 -0.007704383 -0.010913686 -0.0020879474 0.0013486166 -0.012734831 -0.0071331426 0.013489843 -0.0052225967 0.0056399326 -0.00019655115 -0.0014334479 -0.0031027372 0.0056528794 0.003601748 0.0097257355 -0.012874831 0.008869628 0.021845382 -0.011750921 -0.015273764 0.0034259919 -0.02070893 0.00058385474 -0.01425848 0.005894518 
A1IB42LRNA9QLW	-0.0010120801 0.007899253 0.003192786 -0.0046395874 -0.0025763013 0.009106004 -0.0035927347 0.019967532 0.0062962407 -0.014165085 -0.004127982 0.0015260511 0.010562238 0.0040771305 0.010271344 -0.0019044749 0.004349382 -0.0022660873 0.01725439 0.022106238 0.00571058 -0.0063635604 0.00087230606 0.0033817904 0.0058915373 0.014813389 0.0036780334 -0.0075544883 0.0029972217 0.00594496 -0.009915145 -0.018248748 -0.01069896 0.014182286 -0.0099082375 0.012484717 0.016385565 0.010538827 -0.020917304 -0.0068757576 0.0038954518 0.020695081 0.013053412 -0.006037448 -0.0020881714 -0.007921049 -0.008686961 0.002278786 0.008411237 -0.006319793 0.0141731445 -0.0027199506 -0.03659162 -0.015820106 0.017192978 -0.0016376635 0.011852751 0.027567131 -0.032537464 0.0027363508 -0.006723188 -0.01351422 0.0072287335 0.009653057 -0.017610498 -0.007005095 0.0015555169 -0.0046525975 -0.025056923 0.0049640536 -0.012760938 -0.016293786 -0.009536004 0.0082615875 0.006519808 -0.011707646 0.0047941003 -0.011489973 -0.03109709 0.017230667 0.007822814 -0.01894779 0.009757076 0.022325555 0.025278289 -0.021691177 -0.014000705 0.0105276285 -0.013464562 0.015967248 -0.017245408 -0.008955703 -0.005188071 -0.012132727 -0.013798264 0.022500895 -0.020403095 -0.015975902 -0.022411238 0.0013916742 -0.008934852 0.0026259965 0.0016617619 -0.0066578705 -0.006130297 -0.002512821 -0.003817053 0.01045221 0.015817838 -0.008529555 -0.0061565777 0.00064201414 -0.0013408386 -0.004107227 -0.014607593 0.032544795 0.0009846212 -0.0046492983 -0.0177841 -0.02167406 -0.0012267394 0.013176536 0.0019871083 0.0029888216 0.0011653674 -0.011274007 -0.015669625 -0.012536683 
A3HLW3G0TA8GX1	-0.005846492 0.00071542774 0.0130843865 -0.0012425205 0.005792166 -0.008447593 -0.0048967805 0.012982413 -0.011276461 -0.010725502 -0.011702739 -0.019001257 0.0141138695 0.012978266 -0.013151541 0.0118342275 0.017579505 -0.005156056 -0.008729029 -0.0029949872 -0.00018407789 -0.011257768 0.013581173 -0.010220089 0.006165323 -0.0018709383 0.0016007804 0.0047587617 -0.0021954512 -0.01282184 -2.0968122e-05 0.0033658561 0.0016776359 0.0014224476 0.005883716 -0.021124436 0.0033385968 0.01420278 0.011921634 -0.002252531 0.0070465743 -0.0033548623 -0.0036641767 0.0015553985 -0.007690734 0.00040690176 -0.004830196 -0.014539351 -0.002517808 -0.010919157 -0.0058756317 0.025247702 0.0034162134 -0.0036558313 0.010580414 0.0036799798 0.0047371634 -0.009327889 -0.0014592968 0.006394658 -0.00027781233 -0.0086667035 -0.015633281 0.0011209344 -0.007552014 0.011190796 -0.0070887133 -0.021854704 -0.01064926 0.025928373 0.008131904 0.004404572 -0.0059949504 -0.0056180516 -0.010058394 0.0040788013 -0.006545192 0.0058151498 0.0134718595 -0.0108332895 0.00074914674 0.010880243 -0.0044920435 -0.0041999635 -0.0054489095 0.0024161318 0.012799626 -0.0011258366 0.0027225516 0.0046897656 0.00071808934 0.0073446305 0.0048641805 -0.008095272 -0.011512893 0.00301523 -0.0037591322 0.001484884 0.003508879 3.2003987e-05 0.00253141 0.01680023 0.0023382553 -0.00037540324 -0.0052060587 -0.00356566 -0.0122187175 -0.003140127 0.012254039 0.0012769623 -0.0022158835 -0.0029169177 0.00871147 -0.01266214 -0.0096865175 -0.0070298575 0.00026268826 0.016121399 -0.0017313642 -0.0010784048 -0.012359898 -0.011176617 0.004492503 -0.004265966 0.003054093 -0.0053668106 -0.0005117888 0.0021464976 
A2NOZB6VZCTOI4	0.001985535 -0.010732259 0.007950906 0.009966243 -0.013101887 0.014576833 0.00788504 0.0064409045 0.03127602 0.006021715 0.010736331 -0.0071015987 -0.0029469994 -0.00901795 0.004456575 -0.004216001 -0.00037110405 -0.0034556454 0.0050216103 0.00044005772 -0.0024992616 0.004060736 -0.0019595227 0.011387544 -0.012426423 0.0060874685 0.0070808907 -0.015316734 0.0036260397 -0.0012491439 0.003971298 -0.007019083 -0.0053024055 0.0017322449 -0.010707682 0.0030508812 0.0059683993 -0.0010348468 0.0074401535 0.005385302 -0.0008998105 0.00075547554 -0.009272091 -0.006925587 0.00939833 -0.0055023716 0.014302292 0.0077442634 0.008094927 0.01021912 0.004264446 0.0002401523 -0.005850323 -0.016565483 -0.014402094 0.008305075 -0.0045719836 0.011496956 -0.0065412372 -0.002141193 -0.006819778 -0.0030681218 -0.0058255624 -0.01648624 0.0034823196 -0.016927384 -0.0032579482 0.00814955 0.0030939833 -0.0018462114 -0.0039415113 -0.008175312 0.006823008 0.0033533913 -0.01351377 0.0008061631 0.005151259 0.0035217518 -0.006275031 -0.0052558486 0.0040115113 0.012577533 0.014156944 0.00085888733 0.0048011043 -0.020853093 -0.0010080537 -0.010598617 -0.014191624 0.008966341 -0.0040825102 0.009189101 -0.0044609187 0.008027914 0.0038054879 0.0023130486 -0.0064801066 -0.005687492 -0.007769639 -0.004452928 -0.0027042225 -0.0014280103 -0.0011760514 0.007543148 -0.003123059 0.0043963017 0.0046243663 0.0025067213 -0.0004245451 0.010983952 0.001708578 -0.001668358 -0.010928956 0.00178835 -0.00971225 0.0018577722 -0.0011766496 0.004139698 -0.004788226 -0.002414541 0.0076033976 0.004564371 0.00446126 0.01089327 -0.010411309 0.0028211733 -0.008061766 0.0096386485 
A1WQNVR4H66YX9	0.03819731 0.036584802 0.0067892238 -0.034622334 -0.004206187 0.008754598 0.027376 0.02762021 0.016388848 -0.051959135 -0.002675903 -0.007945117 0.043850653 0.014122266 -0.0052794144 0.022300681 0.03647547 -0.021368159 0.0042672483 0.018863024 0.025418539 -0.02024208 -0.0099336505 0.0061295 0.010487633 0.019370304 0.00056723424 0.007995383 0.008549745 -0.019717189 -0.019817587 0.0024552403 0.0040539657 0.030917512 0.017492462 0.014405817 0.024975087 0.0026182556 -0.015314606 -0.006666004 0.014101076 -0.011366755 0.0027276855 -0.027031314 0.02303705 0.017222133 0.024344496 -0.021664282 0.0062628235 -0.0048543783 0.019182215 0.008068773 -0.03802215 -0.004024194 0.028095823 0.0062979073 0.024023132 0.0010255802 -0.030648405 0.009416945 0.0062662265 0.031500727 -0.048670672 -0.008039038 -0.004724015 0.011045072 0.0011735387 -0.01764657 -0.050453532 0.006433874 0.00016320529 -0.001038019 -0.002168761 0.016099203 0.014032996 -0.0065116505 -0.0076870844 0.0007380775 -0.019313267 -0.016156746 0.012468171 -0.018911863 -0.015227317 -0.01094659 0.006371702 -0.02501534 0.025633458 -0.013744844 -0.00708644 0.018285582 -0.0095036235 0.0018045484 -0.014797928 -0.046419572 -0.010387351 0.016980112 0.0020908962 0.0018963816 0.020801395 -0.0074025956 -0.0053363517 0.04816438 0.03456266 -0.008887122 -0.014535147 0.013060911 -0.0029865527 0.0015864333 0.04692709 0.007853723 0.0009917578 -0.015871046 0.012803861 -0.011192827 -0.037087515 0.021620907 0.028825346 -0.0131900655 0.00029962955 -0.0050724857 -0.010421818 0.010992186 0.0029020323 0.009565529 -0.0025014349 -0.013738831 -0.042510085 -0.016905727 
AU9BPT3Y3K6J4	0.0031659603 -0.0013876335 -0.00011470496 -0.006406714 0.005542899 -0.0066116103 -0.009459887 -0.001486881 -0.008223626 0.0067992453 -0.0032886288 0.0007767069 0.00096403755 -0.0028936346 -0.0034962904 0.004504289 -0.0014890783 -0.0039987094 0.0005459219 0.0037656955 0.0010845735 -0.006736706 0.005521757 -0.0022917883 0.005678823 -0.006361199 -0.0019341214 0.007252144 -0.00503439 0.0014412446 0.00018619696 -0.005540789 0.0021550828 0.0001699215 0.0033306752 0.0010104344 0.0057490617 0.0094721895 -0.0047200774 -0.0052402094 -0.0023400928 0.00019242862 0.0011655628 0.0027914557 -0.0036695076 0.004564244 -0.0037335737 0.00083220616 -0.0020086465 -0.007702611 -0.00022859074 0.003350768 0.0015865379 0.0030785908 0.0058313413 -0.0031904716 0.0033525408 -0.0054395963 0.01024227 -0.00265783 0.0010149558 -0.00068097294 0.007093068 0.01297589 -4.49314e-05 0.000683107 -0.0019004699 -0.009785155 -0.0023475518 0.002684685 -0.002161568 -2.1929285e-05 -0.0043206494 -0.0015387539 0.0030003833 0.0065935543 -0.0004763507 0.0013935823 -5.8161713e-05 0.000819386 0.002621353 -2.0036496e-05 -0.0014190496 0.00052548316 -0.009285001 0.005584464 -0.0067718024 -0.0018635604 0.0008241817 -0.0010205809 0.00055252615 0.0007353529 -0.0006424318 -0.0037927316 -0.007121199 -0.0048152152 0.002897762 0.0013820603 0.0019609763 0.0105481185 -0.001286513 0.010294935 0.00017947204 -0.00048973155 0.0007286302 0.0010423746 -0.0056138127 -0.005499846 0.00472445 -0.004525502 -0.0005376286 -0.0054812995 -0.003432513 -0.0024625286 -0.0059555834 0.0014698184 0.00062557583 0.0007119155 0.0049803364 0.0006857426 0.0060041435 -0.004606552 -0.0056621367 -0.0027324837 0.00059928035 -0.0012095354 -0.00038521364 -0.0068240534 
A3775OP5VTX5ON	-0.001199912 -0.019845562 -0.023552699 0.011108587 -0.014350452 0.0710345 0.054663967 0.012037397 0.03779119 -0.031368975 -0.008110016 -0.073818184 0.047496215 0.03957742 -0.015465455 0.05899483 0.08916103 0.036702476 -0.003595384 0.022164645 -0.03299626 0.028456926 0.0039175586 0.03406741 -0.01242115 0.028902907 -0.004451498 -0.059127774 -0.007924014 -0.037995357 -0.037528664 -0.0026828602 -0.024457945 -0.01143104 0.0060618958 -0.059476927 0.02398324 0.029897815 0.05026296 -0.0005766467 0.007452727 -0.009899314 0.020666275 -0.026580978 0.021427905 0.028616816 -0.038509097 -0.015503198 0.03749535 0.035400152 -0.041954853 0.052698694 -0.06987649 0.017017389 -0.04445915 0.040562604 0.020715808 0.025669843 -0.018344823 0.035824347 -0.035641946 -0.0473068 -0.09448667 -0.06402492 -0.0250076 -0.0004589305 0.012216432 0.008968043 -0.022301586 0.0024300464 -0.0024481788 8.871626e-05 0.00017974741 -0.026461301 -0.018149111 -0.045567103 0.00515389 0.043789078 -0.004618657 -0.016637165 -0.019612385 0.01090567 0.030478926 -0.02814333 0.010193338 -0.024557613 0.047255125 0.002375993 0.00063017313 -0.009576384 -0.017959224 0.047754463 -0.03187369 -0.011761179 -0.01922671 0.013053828 0.007941754 0.010605523 -0.03213671 -0.026367623 -0.05492735 -0.031788114 0.049515914 -0.03175881 -0.01463959 -0.025136707 0.036644198 -0.042215355 0.04192982 0.03532969 -0.035396226 -0.0038918743 0.041080695 -0.014769414 -0.008697999 0.0012337528 -0.012845264 0.050585076 -0.023964176 0.0055719637 -0.037909333 -0.049338277 0.017939847 0.0010258253 -0.027394202 -0.009421122 -0.046588596 0.05318012 
A3347V0SDFHQBA	-0.015602221 0.022074245 0.031606477 -0.0073018046 -0.0032889773 -0.0034061354 -0.0026223308 -0.0070650503 0.008363502 0.014983306 0.029811611 0.021735938 -0.009211598 -0.005489261 0.005558632 -0.03224675 -0.0450623 0.0049591353 0.010488579 0.007036492 0.011695136 -0.009006011 0.0034391303 -0.0022949374 0.019488713 -0.02621036 -0.013351188 0.024230773 0.013206758 0.0051857773 0.037263956 0.012030328 -0.007695742 0.00874778 0.015220478 0.04110997 0.0069128266 -0.024111746 0.0034207634 0.010144228 0.0011266479 0.006414824 -0.0008105079 0.0184175 -0.001112469 0.00030369102 -8.038199e-05 0.018724533 -0.008419606 -0.004351453 0.018327031 0.007360192 0.005511031 0.003930041 0.013606157 -0.013617946 -0.015158319 -0.013352812 0.005315836 -0.024287108 0.011626605 0.0015145617 0.020946471 0.017337175 0.0027176891 -0.0030681565 -0.008892044 0.0077219084 0.017281845 0.024260497 -0.012111083 -0.019286502 -0.016734546 -0.012599845 0.002671979 0.034885272 0.019166114 -0.0032768678 -0.005139255 0.00071290386 -0.009795151 0.031140367 -0.01809221 -0.0058173947 -0.022386445 0.008799091 -0.02411047 0.007882279 -0.0008207821 -0.02090102 -0.0016626702 -0.01053986 0.0071080853 -0.0045677354 0.002413734 -0.017763222 0.003446323 0.009702732 0.013041028 0.015253843 0.0045974026 0.012517306 -0.0020414004 0.0051755365 0.005299351 0.019400124 -0.025418185 0.0016485176 -0.02500563 -0.0017270129 -0.017678164 0.02769951 -0.016435856 0.020442784 0.0019802283 0.016327797 -0.0075575635 -0.019600797 -0.0069993706 -0.0227121 0.03980514 0.03401164 0.0024158158 0.007595223 0.012191167 -0.017020918 0.015054217 -0.020295044 
A2BZQNBV8UDZ2C	0.00024493787 -0.0059452704 0.00474272 -0.006664881 0.006284179 -0.0071023996 -0.005048742 -0.0063389223 -0.0029276528 0.0037252603 -0.0037423854 0.004450472 7.807517e-05 -0.0012621245 -0.0058831517 0.0034524603 0.014875286 -0.0009622822 -0.0046014804 0.0043021333 0.0028437276 -0.006374639 -0.00013006724 -0.009589397 -0.007491716 -0.00496545 -0.0032433763 -0.0047458904 -0.0065126517 -0.009538509 -0.0032016342 -0.004696282 -0.0020522366 0.00023173678 -0.0036599028 -0.0059038727 -0.011231648 0.014296924 0.008149528 0.0076806853 -0.005848361 -0.0049719904 -0.0019301738 -0.0059733116 -0.0005550567 -0.0035772168 0.00400493 -0.0073737116 -0.002942941 0.004490746 0.001891866 0.0035007661 0.009838501 -0.0021582146 -0.0042078337 0.0061175325 0.006497012 -0.009924218 0.006393723 0.005759039 -0.0018534241 -0.01148359 -0.008249769 -0.008583014 0.0002063419 0.0021077306 -0.008590231 -0.009083648 -0.005250329 0.0035571028 0.013519944 0.011413794 0.002800469 -0.008784596 -0.005385214 -0.0026678774 -0.0008490294 0.0034271055 0.008376357 -0.00040659163 -0.0024694828 0.008786458 0.009076202 -0.0053288983 -0.015720973 0.007186111 0.0035656681 -0.006442523 0.0033199321 -0.002071327 0.008225152 0.0049627726 -0.005521674 0.006902594 -0.009289375 -0.003176229 -0.00787998 0.0010478409 0.0051766117 0.0059405477 0.0019106806 0.008081628 0.001805805 0.0023972301 -0.0032188394 -0.007437508 -0.002857797 -0.0030843385 -0.0020548198 -0.0010406291 0.007612948 0.004404031 -0.0070504965 0.0022278249 -2.8459744e-05 -0.0063996008 -0.0021270534 -0.003067954 0.013650567 0.010543933 0.0075279195 -0.0010420658 -0.004580363 0.0006979505 -0.0060840873 0.009719125 0.00043746128 -0.0052366415 
A109JTUZXO61UY	-0.0063544465 0.0031701461 0.0068343566 -0.0019295617 -0.0058557885 0.003859249 0.01145977 0.003413582 0.009129327 -0.00078000873 0.008061529 -0.008087558 0.006753646 0.0026575415 -0.0051956256 0.0075938883 0.0020518715 0.0047259233 -0.0007296521 0.000487356 0.000146378 0.00052617217 -0.0016752678 -0.0002652985 0.0028619457 0.007836196 0.00668287 -0.004289704 0.0038365044 -0.005995229 0.0008147993 0.0032772499 0.0036500262 0.008008179 0.0120494105 -0.0020791097 0.0017294523 -0.0008160767 0.003241758 -0.0003206232 0.0021598195 0.0001896989 0.00463925 -0.004029341 0.0043726834 0.003718227 0.0031465043 -3.3639656e-06 0.007933216 0.00014672607 -0.00037990182 0.0073629 -0.0050250366 0.0030863322 0.0010612106 -0.002550057 0.00037411376 0.0011491715 -0.00379589 0.0039388034 -0.0001636408 -0.0026295143 -0.014349746 0.0011914816 -0.0029698557 0.001615855 0.0005780873 -0.0006314179 0.004887759 0.008315563 -0.0012400465 -0.010699198 7.9959056e-05 0.0018668751 -0.0024811258 -0.0014406001 0.005994398 0.0074412706 0.0070604114 -0.0048263553 -0.006034136 0.0042859684 0.0018250606 -0.0059045046 -0.0012194633 -0.003178462 0.008861571 0.0066973725 0.0014505843 0.0031559076 0.00031502362 0.00065423857 -0.00277074 -0.002588415 0.0015486783 0.0039006753 0.0025146976 -0.0052855266 0.0009677009 -0.004625036 -0.005033571 -0.0007460739 0.0025473963 -0.00053677056 -0.0010046847 0.0027306012 -0.004048895 -0.0030007504 -0.00010625083 0.007962596 -0.008746864 -0.0011256908 0.0054086144 -0.001456421 -0.003233414 0.002237952 -0.0031891942 0.0015323743 0.0037680008 -0.005311635 -0.011048788 -0.0033515089 0.0054732864 0.0027637512 -0.002464102 -0.0016027497 -0.0037454756 0.0007764643 
A2IROAVGAK1G0S	-0.00079673534 0.0054749115 0.012747752 0.0069771083 -0.0037006564 -0.005968524 0.0057264394 0.010335347 -0.0026948252 -0.005886918 0.006073131 -0.009390518 0.0041598417 0.011079733 -0.0020140808 0.0009295586 0.003530887 -0.00034075594 0.004325169 -0.009151251 0.0057447082 -0.0027870622 0.0023941642 -0.008476899 0.0065133898 0.0050951955 0.006344707 0.008787278 0.004552737 -0.00021038033 0.0027360397 0.0038137839 0.0037414273 0.0030996765 0.010918785 0.0030584736 0.009376575 -0.00383861 -0.0002398948 -0.009129441 0.010744719 0.006398058 0.00041132042 0.0038489555 0.0044455235 -0.0046603275 0.0002615933 0.0032699695 0.0018607004 0.00017750611 0.0007394655 0.013937538 0.0046990644 0.0036364286 0.016820295 -0.0046504717 0.0011562769 -0.0045237574 -0.0028114358 0.0018066143 -0.0072363247 0.0027819693 -0.006719301 0.009448512 -0.003687278 0.009166812 -0.008140331 -0.0019215062 -0.0024274075 0.013384606 -0.0048743044 -0.01576094 -0.014156672 0.0016113614 -0.00054904836 0.014309458 -0.0019355582 0.0016808071 -0.0025799708 0.0018870463 0.0025694466 0.009983737 -0.008212112 0.005402142 0.0056955433 -0.0074375467 0.0017034825 0.0019272149 -0.0077005173 0.0017413984 0.00069996197 0.0013108182 0.0059547042 -0.009050514 -0.005429922 0.004115355 0.0008464561 0.0010854325 0.005524964 0.0006437754 -0.0018850797 0.009476724 0.0014897567 -0.003405141 -0.0024807826 0.0056668054 -0.013793472 -0.0024514194 0.011743929 0.0074923844 -0.0072352043 -0.0037572978 -0.00040382528 -0.014608241 -0.012619917 0.004776297 0.0041001015 0.006337011 -0.005628494 -0.0052532353 -0.0045157913 -9.2984046e-05 0.0051648933 0.0018499849 0.00030531362 -0.012511534 -0.0064841867 0.0056839087 
A3DCG2MNPR4BW	0.0046210415 -0.005722263 -0.001541829 -0.006620967 -0.004067222 -0.0063422127 -0.0051814397 0.0055106413 0.0010335513 -0.0056391037 -0.0056556924 -0.0013356684 0.005633355 -0.0031833886 -0.006027758 0.005568632 0.007972211 -0.0006165842 8.484161e-05 -0.004529125 0.0002423382 -0.0068090814 0.0032337257 -0.0024135185 0.00061523117 -0.00087604654 -0.0027523115 0.0023766148 -0.0016642236 -0.0004456573 -0.001769719 -0.0007953722 -0.00019508677 0.0046677114 -0.0030513448 -0.0006334028 -0.0035196198 0.008682742 0.0023484104 -0.0006658696 -0.0027111757 0.00018933234 -0.0007698758 -0.0035902758 0.0050115427 0.0019326049 0.002777003 -0.0077640056 -0.00090182055 -0.0014925215 0.0034548729 0.009279643 0.004429665 -0.0059421733 0.0010460876 0.006368856 0.0004050372 -0.008388395 0.0027560827 0.00018885655 -0.00051541155 -0.004072958 -0.0069989613 -0.0010948937 0.00012474222 -0.0011447476 -0.006533428 -0.007301135 -0.0042157765 0.004577775 0.0036495752 0.008922463 0.0053424262 0.0026908517 -0.004364355 0.0035383203 -0.0017475721 0.0018416671 0.004735502 -0.0011897706 -0.0047836797 0.00022043523 0.0035498878 5.6189445e-05 -0.0076214024 0.001568918 0.007303547 -0.0033971388 0.0003580631 0.0045149904 0.0005040359 0.00767274 -0.0033254551 -0.003274411 -0.0028667836 0.0025685024 -0.004422403 0.0024492308 0.0004432207 -0.005847201 -0.0031613987 0.011556225 0.0063155433 0.003531167 0.0008221592 -0.0014890139 -0.0013009267 -0.0031065634 -0.0028240846 0.00029013213 0.005241996 0.00011878593 -0.0011469336 0.00092027395 0.0022746616 -0.0059081 0.0036263894 -0.003106812 0.010092254 0.0038837201 0.0051412513 -3.8569287e-05 -0.0012432715 6.388601e-05 0.00012890606 0.0039417576 0.004867218 -0.0010555059 
A4BTCECGQAIUI	0.0014781543 0.00040546476 0.0047971285 -0.020207252 -0.0005041973 -0.029629154 -0.019417254 -0.010322481 -0.0033973388 -0.009355066 -0.0195916 0.019531239 0.020443141 0.0077278404 -0.0010138054 -0.0046437513 -0.008160048 -0.01513784 -0.0016903409 -0.0030179129 0.00080278475 -0.029792799 0.0012242362 -0.021060348 -0.0077354372 -0.010583355 -0.01097986 0.009181891 -0.0036067625 -0.003516894 -0.0049978863 0.0018587651 -0.019662386 0.023620382 -0.010445387 0.00955971 -0.002419642 0.03232492 0.01477622 -0.0009847913 -0.013181121 -0.0041906987 -0.023303088 0.008023014 -0.010695062 -0.0037651747 0.0016148534 -0.033537604 -0.010101838 -0.0050505437 0.0029654475 0.024984693 0.0042971144 -0.007005477 0.015453765 0.0041308054 -0.0071652033 -0.037972696 0.003071847 -0.008878734 0.0056477874 -0.0028761167 -0.00081124244 -0.0038974034 0.012961067 -0.009074428 -0.009902852 -0.033024088 -0.017654844 0.019543894 0.006731616 0.04556126 0.008069655 -0.0039298977 0.0028837777 0.004465828 -0.00737613 -0.008923118 0.0041271355 0.008181332 0.0021975532 0.010922601 0.01807109 -0.027203344 -0.02744203 -0.01692159 0.0040243384 -0.008968191 -0.00048039833 0.015393236 -0.0031407962 0.017584326 -0.01559303 -0.009610741 -0.005310884 -0.011025884 -0.0061143506 0.00022496154 0.029155124 -0.010967346 -0.012576193 0.046770047 0.016477456 0.0016348956 -0.01102236 0.012896165 -0.0039613657 0.008559953 0.012662896 0.011345388 0.011250032 0.015615359 -0.014436579 0.013739679 -0.010154643 -0.019216785 0.0018554967 0.0032398284 0.025438685 0.026768804 0.0065015084 0.005966349 -0.008336746 0.016452253 0.000544459 0.007171781 0.0063671353 -0.017323913 
AI9PZHPNTKPI	0.0019719019 0.0023720122 0.008385371 0.009014939 0.010780563 -0.0054043704 -0.0015556038 3.0113792e-05 -0.009603641 0.006794669 0.00415759 -0.0022421 -0.008143168 0.00071020244 0.005369849 -0.0037101698 -0.014982512 0.0017393392 -0.0058608707 -0.003152134 -0.0018626894 0.00439826 0.0070333676 -0.00086689915 0.0037540698 -0.013885047 0.00038755758 0.004238573 -0.0047700075 0.0050600576 0.009216682 0.0033544817 0.0037903702 -0.0048616184 0.0037735093 -0.0011562448 -0.011429442 -0.0053796493 0.0078031975 0.0057944916 0.00064029434 -0.0065555978 -0.0046791947 0.0023526242 0.0014130531 -0.0039797896 0.003622733 0.0058646025 -0.0021379774 -0.0012989716 -0.003069211 0.006048239 0.015228377 0.005994973 -0.0012775981 -0.0027295582 -0.0041408534 0.0013386589 0.013610881 -0.004803017 0.006979061 -0.007432139 0.010626354 0.0007247872 -0.0036210474 -0.0013917941 -0.0020632627 0.0038841036 0.010872976 0.006276145 0.008519523 -0.0058142673 -0.007935778 -0.0054427185 0.00053014385 0.0066039287 0.0018862004 -0.009462548 0.012338336 -0.008917978 -0.002235205 0.0111186635 -0.007938484 -0.0037825713 -0.0048901592 0.0125095835 0.0037113936 0.004779412 -0.0013574231 -0.0072937696 -0.0072106603 -0.0051271436 0.0051696682 0.0056291292 -0.0059483903 -0.0036423428 0.012747544 -0.002722062 0.0031796745 0.0041768826 0.008282836 -0.0052215955 -0.0035726873 -0.0031013559 -0.00216945 -0.0045767277 -0.008795253 0.00038748368 -0.008770198 -0.008135913 -0.002109591 -0.0024443003 0.0038099077 -0.00100519 0.0018181518 -0.001636812 -0.005216838 -0.0015139562 -0.009217989 0.0035352986 0.0030096355 -0.0058374535 -0.0016378243 0.006915351 0.0017427519 0.001918754 0.009875001 -0.0020244296 
A3IVULXGE2PB43	-0.0121594975 -0.0066794166 -0.03774838 -0.026201895 -0.0022455854 0.023876954 0.0076782936 -0.015207632 -0.00610636 0.001970362 -0.015289122 -0.016256064 0.019513052 0.014104194 -0.005779997 0.020975402 0.023878707 0.025021365 -0.034140036 -0.012955841 -0.010004066 0.013559217 0.0074460753 0.004017527 -0.009576249 0.013538547 0.03259897 0.00063074956 -0.006341513 -0.004016008 -0.008626296 0.012701463 0.0015287099 0.005773765 0.037728727 -0.03397853 0.0066403537 0.025982123 -0.0062970906 -0.008394358 -0.009798294 -0.015669802 -0.026132338 -0.0086758835 -0.002366692 0.007860681 -0.006641708 -0.012027389 0.010444817 0.01687257 -0.012115179 -0.00148946 -0.015075842 0.025183955 0.0029761414 -0.031318247 0.008529133 -0.011076819 -0.017061887 0.03547724 -0.022642659 0.008607348 -0.028179558 -0.024975762 -0.005541096 0.018712679 0.016704615 0.0039758906 -0.017786324 -0.02396846 -8.049206e-06 -0.0068898206 0.0055191945 0.019231793 0.0041366383 -0.014636443 0.011834831 0.0077882623 0.01187245 -0.0019059078 -0.0066049704 -0.0130810775 1.3461934e-05 -0.009618855 -0.022109145 0.00046024148 0.0286419 0.0064953696 0.0044473195 -0.017701596 0.031099373 0.0049248203 -0.015017817 -0.0013772792 0.03070013 0.006150963 -0.0033694557 0.009631027 0.024212318 -0.012874794 0.0014238458 -0.005052192 -0.011241891 -0.00044678128 -0.013659708 -0.013840801 0.017439185 -0.0030668923 0.029674102 0.037211556 -0.019323006 -0.012348176 0.029429771 -0.011017544 0.002700209 -0.014752958 -0.004170479 0.012031776 0.016981913 0.023984559 -0.017184462 -0.030023165 -0.015356094 -0.028918425 -0.0022624996 -0.006442246 -0.02502015 0.029272059 
A1N46MR82AUE4T	-0.0023287763 -0.005558932 0.001996161 -8.545981e-05 -0.004030256 0.0035514708 0.003914847 0.004556119 0.0013388892 -0.0016930132 0.0006667039 -0.0012161918 0.002568294 0.001062066 -0.0013661565 -0.0012008225 0.003696443 -0.002102724 -0.003143958 0.0033545105 0.0012155273 0.0013711037 0.00042571238 0.0017537858 0.0017856132 0.0032584602 0.007309231 -0.0024395308 -0.0018585362 0.003808909 -0.0023235527 -0.0003313465 -0.0047684354 0.0021694999 0.0021702705 -0.0026062627 0.0016066566 0.0032885708 -0.0025206273 -0.005410997 -0.0016315639 -0.0009674396 -0.004584267 0.00141828 -0.0017065838 -0.0042807925 -0.0046608644 0.0029105085 -0.0032991767 -0.0017966711 -0.0037761612 0.00064316293 2.3619581e-05 -0.0044396617 -0.0014821639 -0.0016525476 -0.0005747808 -0.0012069747 -0.001329829 0.00196687 -0.0016687756 -0.002334646 0.000633773 0.0021803589 -0.005244014 -0.0050171884 0.0014616451 -0.003842356 -0.0028307938 0.002679077 0.0034763094 -0.003016202 0.002858382 0.0028448985 0.0024664328 -0.0016464893 0.0013575153 -0.003534249 -0.004489487 -0.00013566806 -0.0021130235 -0.0014792272 0.0043637417 -0.0005202152 0.0013451744 -0.0051023103 -0.00042902978 -0.0015444731 -0.0015612184 -0.0018123005 -0.00033828669 0.0010120707 0.0037798965 -0.0018833915 -0.00086438534 -0.0014944414 6.318519e-06 -0.004669228 0.0025727963 9.441318e-05 -0.0019035267 -0.0033196644 -0.0010010503 -0.003004386 -0.00048937206 -0.00037374793 0.0022667083 0.0027577097 0.003933996 -0.0015389546 0.005204053 -0.0027412246 -0.002181715 -0.0015088471 -0.0070150034 0.0042943545 0.0025729907 0.00032423084 0.0014996512 -0.0053514 -0.0015174185 -0.002295934 0.0045576985 0.00024570487 -0.0026758816 0.0019768677 0.00081840256 -0.0017063341 
AEMC16IPBZORW	0.0044013993 0.012477912 0.014647307 -0.0030696962 0.011299672 -0.0010459949 0.0063739372 0.0028643627 -0.015063148 0.006186694 0.0075601856 0.013820834 -0.016947186 -0.01628777 -0.0068610776 -0.0093298545 -0.0004110149 -0.00035285705 0.0025215023 -0.00833137 0.014454983 -0.0054893903 -0.0070602503 7.691905e-05 0.0105681075 -0.0068816557 -0.0008515704 -0.0022069672 0.007094615 -0.01009055 0.0008991781 0.0046583763 0.0052413857 0.0021820327 0.009733264 0.03202596 -0.0034608815 -0.0186431 -0.018131854 -0.0038804845 0.009565861 0.014040748 0.008433349 -0.010087629 0.0023302238 0.0055420706 0.0026849452 0.017097741 -0.017799798 -0.0026654901 0.021462293 -0.019294484 -0.0010785761 0.01060208 0.01233748 -0.0091196485 0.00079253723 -0.0019791245 0.0042010345 0.005621253 0.0066971397 0.008086809 0.0069124065 0.012069059 -0.0031268238 0.006754789 0.00268265 -0.008692993 0.019586936 -0.0134283295 0.00278543 -0.010990664 0.00033294217 0.0039286944 -0.0043485546 1.5963136e-05 0.009219516 8.85173e-05 -0.004225736 -0.0060025332 0.006040384 -0.008629263 -0.013814746 0.01577316 2.5220592e-05 0.023003917 -0.012459966 0.00917233 0.006438187 -0.0023628308 -0.0036951206 -0.02520785 0.004480517 -0.007976014 0.0056660026 0.00027451626 0.009590339 0.005374423 -0.0015680202 0.026996125 0.005341677 -0.0010774046 0.0027479467 0.008186722 -0.0026314773 0.012141877 0.0011812656 -0.0034973382 -0.030275235 0.008805854 -0.0012365469 -0.001944002 -0.0017767634 0.0013837394 0.007588641 0.01154639 0.008650745 -0.010574196 0.0056970767 -0.017822176 0.009166914 0.016458217 -0.005828269 -0.011219724 0.012815817 -0.0001635072 -0.016212434 -0.0030658485 
A1WJVU9KICHFI	0.0019867485 -0.0033526274 0.012960097 -0.0036901464 0.0073274225 0.008952465 0.00785439 0.004098365 -0.0029475407 -0.009738399 0.013900444 0.009873517 -0.010360423 -0.0022473126 0.004966274 -0.011007084 -0.01601247 -0.004324687 0.005429797 0.00663881 0.0032558863 0.0136166345 -0.0008528926 0.0033676922 -0.0030472768 -0.013479588 -0.009722906 -0.015770672 0.0004265057 -0.004292144 -0.004181316 0.0033784122 0.005743093 -0.015390921 0.0012085352 0.031029038 0.0054184087 -0.0013734561 -0.0041330582 -1.4228036e-05 -0.0028607883 -0.0041993014 0.011724503 0.0023310026 0.0102136675 0.010291456 -0.006402333 -0.001581434 -0.013543919 -0.016276157 0.0056389696 -0.009351157 -0.0109973075 0.0005083828 0.0064256764 -0.0037803948 0.0030416457 0.008905352 -0.0011366747 -0.006615119 0.001998752 0.0006381042 0.012892679 -0.0030094602 -0.0024202513 -0.004142214 0.015629912 -0.0023135585 0.01732719 -0.0050762664 -0.0003956442 0.0011826343 0.008729523 -0.0060290024 -0.01598396 -0.0022040468 0.001992082 -0.014986247 0.006566811 0.0055564996 0.009693929 -0.005942311 0.0014874212 0.0101834005 0.005435732 0.010019047 0.00055548316 0.008288333 0.008827888 0.0019060523 -0.013031264 -0.0042488095 -0.0047975327 0.014182502 0.006347383 -0.006106609 0.0012630549 0.0007683816 -0.011217589 -0.004437128 -0.0035566157 -0.0051719905 0.0010760593 -0.004937437 0.0023378627 0.01160556 0.008675879 0.005495141 -0.016054198 -0.0050659277 0.0055961637 -4.0452087e-05 -0.0017498409 0.0013817014 -0.0016239538 0.012558078 0.0036125428 -0.003824794 -0.01186033 -0.014161961 0.0008583924 -0.0071667796 -0.01401526 -9.156533e-05 -0.006586077 -0.0025056573 -0.009607119 -0.0056725964 
A1CL807EOUPVP1	-0.009748329 -0.0012341571 -0.014164886 -0.009699579 -0.007010234 0.0022447691 -0.013736835 0.0023009928 0.005705882 -0.0016405521 -0.0015860434 -0.0013563208 0.0092338575 -0.0028230608 0.0029602714 -0.001375499 -0.0024284779 -0.00097544695 -0.004339389 0.010089214 -0.0034676243 -0.0077022603 -0.0011304356 -0.0025366594 0.0028340234 -0.005391332 -0.0032891831 -0.0054023587 0.0066930326 -0.006862588 0.004217495 -0.00086302776 -0.0037478036 0.007335609 0.005853854 0.011327998 0.0020402316 0.0036880558 -0.012948663 0.007906209 -0.00075056066 0.012469702 0.007711722 0.001093103 0.003627354 0.0015768373 0.0012556425 -0.0040721474 0.0026395253 -0.003072769 0.002827187 0.0048554176 -0.016057113 -0.0014469178 0.0004995583 -0.0062689795 0.0040974882 0.0031713096 -0.010786286 0.001354745 0.00047528534 -0.006432661 -0.01182648 -0.0040573613 -0.003589737 -0.010610161 0.009200855 -0.013002246 -0.014165537 0.010600385 0.0006760804 -0.0048872475 0.0013183912 0.0072573763 -0.0037861455 0.0067421375 -0.0059924214 0.00533172 -0.008800009 0.0073818415 0.003145664 0.009285211 0.002505022 -0.006569552 -0.004325039 -0.007845018 0.005770052 -0.006439715 -0.0064839907 -0.0017280515 -0.0045535984 0.005359884 -0.01871211 -0.012707189 0.002268008 0.004981517 -0.009635027 -0.0021595184 0.002981639 0.003755401 -0.011245142 0.0045132656 0.007105044 -0.0026718685 -0.0049451045 0.0022544293 0.006190895 0.0028101825 -9.2542134e-05 0.009514035 -0.007406955 0.007855717 -0.0080571715 0.0075975223 -0.0014064347 0.009503528 0.004566928 -0.008512068 0.009144638 -0.0013168454 0.008505971 0.0019914103 0.0035788354 -0.007019836 0.003583118 -0.003797959 -0.0076126833 -0.008334824 
A1NN5S1D0ZTK6W	0.0028211058 -0.014006612 0.002083852 -0.0025201156 -0.008008283 -0.00728925 -0.012582131 -0.0043332307 0.0037871513 -0.008367797 -0.0041031535 0.005381309 0.005916902 -0.0075390297 0.0025707602 -0.0029034503 -0.0035447187 -0.0006964152 0.002201653 0.0069887713 -0.0015729527 -0.008327095 -0.00031339165 -0.009232095 -0.013618262 -0.00406651 -0.00046770397 -0.009235861 -0.009608393 0.0047549503 0.0033119419 0.0037478502 -0.006901673 -0.0010516607 -0.011193864 0.009215637 -0.006269638 0.011666729 0.0089244805 0.003258694 -0.002118475 0.0008354605 -0.008130371 -0.0017591129 7.762271e-05 -0.0119478945 0.0034256158 -0.014110328 -0.009079285 0.0016279224 0.002410935 0.0064260834 0.0043624514 -0.012092723 -0.0023531548 0.009892703 -0.004242985 -0.012886376 -0.004537807 -0.0010180856 -0.0012726883 -0.01428728 0.000949304 -0.014507127 -0.0028348581 -0.009263238 -0.008702211 -0.0039549097 -0.0034871562 0.009013418 0.013924608 0.013918936 0.011993452 -0.00059994543 -0.005022798 -0.0011474527 -0.0016712078 0.00036305035 0.010894258 -0.0015496237 -0.000634754 0.016313976 0.015175039 -0.009444648 -0.013184377 -0.010851881 -0.0046583707 -0.007664235 -0.0032941801 0.00093149865 0.00017277268 0.004113392 -0.0060855523 0.0068161157 -0.0012180014 -0.0045143627 -0.008951854 -0.01311134 0.009363293 -0.0013406936 -0.007071009 0.009351544 -0.0037562374 0.0044833976 -0.00050061505 -0.00047838854 -0.004201513 0.0005957919 -0.0052817008 0.008124003 0.007879885 0.007971366 -0.002002715 0.0015037553 0.0036450664 -0.0024029128 0.0014910791 -0.0039197737 0.0062979273 0.0102625545 0.0058234106 0.0050214687 -0.0037452304 0.010878423 -0.010454173 0.0014029735 -0.002153027 0.0025491933 
A1P42OZ1MCNAHE	0.0020911829 0.002423229 0.00016147499 -0.0046022963 -0.005382226 -0.0027439466 -0.006009754 0.00482746 -0.0015564847 -0.01057097 -0.00058328273 0.007242734 0.0053756023 0.001378708 -0.0008004413 -0.0018177025 0.0073338873 -0.0053638583 0.0076389625 0.009233621 0.006290137 -0.004920037 0.004521028 -0.0038142905 -0.002650604 0.00063483673 0.010480918 -0.0030707764 -0.004010908 0.004036487 -0.0031421666 -0.0006212034 0.0006687006 0.0008222344 -0.0021237342 0.0060050394 0.0038428814 0.0008308685 0.0017010531 -0.0061467467 0.0039895326 0.0033532383 -0.00228151 -0.00308648 -0.0011612256 -0.0046963077 -0.0019952194 -0.002062147 -0.00087758084 -0.0006026227 0.0023320613 0.0011823421 -0.0030027153 -0.0047409264 0.005613279 -0.002701732 0.0028063813 -0.0014876282 -0.003293904 0.0079197865 -0.0028284406 -0.0033264481 0.0022582472 0.004273218 -0.0026351006 0.0015030076 -0.005168323 0.00015879235 -0.007519098 0.0031019817 0.0016772565 0.0008201288 -0.0039139455 0.009472641 0.002693533 -0.00027327085 0.004965231 -0.007549788 -0.004797269 0.00395458 0.0048597376 -0.0022444404 0.0035688083 0.0080406675 -0.002694781 -0.0045544016 -0.00088523823 -0.0012619795 -0.006484694 0.0062827165 -0.0037633567 0.0020250475 -0.0030052785 -0.00026307895 -0.004534704 0.004168886 -0.005012328 -0.0066480194 -0.0050369827 0.004300153 -0.0019554687 -5.153415e-05 -0.008526016 -0.0023942408 5.8259666e-05 0.0010121368 -0.0009779196 8.139108e-05 0.0060856994 -0.0028094137 0.0032008812 0.002382339 -0.0022762618 -0.0021494972 -0.005569084 0.0053243423 0.003410584 0.00096424634 -0.0056050313 -0.0033110846 0.0022772355 0.0031956856 0.0032916674 0.0024973813 -0.0038961961 -0.004187741 -0.0062123 0.0010065526 
A2UYE434RFINE	-0.00038844344 -0.0030268126 -0.00063562853 -0.0059958333 0.0031961186 -0.007897983 -0.009563986 0.002420353 -0.0018420147 -0.0059966543 -0.007481175 0.0020155017 0.0029846246 -0.005375405 -0.0017855584 0.00357094 0.003985942 -0.0022025183 0.0013857468 0.0010316028 -0.005413504 -0.0072766854 -0.0017053562 -0.004791504 -0.0047293664 -0.0019601546 -0.0034707552 -0.0005343381 -0.0058193184 -0.0041233534 -0.0030929872 -0.0015231216 -0.004814976 -0.0026198623 -0.0024330667 -0.0027457688 0.0022690562 0.0076500145 0.002731552 -0.00081498415 0.001612359 0.0039946805 -0.0064180875 0.00013023366 -0.00092597725 -0.003131804 0.005893463 -0.0060578147 -0.002121645 0.0018017163 -0.0022927143 0.0082052825 0.0061451998 -0.002802471 0.0013745535 0.00815756 -0.0025254914 -0.005638525 -0.003791726 0.0028054924 0.00096314197 -0.0008768227 -0.0021684575 0.00020319264 0.0028837752 -0.006797006 -0.007824441 -0.006791229 -0.00731126 0.0075297263 0.004395843 0.0026203382 0.007166756 0.0027370567 0.0028530348 -0.0004143483 0.00065251807 0.00044155063 0.0038256848 -0.0028997909 -0.00012203684 0.0025034656 0.00040853693 -0.0032596898 -0.005277758 -0.0015081649 0.004665423 -0.0009423354 -0.0029798117 0.0026904878 -0.0040202457 0.0092748245 -0.0030758749 -0.0005567438 -0.0072013144 0.0031880043 0.0013137185 -3.8337148e-05 0.0018858999 -0.005789228 -3.371651e-05 0.0033034533 0.0024827851 -0.004898997 -0.0032274097 0.00078747026 0.0016743364 -0.0029477102 -0.0036769053 0.00025345958 -0.0007378255 0.0017901079 -0.0030820558 0.000355932 -0.0030661754 -0.0066320077 0.002574435 0.00043242963 0.0024963734 0.0050207586 0.0037611052 0.0019247268 0.00067235203 0.0039396575 -0.000101344565 -0.0018317393 0.0056122765 -0.0025492723 
A1Q3YZOVFXRKDZ	-0.0015388273 -0.004050244 0.00013817115 -0.0052984506 -0.004793994 -0.0028574395 -0.007212157 -0.0012041067 0.001014884 -0.003589633 0.0015600912 0.006233652 0.0076810825 -0.0016832707 -0.0030181454 0.00095171115 0.002356538 -0.0049913377 0.0066898633 0.0033190355 0.004417477 -0.0026099635 0.0010848754 -0.0015765266 0.0023096232 -0.006801914 0.0030150986 -1.47747205e-05 0.0026269583 -0.0030852836 -0.005775288 -0.0067529576 0.0011240848 0.0057834485 -0.0071196156 0.003890597 0.001572959 0.009433448 0.00013717152 0.0023866622 0.0034389123 0.004650548 -0.0021610206 -0.003993041 0.0009968268 -0.00078911264 0.0018855137 -0.009132894 -0.00035512648 0.00014964392 0.0022850719 0.0064542275 -0.0028079865 -0.0050202105 0.0046173506 -0.0010155066 -0.0009938498 -0.0063424814 -0.0054567014 -0.0006163528 -0.0014754484 -0.005678364 -0.00087535346 -0.001789519 -0.0022788355 -0.0052750665 0.00082018314 -0.0032262676 -0.0015789074 0.008625036 0.004966556 0.0014736503 0.0033937143 0.0048631346 -0.00024590816 -0.0019218232 -0.00091143243 -0.005256196 0.0054672346 -0.0018692694 -0.0025679988 0.002858804 0.0018436377 -0.005398513 -0.0022799363 -0.001069734 0.0018524446 -0.0005831178 -0.005739497 0.0035206939 0.0006402544 0.002735088 -0.011056059 -0.004788559 0.0033218837 7.061781e-05 -0.011225396 -0.003648758 0.0054459684 -0.0044205775 -0.0063816193 0.0036133577 0.003475563 0.00076243293 9.6649215e-05 -0.00041437254 -0.0013605816 0.0035744784 0.004745575 -0.00083612715 0.0020420249 0.0022659642 -0.0062135407 -0.0013211546 -0.0017758552 -0.0037096017 0.00034087713 -0.0022388436 0.006538676 0.0032768252 0.0037693346 0.0026752152 -0.0011634368 0.0036465558 -0.0024764254 -0.002424238 0.00081920234 -0.0096026445 
A27DR1VO079F1V	-0.007773456 0.003518284 -0.009400947 -0.014445123 0.0072252774 -0.02076273 -0.025965022 0.003196178 0.0034524659 0.0015684146 -0.01891168 0.018660983 0.01009207 0.011751994 -0.002619136 -0.009950619 -0.0112484265 -0.015613572 -0.002662101 0.006996692 -0.003436813 -0.017512009 -0.0015626731 -0.024659345 0.003476383 -0.0022408427 -0.011267257 0.016912889 0.00036153922 0.0020713375 -0.009428504 0.004306436 -0.015786907 0.0016315382 -0.0025229896 -0.004507496 0.0018615527 0.006256902 0.0016979877 -0.01092753 -0.014731613 0.0046151998 -0.0011137237 0.006427861 -0.02076285 0.009086312 -0.010394489 -0.0134877935 -0.009759512 -0.006683702 0.013048922 -0.0035861623 0.0075866347 -0.0035749865 -0.0060910257 -0.0038400462 0.0031631752 -0.021947362 -0.002361947 -0.014903302 -0.0060028015 0.0070901955 0.008087946 0.0007533389 0.005620916 0.0073602246 0.0007960333 -0.010758904 -0.0038697089 0.00038720403 -0.014845411 0.023819149 0.00040423256 -0.0005880438 0.007601883 0.0020692782 -0.015084001 -0.0011208358 -0.011239145 0.026821468 -0.0009166836 0.0028306074 0.0039446503 -0.015171244 -0.012752079 0.0018784974 -0.010474142 -0.0022885192 -0.0101652 0.011352597 0.012433541 0.0002131204 -0.0063240435 -0.0011625318 0.0028404472 -0.0072595603 -0.015669024 0.007906907 0.014748076 0.0009549295 -0.0034456009 0.016581168 -0.0023515045 0.00096808025 0.0037041088 0.0072440947 -0.0031578513 -0.0015893551 0.011144471 0.007619881 0.0028131944 0.017600503 -0.02159144 0.010556569 0.0054641524 -0.012157645 -0.0080670295 -0.009670786 0.020979408 -0.0018354602 -0.0013835152 0.0075358814 0.01654325 0.007616359 0.01147546 0.0053013773 0.0039201323 -0.017004857 
A2LSR40ZH18TPH	0.0025313587 0.0022514814 0.0063568596 -0.0035363003 -0.0018755585 -0.00018893233 -0.0002072638 0.008413826 -0.0020340546 0.0025785158 0.0045360434 0.004630941 0.0022286328 -0.0017510196 -0.008603514 -0.01039668 0.0011942737 -0.00459833 0.0045533995 0.0063676937 0.010433656 -0.010469885 0.00019552164 0.0010878638 0.011993652 -0.00025699602 -0.003892714 0.0013735575 0.0036816786 0.000115192204 0.00027749434 0.004176669 0.0021713532 0.000590553 0.0009254753 0.012329991 0.0016467184 -0.0015173316 -0.00018846379 -0.0051747006 0.006035738 0.00880582 -0.0017557875 -0.012538594 -0.00091104873 0.0029150401 -0.0054073255 0.0047739595 -0.003800712 -0.007092814 0.010356948 -0.0032115544 0.0029840013 -0.00015500265 0.0033248777 -0.0014950162 0.0041281767 0.004367337 0.005377828 0.0020619147 0.0029952975 -0.0016960675 0.00272849 0.0024456424 -0.0021798348 -0.0003320285 0.0015932585 -0.006882004 -0.0018116586 0.010668578 -0.0034416046 -0.0009559023 -0.007199791 0.0067429068 0.0028012837 0.01178343 -0.00092645676 -0.0012020519 -0.005407458 -0.007370716 0.004822003 0.0043807714 -0.010012968 -0.00082155736 -0.0049457867 0.0040348507 -0.006315422 -0.0075282687 -0.007166866 0.011297004 -0.007020213 -0.011604106 0.0017124618 -0.0095637925 -0.014957006 -0.002258566 0.0032634009 -0.00031146547 -0.006802591 0.012346465 -0.0041473894 0.0028212985 -0.007144344 0.00021394054 3.3762828e-06 -0.0011213698 -0.010257861 -0.006037243 -0.0020503062 -0.0057453304 0.0023834528 -0.003080605 -0.0044741943 0.0035357778 -0.0067026573 0.008283576 0.007479547 -0.0055124657 -0.0041673775 -0.019040821 -0.0032861033 -0.00010680097 0.0058248146 -0.0003214514 0.0028860895 0.0013850345 -0.0059385444 -0.0033407963 
A2Z1BOQPVQK2M4	0.003930404 0.029980417 0.041422926 -0.009620555 0.010936431 -0.0019073479 0.0003410253 0.017664589 -0.015831668 -0.01164303 0.01598319 0.0030368983 0.005834078 0.0020634925 -0.02108905 0.0021605673 0.009437471 -0.009070641 0.014513661 0.031177424 0.021397416 -0.028525282 -0.004665216 -0.0075552724 0.028282369 -0.004879739 0.004563552 0.02484707 0.001913373 -0.0061411704 0.006831065 0.0032877396 -0.010162309 0.0062523107 0.015682131 0.015203161 0.02096377 -0.006193963 -0.0014947905 0.0030922045 0.0055764406 0.0071454486 0.018121855 -0.0023594857 -0.019263389 0.025874313 -0.007906637 0.014201813 -0.0020720325 -0.021912744 0.0025885992 0.025974734 -0.020729927 0.0146983545 0.019194817 -0.003703862 0.017294174 -0.0045446786 -0.008229031 -0.00058172195 0.008291808 -0.009157832 -0.010426913 0.01836945 -0.028124433 0.03682057 0.0001794224 -0.029719623 -0.001353576 0.034431748 -0.0051698214 -0.0050129425 -0.027759286 -0.008130817 0.00266373 0.010814331 -0.001684185 0.0071811182 -0.010037981 -0.02250923 0.007152634 0.009987427 -0.016249444 0.00362904 -0.010894964 0.01126775 -0.0065639406 0.021077434 1.9904084e-05 -0.005163877 -0.011571816 -0.037067167 -0.0074482094 -0.012153988 -0.028066525 0.0047073816 0.01029873 0.022388488 0.0035980376 0.048653822 0.001119965 0.0054571317 0.017461654 -0.02186529 -0.0033138208 0.007957507 -0.0128072975 -0.014466509 0.015998157 0.0039588637 -0.010640674 -0.0056519257 -0.0074031926 -0.006731697 -0.017701067 0.037538074 0.01856977 -4.910763e-06 -0.005475523 -0.03829116 -0.010566698 0.006062186 0.008701787 -0.008193664 0.013217558 -0.0049895965 -0.0079157045 -0.008951147 
ALAY8GVFBUQ9L	-0.0032179083 0.009175362 0.00014908498 -0.00718371 -0.0056956187 0.0013224316 4.3420016e-05 0.0031019037 0.0043020006 -0.0025812504 0.0007532487 -0.0028325822 0.01239948 0.01146073 -0.004727507 2.7920626e-06 0.0079305 -0.0067223115 0.0017824126 0.009009586 0.00340923 -0.013147631 -0.0039886674 -0.006482859 0.011106611 0.0032923992 0.007657874 0.01039324 0.009982421 -0.0029037744 -0.0059536807 -0.0023277733 -0.008426255 0.008342492 0.0027464235 1.5048598e-05 0.015075242 -0.00095775747 -0.0037285518 -0.0055705598 -0.007166555 0.0055456567 0.0050979 0.0015493471 -0.003081987 0.0003382529 -0.000325608 0.00085917214 0.0072246515 0.0016531773 0.00035779542 0.0070856074 -0.012806889 0.0019144004 0.0025474778 0.0021880693 0.0007304858 -0.009646305 -0.0017684839 0.0060797064 -0.007892013 -0.0020983177 -0.008235092 0.0032380773 0.0013482588 0.007914129 -0.0036066866 -0.012413987 -0.0053226775 0.013612921 -0.0085495645 -0.005576167 -0.0049917144 0.005536213 0.0015338043 0.01017734 0.001481511 0.008633801 -0.001321942 0.006155644 -0.0025893238 0.00835471 0.001661198 -0.0035075936 -0.0009821868 -0.012419489 -0.0053512063 -0.0017980108 -0.008306543 -0.00067361246 0.007138426 0.0054692016 -0.0028150762 -0.0072123385 -0.0044514476 0.0023087142 -0.008524917 0.0036734599 0.004812411 0.007285991 -0.0043431716 0.008582961 0.0032878625 -0.00042843216 -0.007746304 -0.0009795662 -0.002483653 -0.0014143315 0.016256683 0.006311274 -0.0021933236 -0.004412105 -0.014177962 -0.0060602585 -0.012173293 0.0052133505 0.008607609 0.0007048144 0.006697664 -0.006873625 0.0018352042 -0.0038663857 0.0113703525 -0.00029220813 -0.001450627 -0.0013054025 -0.00083166326 -0.0065616397 
A3W5BERPNVRXR6	0.009553212 0.008507107 0.00037226864 0.008346571 -0.0010016069 0.0008431227 0.006978532 0.0029763626 -0.0069843833 -0.010354157 -0.006980172 -0.0071931668 0.0061455304 0.010576804 0.004926535 0.010267147 0.0043690004 0.0033178136 0.002722446 -0.00071882224 -0.0040091644 0.004289475 -0.002898555 -0.001335729 0.0058420533 0.008323939 0.005678691 0.0047570667 0.00080468686 0.0021388947 0.00031362087 -0.0047558635 0.00397421 -0.0063567176 0.006201054 -0.0074138716 0.0077011106 -0.005024022 -0.0075206794 -0.005155271 0.004053748 -0.001914584 0.0071371184 0.0022905648 0.0011842777 -0.00313004 -0.0046969475 0.002117294 0.0013075898 0.003306381 -0.004347556 0.0031226326 -0.0092968475 0.004017918 0.0021964367 0.0068069566 0.0015541014 0.011493359 -0.012074576 -0.00046876143 -0.00050670456 0.0075541516 -0.0036885978 0.0051013525 -0.004832892 0.008793474 -0.0060576242 0.0050354796 -0.008574502 -0.0056093987 -0.00015713595 -0.0012654904 -0.0052464157 0.0011437873 0.008792326 -0.009797687 0.0032081953 -0.0014438465 -0.007458698 -0.008527215 0.0050748303 -0.011463466 -0.012851574 0.006917554 0.009819003 -0.004999173 0.0052570086 0.0049630282 -0.0022439386 -0.006473487 -0.00091544876 0.0029949704 0.006928824 -0.007712331 -0.008541091 0.010220363 0.0019894254 0.0067516626 0.00040129875 -0.0013152186 -0.0022173617 -0.0016527994 0.0030634187 -0.00823988 0.0046350397 -0.006366272 -0.0011912574 -0.0051583266 0.013907173 -0.01065086 -0.0055130394 -0.005000411 0.014284515 -0.0093044685 -0.006569526 -0.0018373347 0.010498025 0.0070247017 -0.014879565 -0.0012447179 -0.0023060658 -0.0048060017 -0.00025905183 -0.00815395 0.0021838418 -0.012017962 -0.009636411 0.0027883465 
